tree
version=v4
num_class=1
num_tree_per_iteration=1
label_index=0
max_feature_idx=76
objective=binary sigmoid:1
feature_names=numero_de_cliente foto_mes PC1 PC2 PC3 PC4 PC5 PC6 PC7 PC8 PC9 PC10 PC11 PC12 PC13 PC14 PC15 PC16 PC17 PC18 PC19 PC20 PC21 PC22 PC23 internet cliente_edad cliente_antiguedad mrentabilidad mrentabilidad_annual mcomisiones mactivos_margen mpasivos_margen cproductos mcuenta_corriente mcaja_ahorro cdescubierto_preacordado mcuentas_saldo ctarjeta_visa ctarjeta_visa_transacciones mtarjeta_visa_consumo ctarjeta_master ctarjeta_master_transacciones mtarjeta_master_consumo cprestamos_personales mprestamos_personales cpayroll_trx mpayroll mttarjeta_visa_debitos_automaticos ccomisiones_mantenimiento mcomisiones_mantenimiento ccomisiones_otras mtransferencias_recibidas ccallcenter_transacciones thomebanking chomebanking_transacciones ctrx_quarter Master_status Master_mfinanciacion_limite Master_Fvencimiento Master_msaldototal Master_mlimitecompra Master_fultimo_cierre Master_fechaalta Master_mconsumototal Master_cconsumos Master_mpagominimo Visa_status Visa_mfinanciacion_limite Visa_Fvencimiento Visa_msaldototal Visa_mlimitecompra Visa_fultimo_cierre Visa_fechaalta Visa_mconsumototal Visa_cconsumos Visa_mpagominimo
feature_infos=[29186441:187434871] [202011:202107] [-9.4447700662909693:235.85811773691799] [-36.5828177218633:305.62776725201599] [-41.635670543534097:125.34484779941199] [-24.7722558703197:8.4440367717246794] [-83.295690143211601:37.457146602021702] [-50.756956610154603:26.242050998958099] [-24.466437555916102:19.334519380996799] [-37.679245897116402:62.352761512229897] [-39.484817966787297:65.888743372336904] [-15.868310320753301:413.69359108257498] [-62.5920694207135:104.63225071825499] [-64.256534175307095:51.215999441509503] [-68.095053693535206:95.798807825611505] [-57.224860112273099:121.757474163007] [-42.089495508951401:76.003426277421894] [-109.22914311241399:173.15918210081799] [-126.144853036406:75.218514723220494] [-39.585681220790697:43.429026655111699] [-38.9153075541006:29.416476207831501] [-28.407362477237601:27.694374058855399] [-31.876328047729199:18.3701780743685] [-16.962843775043599:28.163025309628701] [-12.6670287473861:30.866742513695701] [0:4] [18:101] [1:379] [-202818.78:1422599.8300000001] [-813330.37:4226474.1699999999] [-33697.580000000002:470607.25] [-221888.67000000001:198041.26000000001] [-40138.290000000001:1210376.54] [3:17] [-4762523.7599999998:20070099.370000001] [-4893.25:91384784.569999993] [0:1] [-5396528.25:150424942.41999999] [0:3] [0:344] [0:2525356.5299999998] [0:2] [0:244] [0:1871224.3899999999] [0:236] [0:5485918.29] [0:89] [0:20802153.710000001] [0:604970.08999999997] [0:48] [-15494.48:12060.629999999999] [0:300] [0:859687988.74000001] [0:199] [0:1] [0:3806] [0:2164] [0:9] [0:357969808.23000002] [-2914299:4994] [-1431117.26:3901428.8100000001] [1724.3099999999999:9522132.4800000004] [-3:4856] [1:7724] [-15126.08:1843618.76] [0:120] [0:2901462.4199999999] [0:9] [0:356871625.18000001] [-2914299:5025] [-548006.13:3757630.3399999999] [674.47000000000003:9522132.4800000004] [-3:4667] [1:12646] [-34576.220000000001:2282755.1899999999] [0:215] [0:3082561.8900000001]
tree_sizes=13216 19449 19199 20371 19559 20266

Tree=0
num_leaves=123
num_cat=0
split_feature=40 37 4 6 45 2 37 45 4 5 37 4 40 4 37 14 4 2 70 2 20 5 14 37 14 76 37 2 37 33 26 37 68 45 20 4 60 70 63 12 0 5 37 12 70 4 4 13 63 2 2 4 26 10 12 26 50 12 23 2 8 68 10 8 63 14 63 50 50 14 33 12 50 65 64 13 4 11 45 0 5 31 68 58 2 69 5 17 37 21 37 64 39 11 5 26 20 37 4 27 26 11 14 14 39 23 37 31 23 17 60 39 10 11 6 40 31 0 2 2 0 2
split_gain=4554.85 4419.41 3422.99 2950.7 1212.01 514.724 500.225 394.224 442.583 383.972 460.712 255.732 200.984 143.996 100.705 97.687 91.9828 163.388 73.3728 72.1749 66.3004 63.8112 61.947 46.1091 39.6031 39.4034 34.1804 30.8472 30.2992 27.6582 36.4364 22.9007 22.8551 22.5159 28.07 22.4532 20.1667 16.2973 15.5311 14.7022 14.6148 14.3186 15.7353 11.8828 11.7805 12.4118 11.317 10.7399 8.51964 12.7315 7.76395 12.7168 28.1961 7.26287 6.38907 5.98915 5.50687 5.95674 5.43019 5.83708 5.31217 8.03867 3.5324 3.50607 8.19083 3.00303 2.6062 2.40114 2.11001 1.97598 1.79596 1.86876 1.53605 2.07296 1.64249 1.39779 1.38647 1.27943 1.1488 1.12287 1.06343 1.01599 1.45722 1.36191 0.842641 1.45657 0.625355 1.33552 0.584322 1.29525 0.551214 1.28494 1.19097 0.50721 0.467487 0.461661 0.426726 1.03848 0.414366 2.5285 0.413442 0.374603 0.341188 0.273721 0.225131 0.185649 0.181682 0.393185 0.176222 0.188871 0.173719 0.0577009 0.0531677 0.0473726 0.0460596 0.0429358 0.0374822 5.68434e-14 5.68434e-14 2.84217e-14 1.42109e-14 7.10543e-15
threshold=1326.8750000000002 1.0000000180025095e-35 -1.0695766212673097 -1.1995861618085797 15971.560000000003 -1.4224239857046699 6139.3150000000014 30002.515000000003 0.59550722431681613 0.76384376869830861 9764.715000000002 1.0000000180025095e-35 2854.1150000000002 -1.9088162962234547 1409.7300000000002 0.94293407115161865 0.40353420281714653 -0.7302118669691634 7106.2600000000011 -0.60669470002677539 -0.48453743049160741 0.69861811810526964 0.38703811219645706 3416.7950000000005 0.43832248516532957 803.50500000000011 317.53500000000003 -1.8131823530811848 -1651.7549999999999 7.5000000000000009 42.500000000000007 14037.570000000002 139352.40000000002 4580.4950000000008 0.50469177269403354 0.76528189610001618 4334.0600000000004 27246.600000000002 4833.5000000000009 -0.16698262537843148 98470195.500000015 1.0000225043742952 -1651.7549999999999 -0.34116939586923745 5695.5350000000008 0.40353420281714653 -1.0695766212673097 -0.19752380074542047 3850.5000000000005 0.12400486177100052 -0.98484427941128183 0.92369104008531455 32.500000000000007 -0.21055502570941648 -0.042933153766564348 34.500000000000007 2499.8700000000003 0.084865428437649312 -0.73711695110461795 0.39542881491452503 -0.054391389735871744 164689.20000000004 1.0000000180025095e-35 0.71857807353242209 2757.5000000000005 0.53978593184415258 753.50000000000011 682.56500000000017 682.56500000000017 0.74559345633857521 7.5000000000000009 0.65062431956656763 2130.7050000000004 3.5000000000000004 1475.3150000000003 -0.35114782081745693 -0.21471779719798248 0.072817626232253921 15971.560000000003 75245580.500000015 0.34448254500587006 -470.44999999999993 69676.200000000012 190026.00000000003 -0.12440324860639149 -1338.4999999999998 0.63668157962050709 1.0000000180025095e-35 84783.095000000016 0.21043639405802553 71792.650000000009 11349.665000000003 19.500000000000004 0.040573704756217056 0.28303319620245809 40.500000000000007 -0.25140725277643644 32620.105000000007 0.6819898100452606 85.500000000000014 43.500000000000007 -0.13758487914177095 0.53978593184415258 0.69050230040754113 7.5000000000000009 -1.1128626018626449 3416.7950000000005 -585.75499999999988 -1.3029713060426098 0.83510209305790262 1.0000000180025095e-35 29.500000000000004 0.38170310230517157 -0.072830563937330325 -0.5713798950984158 19445.685000000001 -1569.6849999999997 142969766.00000003 0.12400486177100052 -0.24604447101259647 90710335.000000015 0.90335017974076559
decision_type=2 2 2 2 2 2 2 2 2 2 2 2 2 2 2 2 2 2 10 2 2 2 2 2 2 10 2 2 2 2 2 2 10 2 2 2 8 10 8 2 2 2 2 2 10 2 2 2 8 2 2 2 2 2 2 2 2 2 2 2 2 10 2 2 8 2 10 2 2 2 2 2 2 8 8 2 2 2 2 2 2 2 10 10 2 10 2 2 2 2 2 8 2 2 2 2 2 2 2 2 2 2 2 2 2 2 2 2 2 2 8 2 2 2 2 2 2 2 2 2 2 2
left_child=1 2 3 -1 5 -5 7 8 14 16 12 -4 -11 19 22 24 17 18 23 -8 27 39 -3 -2 38 -26 32 -15 -27 30 -12 33 -20 34 37 36 40 47 41 -13 53 54 -43 -32 45 -31 -9 -19 67 -50 51 52 -18 65 -14 -33 88 -58 59 -39 -28 -62 93 72 -65 -22 -60 102 -35 86 71 79 84 74 -74 -68 116 103 -38 111 114 96 -83 94 85 -57 -37 -88 89 115 91 92 -86 113 -84 -70 97 -81 99 -72 105 -77 -45 106 -92 -98 107 -53 -100 117 -99 119 121 -54 -75 -46 -66 118 -110 -52 -107 -93
right_child=9 6 11 4 -6 -7 13 46 -10 10 29 21 15 20 -16 -17 50 31 26 -21 35 -23 -24 -25 25 28 60 -29 -30 44 43 55 -34 68 -36 69 78 58 -40 -41 -42 42 -44 48 56 -47 -48 -49 49 -51 70 77 62 -55 -56 63 57 -59 66 -61 61 -63 -64 64 76 -67 75 -69 95 -71 98 -73 73 80 -76 101 -78 -79 -80 81 -82 82 83 -85 90 -87 87 -89 -90 -91 104 112 -94 -95 -96 -97 100 110 108 -101 -102 -103 -104 -105 -106 120 -108 -109 109 -111 -112 -113 -114 -115 -116 -117 -118 -119 -120 -121 -122 -123
leaf_value=1.120789305439871 -3.7675538166887246 -3.3261259364154858 -3.4163107578828535 -1.0843179753960057 -3.7762462755835209 -2.6316971109042586 -3.8248960277337822 -4.4615951324800847 -4.6196423564345981 -3.3666721484183606 -4.2266961631460775 -4.3736207695964371 -4.3681153836966802 -4.0876489550990742 -3.7033817004824545 -3.775051124165711 -4.4327115631099323 -4.3257566638560538 -4.4902779158647546 -4.4509458005657017 -4.7198806222487377 -4.0116910949913738 -2.6938024220034302 -4.3566081551876898 -3.8617932360420024 -4.0204673874240591 -4.6967857302589611 -4.5140578412931429 -4.4574544026176266 -4.4883005666303735 -4.4297780896414602 -4.6131882170175231 -4.1231879598870238 -4.6730614650239195 -4.2633689523798273 -4.7657916630514938 -4.6767929876985583 -4.4683783682011775 -4.6170447402800221 -4.6897973603528689 -4.3626429153762194 -4.0849166274364732 -4.399954071904685 -4.7657916630514938 -4.7657916630514938 -4.7401084033431617 -4.739561951008942 -4.5755111141956464 -4.3875472928015178 -4.698902932416984 -4.7657916630514938 -4.7152441997530916 -4.7486958723057322 -4.4500754949295622 -4.577737964848116 -4.7657916630514938 -4.549432502656626 -4.7503924011583649 -4.6123315220556531 -4.6558477998574466 -4.6629906341196667 -4.4208641544297533 -4.6272594835577454 -4.5235390823964874 -4.7657916630514938 -4.5708545937572165 -4.6645979466241387 -4.6449574703513843 -4.7178643706368097 -4.6700310901727242 -4.6615417605575402 -4.6780057169011693 -4.7165527509479466 -4.7657916630514938 -4.6046417982149022 -4.7177259524637716 -4.668180212664403 -4.6911604868586734 -4.7657916630514938 -4.6808796615668049 -4.684508379578971 -4.6544223461732068 -4.7657916630514938 -4.682991900409708 -4.7408025454974414 -4.6620292350515005 -4.6684656262620265 -4.7657916630514938 -4.7657916630514938 -4.6775597092224732 -4.7358653833643753 -4.7657916630514938 -4.6509857837344279 -4.7116028074031453 -4.7155114446496844 -4.7657916630514938 -4.7393903110134232 -4.7318874057741853 -4.7424579759978673 -4.7657916630514938 -4.7270312501466929 -4.7657916630514938 -4.715090209004277 -4.7306247274128275 -4.7657916630514938 -4.7657916630514938 -4.7657916630514938 -4.7657916630514938 -4.7657916630514938 -4.742712790053055 -4.7657916630514938 -4.7503602747427323 -4.7487614739586324 -4.7657916630514938 -4.7486958723057322 -4.7487090330376382 -4.748722173522264 -4.7657916630514938 -4.7657916630514938 -4.7657916630514938 -4.7657916630514938 -4.7657916630514938
leaf_weight=14.694328865036367 14.324593774974348 21.655912417918444 23.103161199018359 25.406082617118951 26.768820520490408 22.078466806560758 22.173541544005275 14.641509566456078 19.24735240265727 15.58169308118522 16.088758347555995 14.34572149440646 14.736584303900598 18.666340118274093 23.388385411351919 20.821367500349879 26.039914200082421 14.91616991907358 20.419940831139684 18.613520819693804 15.317596588283779 18.96212819032371 14.028805702924727 14.895042199641464 16.595823613926768 13.838656228035687 23.779248220846057 18.624084679409862 23.567971026524901 26.18780823610723 17.44093239121139 26.113861218094826 17.145144319161773 25.279316300526261 13.997114123776553 36.74110409244895 15.803534135222437 14.187263598665593 17.335293794050813 18.507882222533226 27.32870508544147 15.148574832826851 20.504451708868146 15.380979746580126 19.680470651015639 18.254349589347839 17.874050639569759 25.870892444625497 14.873914480209352 14.018241843208669 39.255302704870701 13.912603246048091 13.711889911442993 15.592256940901278 17.451496250927448 14.02880570292473 17.335293794050813 15.222521850839255 15.275341149419544 25.585668232291937 15.961992030963303 14.271774476394055 18.613520819693804 14.514743249863384 14.567562548443673 14.430232372134922 16.215524664148688 27.159683329984546 14.673201145604251 26.927278416231275 15.740150976926087 24.032780854031444 14.282338336110115 23.504587868228555 14.546434829011559 14.630945706740016 14.409104652702807 18.845925733447075 16.078194487839937 16.564132034778595 14.419668512418864 16.838792387396097 37.153094621375203 22.648915231227875 18.761414855718613 15.814097994938491 14.451360091567041 16.701462211087346 70.545455183833838 15.940864311531184 15.666203958913682 17.039505722001195 14.292902195826171 17.303602214902639 13.986550264060496 44.653435019776225 17.757848182693124 13.828092368319629 20.092461179941893 68.084075869992375 24.19123874977231 22.786245407536629 13.87034780718386 19.997386442497373 116.80459688045084 15.116883253678678 89.475891795009375 21.560837680473924 156.82049748487771 20.314302233979106 20.789675921201706 15.190830271691082 13.764709210023282 25.416646476835012 13.711889911442993 13.722453771159051 13.733017630875112 33.656457055360079 287.03063234500587 68.580577276647091 68.126331308856606 20.525579428300261
leaf_count=1391 1356 2050 2187 2405 2534 2090 2099 1386 1822 1475 1523 1358 1395 1767 2214 1971 2465 1412 1933 1762 1450 1795 1328 1410 1571 1310 2251 1763 2231 2479 1651 2472 1623 2393 1325 3478 1496 1343 1641 1752 2587 1434 1941 1456 1863 1728 1692 2449 1408 1327 3716 1317 1298 1476 1652 1328 1641 1441 1446 2422 1511 1351 1762 1374 1379 1366 1535 2571 1389 2549 1490 2275 1352 2225 1377 1385 1364 1784 1522 1568 1365 1594 3517 2144 1776 1497 1368 1581 6678 1509 1483 1613 1353 1638 1324 4227 1681 1309 1902 6445 2290 2157 1313 1893 11057 1431 8470 2041 14845 1923 1968 1438 1303 2406 1298 1299 1300 3186 27171 6492 6449 1943
internal_value=-4.52885 -3.91839 -2.89752 -1.91425 -2.51487 -1.80379 -4.34922 -3.92826 -3.6434 -4.66096 -4.47474 -4.06491 -4.17035 -4.51739 -3.32532 -4.24861 -4.70537 -4.64187 -4.39126 -4.1106 -4.5875 -4.35411 -3.07754 -4.06783 -4.31946 -4.16242 -4.49446 -4.30061 -4.29579 -4.64403 -4.55472 -4.68784 -4.32273 -4.63161 -4.5808 -4.64116 -4.56624 -4.61053 -4.41902 -4.55174 -4.49805 -4.36843 -4.2661 -4.60608 -4.69793 -4.59173 -4.6144 -4.48417 -4.64213 -4.53861 -4.74401 -4.70827 -4.64289 -4.57967 -4.48177 -4.72182 -4.72889 -4.64339 -4.65795 -4.58898 -4.61389 -4.5487 -4.71581 -4.7292 -4.67567 -4.64759 -4.69775 -4.69515 -4.72977 -4.72376 -4.75333 -4.74145 -4.73856 -4.71044 -4.66008 -4.72208 -4.72737 -4.74862 -4.72168 -4.74536 -4.73855 -4.73682 -4.71665 -4.73085 -4.74774 -4.71081 -4.74508 -4.72064 -4.7521 -4.73254 -4.75282 -4.73801 -4.70197 -4.74502 -4.75204 -4.75394 -4.74718 -4.72915 -4.76151 -4.74622 -4.75456 -4.747 -4.74175 -4.75609 -4.76225 -4.76115 -4.76016 -4.74597 -4.76398 -4.76485 -4.75225 -4.76389 -4.76122 -4.7598 -4.75949 -4.75877 -4.75751 -4.76579 -4.76579 -4.76579 -4.76579 -4.76579
internal_weight=0 552.152 163.867 88.9477 74.2534 47.4845 388.285 110.836 78.3205 2551.35 491.304 74.9189 175.582 277.449 59.0731 160 2060.05 779.37 120.798 40.7871 236.662 51.8157 35.6847 29.2196 139.179 54.0025 91.5781 37.2904 37.4066 315.722 118.833 658.572 37.5651 248.071 163.465 199.372 104.551 149.468 85.1764 32.8536 72.6688 67.8411 35.653 102.744 196.889 44.4422 32.5156 40.7871 85.3032 28.8922 1280.68 264.878 101.086 45.3401 32.1881 410.501 152.447 32.5578 108.681 39.7729 54.013 30.2338 75.0457 384.387 57.2244 29.7478 68.9081 56.411 84.606 94.8212 1015.8 414.061 327.163 80.4649 28.8288 53.6327 42.7097 163.793 31.8817 390.028 51.6361 267.002 90.6274 73.7886 246.698 29.8429 67.8939 31.1528 119.889 49.3438 216.855 84.3841 33.0543 56.4321 51.1396 59.3266 176.374 51.1819 601.739 83.8242 125.192 37.4172 29.2513 144.947 132.471 101.001 124.949 35.4734 517.914 497.822 34.6178 123.027 51.3298 39.1285 37.2165 33.4029 28.3006 477.508 443.851 107.836 83.2432 37.5651
internal_count=293785 52268 15512 8420 7029 4495 36756 10492 7414 241517 46508 7092 16621 26264 5592 15146 195009 73777 11435 3861 22403 4905 3378 2766 13175 5112 8669 3530 3541 29887 11249 62342 3556 23483 15474 18873 9897 14149 8063 3110 6879 6422 3375 9726 18638 4207 3078 3861 8075 2735 121232 25074 9569 4292 3047 38859 14431 3082 10288 3765 5113 2862 7104 36387 5417 2816 6523 5340 8009 8976 96158 39196 30970 7617 2729 5077 4043 15505 3018 36921 4888 25275 8579 6985 23353 2825 6427 2949 11349 4671 20528 7988 3129 5342 4841 5616 16696 4845 56962 7935 11851 3542 2769 13721 12540 9561 11828 3358 49027 47125 3277 11646 4859 3704 3523 3162 2679 45202 42016 10208 7880 3556
is_linear=0
shrinkage=1


Tree=1
num_leaves=176
num_cat=0
split_feature=5 46 67 32 3 56 2 51 2 46 37 37 36 23 2 26 24 51 70 50 2 51 1 56 26 1 23 56 63 52 37 50 26 50 34 37 52 35 1 70 56 26 0 56 8 55 55 13 35 32 34 3 69 56 40 50 13 20 51 20 56 71 55 56 0 74 70 23 46 37 14 63 26 32 32 68 17 19 56 66 17 69 55 17 51 5 8 26 23 20 2 35 27 24 0 50 8 24 37 61 37 51 70 74 52 56 56 34 34 24 2 34 23 69 70 0 68 32 37 40 5 37 57 2 26 20 51 2 46 37 26 50 3 26 63 70 2 37 26 2 8 37 37 20 46 0 37 15 63 26 37 8 2 17 66 20 3 51 20 51 0 55 13 46 17 65 66 20 37 20 24 2 19 0 8
split_gain=500.229 214.252 185.906 136.408 134.689 133.661 105.246 96.7358 98.5619 132.543 103.044 82.5928 78.8749 49.8513 65.9938 58.8842 46.0176 41.7793 36.8947 34.7279 29.3614 27.495 23.069 22.7273 22.5333 22.2393 25.4655 21.7183 20.0949 17.4336 16.1105 15.8755 15.3669 14.947 14.536 13.7791 13.48 13.4092 13.3896 21.0721 13.3895 12.7835 12.2443 9.12551 9.01079 7.6829 6.42859 5.88396 5.32255 5.29197 10.0161 9.48517 4.65672 4.99005 4.5667 4.92241 4.50843 4.29695 3.84482 3.58801 3.5627 3.49946 2.97952 2.81562 2.7485 3.9775 2.45123 2.6184 2.56172 2.16979 1.72097 2.10836 1.66836 1.62738 1.4949 2.18054 1.34041 1.14248 1.13953 2.16128 1.12097 0.94804 0.843427 0.775185 1.24266 0.751178 0.660252 1.97899 0.732504 0.651201 1.76756 0.596886 0.58197 0.518612 0.496146 0.396036 0.349535 0.289196 0.260572 0.223722 0.221792 0.406722 0.205324 0.199412 0.160166 0.514319 0.130553 0.0725267 0.0691332 0.0680795 0.260064 0.0629708 0.0579532 0.0450446 0.0343929 0.0443296 0.0136356 0.0723713 0.00202736 9.33367e-05 5.84529e-05 2.16371e-05 1.50024e-05 1.40754e-05 9.92481e-06 8.63831e-06 3.00288e-06 2.67541e-06 2.84155e-06 2.63183e-06 2.36232e-06 1.68006e-06 1.61278e-06 1.59799e-06 1.5437e-06 1.03756e-06 1.00938e-06 7.1088e-07 9.41298e-07 4.62797e-07 4.23168e-07 4.21801e-07 4.08579e-07 3.97161e-07 3.93628e-07 3.63417e-07 2.81545e-07 2.75428e-07 2.62719e-07 1.91331e-07 1.72953e-07 1.6004e-07 1.42339e-07 1.10992e-07 9.75378e-08 7.34005e-08 7.28345e-08 6.63788e-08 6.82974e-08 4.60956e-08 4.4134e-08 3.55128e-08 3.46414e-08 2.6541e-08 2.46272e-08 1.57448e-08 1.22205e-08 9.60123e-09 8.38608e-09 5.18145e-09 3.72193e-09 2.85638e-09 2.42928e-09 4.29928e-09 8.74135e-10
threshold=0.69861811810526964 1.0000000180025095e-35 8.0000000000000018 575.61500000000012 0.77263931183998513 22.500000000000004 -1.4224239857046699 1.0000000180025095e-35 -2.6196503556953448 1.0000000180025095e-35 -1.0000000180025095e-35 -1.0000000180025095e-35 1.0000000180025095e-35 -0.43091351148195245 -0.48801066455534098 38.500000000000007 0.20918323001707154 6.5000000000000009 8530.4850000000024 2499.8700000000003 -2.1006919577867298 4.5000000000000009 202056.50000000003 38.500000000000007 47.500000000000007 202101.50000000003 -0.78832037617599338 30.500000000000004 753.50000000000011 29325.290000000005 14037.570000000002 1317.6950000000002 42.500000000000007 1317.6950000000002 -1598.4049999999997 -1.0000000180025095e-35 1.0000000180025095e-35 2100.0900000000006 202101.50000000003 5695.5350000000008 38.500000000000007 57.500000000000007 78341136.000000015 30.500000000000004 -0.77790249509175646 113.50000000000001 13.500000000000002 -0.74530983721840338 6521.1500000000005 1231.845 -20.964999999999996 -0.4400634689838519 -622.99999999999989 108.50000000000001 7143.6300000000001 916.5250000000002 -0.6324089883444578 -0.30109889581085741 4.5000000000000009 0.2683393812000226 127.50000000000001 1400709.7000000002 92.500000000000014 66.500000000000014 110449116.00000001 15607.735000000002 2795.2700000000004 0.12399010643752602 1.5000000000000002 84783.095000000016 0.12293482480509951 2286.5000000000005 51.500000000000007 1385.7050000000002 147.73500000000004 139352.40000000002 0.39234658781068354 -0.37958272438799595 108.50000000000001 310.84500000000008 0.20725441817090104 -790.49999999999989 4.5000000000000009 -0.057440495926430447 4.5000000000000009 -4.0736137555236445 1.0000000180025095e-35 27.500000000000004 -1.3029713060426098 -0.67103987628314787 -0.48801066455534098 6521.1500000000005 32.500000000000007 -0.52133835038592691 38083405.000000007 1950.7850000000001 0.19566798197112703 0.37696001753392255 1107385.5850000002 532028.5900000002 139010.74000000002 11.500000000000002 106106.59000000001 13785.680000000002 197217.80000000002 134.50000000000003 59.500000000000007 331.34500000000008 -381.75499999999994 -0.97242152619235189 -0.48801066455534098 331.34500000000008 -1.3029713060426098 -1414.9999999999998 4314.9950000000017 94575090.000000015 69676.200000000012 1103.0300000000002 9764.715000000002 1.0000000180025095e-35 -0.87936773633589793 9764.715000000002 inf -0.98484427941128183 51.500000000000007 -0.30109889581085741 4.5000000000000009 -0.98484427941128183 1.5000000000000002 14037.570000000002 36.500000000000007 1731.3850000000002 0.24920854987663801 47.500000000000007 2757.5000000000005 5695.5350000000008 -0.7302118669691634 14037.570000000002 49.500000000000007 -0.60669470002677539 0.71857807353242209 9764.715000000002 6139.3150000000014 -0.25140725277643644 1.5000000000000002 75245580.500000015 71792.650000000009 0.13984498345107801 2757.5000000000005 43.500000000000007 32620.105000000007 0.38721827390189656 -0.60669470002677539 0.52576512519933905 1049.8350000000003 -0.043435586523189691 -0.4400634689838519 10.500000000000002 0.04140358066305716 8.5000000000000018 75245580.500000015 13.500000000000002 0.13991723553054405 1.5000000000000002 -0.078475703375409336 51.500000000000007 3114.3150000000001 0.50469177269403354 71792.650000000009 -0.41525449596639646 1.0000000180025095e-35 -0.24604447101259647 0.27786456056585801 72590410.500000015 0.25168970566070403
decision_type=2 2 10 2 2 2 2 2 2 2 2 2 2 2 2 2 2 2 8 2 2 2 2 2 2 2 2 2 10 2 2 2 2 2 2 2 2 2 2 10 2 2 2 2 2 2 2 2 2 2 2 2 8 2 2 2 2 2 2 2 2 8 2 2 2 8 8 2 2 2 2 10 2 2 2 10 2 2 2 8 2 8 2 2 2 2 2 2 2 2 2 2 2 2 2 2 2 2 2 10 2 2 10 10 2 2 2 2 2 2 2 2 2 10 8 2 8 2 2 2 2 2 8 2 2 2 2 2 2 2 2 2 2 2 10 10 2 2 2 2 2 2 2 2 2 2 2 2 10 2 2 2 2 2 10 2 2 2 2 2 2 2 2 2 2 8 10 2 2 2 2 2 2 2 2
left_child=2 3 7 4 5 16 -6 11 10 12 -9 -1 -10 14 15 18 22 25 -14 41 -15 29 -2 -19 -24 37 -27 -12 36 43 32 74 34 58 -16 -17 44 -7 63 -40 -37 -8 -28 -5 -22 64 -41 -23 -48 50 56 60 53 -34 55 -49 -30 -20 66 -29 -52 62 78 -25 65 -38 67 68 -11 70 -56 -72 -55 -57 75 -3 93 -58 79 -32 91 103 -51 84 -76 -60 98 -88 -89 90 -90 -68 -91 -71 -84 99 118 108 106 130 101 -96 104 -79 107 -106 -87 114 -93 110 -108 112 -111 -86 115 -94 117 125 -85 -118 -116 -110 127 -120 -95 -114 -125 128 -121 133 -80 -126 144 139 -102 -128 -131 138 143 -122 145 -127 -130 -129 -123 162 -132 -137 -148 156 -112 -107 155 157 163 -139 164 158 160 -141 -154 -162 168 -145 -147 167 169 -160 -138 -159 -167 -165 173 -171 -170
right_child=1 31 -4 21 6 17 19 8 9 33 27 -13 13 20 30 35 -18 23 57 -21 28 47 24 38 -26 26 42 59 49 -31 61 -33 52 -35 -36 40 45 -39 39 46 -42 -43 -44 -45 -46 -47 48 54 -50 82 51 -53 -54 72 69 73 77 -59 85 -61 -62 -63 -64 -65 -66 -67 80 -69 -70 76 71 -73 -74 -75 83 -77 -78 81 95 -81 -82 -83 94 96 113 86 87 88 89 92 -92 97 102 124 100 -97 -98 -99 -100 -101 134 -103 -104 -105 105 151 109 -109 121 111 150 -113 116 -115 120 -117 119 -119 123 122 129 132 -124 126 131 141 135 137 142 136 146 -133 -134 -135 -136 147 140 152 -140 159 -142 -143 -144 154 -146 149 148 -149 -150 -151 -152 -153 153 -155 -156 -157 -158 166 165 -161 161 -163 -164 171 -166 170 -168 -169 174 172 -172 -173 -174 -175 -176
leaf_value=-0.11957513173646214 0.1391684793919418 -0.22371979673367756 0.42971704443048497 0.24055434425931144 -0.10386917465480325 0.18819764328428434 -0.029064683402796693 -0.38463926779048346 0.15273305836588763 -0.17090220120101288 0.13936757184145671 0.28487281426165251 0.44061633906925213 -0.27423452788570962 -0.11432782984962239 -0.13061622513803042 0.59850978243345443 0.183756105996804 0.0025749405326188444 0.31503950247652346 -0.097027495157040691 0.0072104811748102586 0.22747836258727969 -0.085826863509942439 0.47443800129687186 0.39960773791851495 0.037061338232858863 -0.064153904665290931 -0.091955718309511741 -0.14404952881592428 -0.23652020032079554 0.011214975392533282 -0.020522665267232822 -0.023028862479940244 0.15601854943974416 0.19280871269427477 -0.20485631066046839 -0.053184162250365763 0.20553480840418711 0.04224312466952982 -0.06058592943263641 0.15797505897170744 0.24761718493132689 0.010569759080465931 0.066995611078745576 -0.0099156800565380308 -0.026931346834532553 0.0074131208021094549 -0.21122640309557653 -0.28200190482888715 -0.23675810655780347 0.074403009693229855 -0.24423130354002676 -0.22933420364238569 -0.20661397726521091 -0.09088589658481111 -0.27569146010309309 0.1610711561970255 -0.17455016906889473 -0.2020341844229647 -0.069965588073189602 -0.062549814321199868 -0.094924342875149573 -0.21414483168698131 -0.2201529154868396 -0.050820762077296827 -0.18119147817917763 -0.21407891231255974 -0.042870388490078203 -0.181846889714809 -0.1876324968370516 -0.07517186768173699 -0.11110603240828967 -0.19368601023099968 -0.15449781699644063 -0.12229384656922232 -0.14194515542938863 -0.24351566219312326 -0.23658591686198038 -0.11989400316537535 -0.1503350317746909 -0.16224764278368548 -0.17775030441901721 -0.23946439220762605 -0.23725790546738892 -0.21594681501577909 -0.14325099988929677 -0.17185324395330148 -0.12445479925647068 -0.19031150964859983 -0.23648501256807497 -0.21672361991367659 -0.23692407927529077 -0.23685097743583411 -0.18654101378188273 -0.19261313026375976 -0.20353912909580318 -0.20011132743284396 -0.19940072403882539 -0.2031649323251406 -0.23657363512237331 -0.2365537555662125 -0.20397038462504363 -0.20917144601509655 -0.17850010563590724 -0.23643227073449172 -0.19452954496919966 -0.21685245672053527 -0.23687427082468263 -0.22137786849361227 -0.23646806174862076 -0.2193197218215569 -0.23667731248414775 -0.21835772387884245 -0.23691356301976918 -0.21694751859116551 -0.23706145647147167 -0.21579561562782495 -0.23674834347755042 -0.23655399037581143 -0.23652172135936472 -0.2365121731748025 -0.23671948109587651 -0.23661743044501396 -0.23653017873647905 -0.23649361679726372 -0.23652884632865406 -0.2364738958936172 -0.23647983704004402 -0.23649772849508507 -0.23649160110574186 -0.23665472253546035 -0.23658635622640453 -0.23657870601467101 -0.23647498742833295 -0.23642853848867623 -0.23642304505456543 -0.23645743539252032 -0.23650659839467991 -0.23647407603714865 -0.23647067560385157 -0.23644202715902557 -0.23642465270727192 -0.23643373207756463 -0.2364574638909864 -0.23644113741161202 -0.23647668775342648 -0.236478903801872 -0.23642724374107238 -0.2364676066012176 -0.23643135627005454 -0.23646817019578639 -0.23642482037137508 -0.23644477609153142 -0.23644484521094186 -0.23643199155906114 -0.23645353211411702 -0.2364213202005126 -0.23642895817027515 -0.23645274875684888 -0.23644774201308932 -0.23643162099104661 -0.2364301795856566 -0.23642246841139802 -0.23642749025361773 -0.23642052905322758 -0.23642457849788096 -0.23642038428848908 -0.23641403768625915 -0.23641354525714339 -0.23641477185964235 -0.23641728486906494 -0.2364138286975653 -0.23641945214065707 -0.23641663184004277
leaf_weight=71.064767804928124 35.452798859216273 22.925490134395659 28.691169694066048 21.440328518860042 214.90918328054249 23.881867124699056 39.083454661071301 223.28051794227213 63.1807149508968 17.531628568656743 22.08499962463975 45.515746654942632 26.909666927531362 110.41277673095465 19.045058242045343 57.521212903782725 36.499112861230969 33.049608523026109 18.974340228363872 50.527933528646827 31.848386923782527 14.379377598874269 36.368329240009189 18.336678571999073 45.957949274219573 38.787477246485651 26.550242674537003 17.365719687193632 17.982816654257476 17.382259195670485 15.438407381065188 19.655852185562253 22.730559835210443 21.407715760171413 25.645175290293992 18.945889708586037 18.458716462366283 26.880923488177359 23.293156281113625 20.953802911564708 28.996967228129506 41.295725174248219 35.427550487220287 16.995742556639016 43.600496249273419 20.603400783613324 16.626595451496542 18.1897724699229 17.862668240442872 11.759000426158307 12.905319619923832 17.300062937662005 16.710853013209999 13.196108946576716 15.519199245609341 16.45044491905719 17.272731347940862 18.626128247007728 15.027225472964345 25.74825437925756 15.476319215260444 12.125329012982546 14.898677499033509 19.273149646818638 34.35726435109973 18.388373431749642 21.060794392600656 20.479031858034432 16.832707888446748 12.843570676632224 14.126476356759666 26.057875256054103 13.039752898737786 17.425796317867935 22.354294802993536 23.677295383997262 14.861710771918295 20.356924171559513 12.099521569907663 20.099012983962893 16.297645643353462 17.893366993404925 15.950611008331178 16.320887459442019 15.216410136781635 22.479739278554916 17.593585873953998 14.427962275221942 12.419820520095525 20.275769177824259 20.533290495164692 11.796366727910934 12.583365513011822 12.362558360211549 18.71107541769743 21.337186697870493 21.02539590280503 19.170529437251389 12.654769605025647 14.078292979858814 15.018075517378746 17.102367911487818 14.423091819509862 17.08843160700053 12.123942312784491 15.007990451529624 11.173190305009483 11.906145576387642 11.654489479027687 15.516571682877837 11.401144472882153 13.678895122371612 15.315439493395386 12.722966670989988 17.025002505630255 11.854965925216673 14.320401147939263 11.334784681908785 19.555007413029671 22.815893745981157 11.281898183748124 13.347043459303679 11.128242072649298 12.471873709000645 11.972814611159267 16.389742751605809 18.034869330003858 15.972555301152168 11.791541525162758 19.160927001386881 15.988241455517707 11.835483339615164 11.463831346482037 13.436154132708905 20.775667843408883 11.639549858868124 10.991003933362661 11.792690526694061 14.691861940547822 11.174765860661866 21.440354507416487 18.582782762125134 19.672760594636202 11.128548501059411 15.759484602138398 11.759156251326205 11.511990337632598 12.241556901484726 12.124861716292797 18.062593519687653 18.500877666287124 12.513287749141453 18.621273261494935 14.681615379638968 20.120271742343903 13.208569109439848 13.176895244978367 11.309607319533823 17.155876710079614 11.100689906626938 14.408370296470823 15.680831998586653 17.020462518557906 11.449232393875715 19.016897414810956 11.239076099358501 13.565556596033273 12.338941470719872 13.292829982936384 11.060529615730049 13.682456861250101 11.92717165872455 20.77472282666713 17.458975628949702 15.414894356392322
leaf_count=1055 1399 1281 570 1442 2164 1209 1595 2562 2513 1663 1230 2469 1547 1430 1860 1603 1434 1945 1170 1728 1602 1388 1347 1348 1959 2243 1757 1128 1166 1534 1758 1304 2315 1687 2542 1161 1367 1816 1294 1834 2321 1588 2090 1513 1555 2081 1246 1705 1626 1218 1394 1679 1394 1330 1595 1271 1181 1453 1620 2187 1726 1370 1690 1588 2225 1310 2223 2105 1769 1421 1262 2502 1354 1456 1973 1457 1662 1730 1339 2286 1826 1158 1816 1162 1508 2438 2016 1579 1086 2319 2377 1330 1380 1266 2086 2389 2179 2084 1487 1641 1677 1930 1677 1903 1404 1776 1293 1380 1259 1794 1330 1605 1681 1385 1827 1311 1451 1319 2055 2582 1290 1527 1205 1376 1367 1900 2053 1858 1366 2209 1844 1280 1282 1508 2413 1380 1306 1380 1690 1301 2496 2190 2336 1317 1844 1386 1338 1425 1438 2102 2190 1461 2211 1727 2371 1563 1544 1345 2033 1303 1693 1856 2016 1361 2255 1337 1611 1468 1586 1320 1632 1421 2479 2078 1837
internal_value=0 0.0157687 -0.163686 0.0607602 0.107344 0.191127 -0.00293913 -0.170307 -0.180215 -0.163074 -0.308932 0.0383308 -0.10083 -0.117813 -0.0589406 0.054648 0.36853 0.100175 0.231062 0.162757 -0.16714 -0.0935331 0.297261 0.0122086 0.365341 0.186903 0.250644 -0.049666 -0.137788 0.0507593 -0.133179 -0.190163 -0.0652291 -0.217088 0.0408085 -0.0532606 -0.0756512 0.0603763 -0.0365217 0.0184396 0.0395497 0.0670291 0.157419 0.138859 -0.00224161 -0.13598 -0.0601642 -0.136829 -0.122381 -0.181901 -0.151908 -0.0624117 -0.137383 -0.100918 -0.148896 -0.09095 -0.197036 0.0810891 -0.220737 -0.146498 -0.145807 -0.183275 -0.193916 -0.151583 -0.172458 -0.127986 -0.188815 -0.147729 -0.108188 -0.174126 -0.140312 -0.114706 -0.170572 -0.143766 -0.209176 -0.172189 -0.203614 -0.22306 -0.205938 -0.17056 -0.207507 -0.206633 -0.223055 -0.219844 -0.195692 -0.22655 -0.227374 -0.220118 -0.223663 -0.2257 -0.194262 -0.216444 -0.228802 -0.222312 -0.215138 -0.220365 -0.230759 -0.225369 -0.232648 -0.229364 -0.223467 -0.210424 -0.231289 -0.227842 -0.232605 -0.218727 -0.233433 -0.234724 -0.232932 -0.234198 -0.225044 -0.234993 -0.23546 -0.228651 -0.235583 -0.227234 -0.235952 -0.232717 -0.2371 -0.236474 -0.236496 -0.236593 -0.236451 -0.236578 -0.236681 -0.23653 -0.236516 -0.236443 -0.236491 -0.236462 -0.236495 -0.236592 -0.236512 -0.23651 -0.236516 -0.236486 -0.236447 -0.236434 -0.236453 -0.236483 -0.23644 -0.236466 -0.236445 -0.236441 -0.236483 -0.236435 -0.236468 -0.236454 -0.236451 -0.236447 -0.236445 -0.236449 -0.236427 -0.236425 -0.236432 -0.236444 -0.236439 -0.236424 -0.236427 -0.236463 -0.236434 -0.236439 -0.236421 -0.236424 -0.236433 -0.236422 -0.236418 -0.236425 -0.236418 -0.236417 -0.236417 -0.23642 -0.236416 -0.236417 -0.236415
internal_weight=0 1270.7 2600.11 1042.86 801.018 455.202 345.816 2571.42 2454.84 2166.36 288.479 116.581 1006.49 943.305 430.043 169.974 154.278 300.924 64.5101 130.907 513.262 241.843 117.779 149.396 82.3263 151.528 100.765 65.199 402.849 55.8183 260.069 227.841 110.368 1159.87 44.6902 105.464 167.257 50.7628 116.346 78.7362 47.9429 80.3792 61.9778 38.4361 75.4489 91.8078 55.4431 186.025 34.4893 235.593 136.276 45.6817 65.6773 48.9664 171.646 52.066 90.5943 37.6005 1138.46 43.114 28.3816 149.702 137.576 37.6098 71.2044 36.8471 175.394 54.8434 34.3643 119.58 55.7036 40.1844 26.2359 33.8762 208.186 46.6028 63.8761 72.6115 122.678 35.5374 120.55 55.3387 99.3168 161.583 50.2937 963.07 948.043 399.018 381.424 366.996 32.9531 104.253 334.043 49.0144 87.5578 87.1401 111.289 83.1917 549.026 65.8029 71.6072 35.8134 313.767 37.4454 299.344 39.6452 536.371 259.699 64.0212 513.891 41.0752 472.816 459.137 27.9394 247.793 24.4383 443.62 61.6227 90.2637 381.998 223.355 52.2248 367.677 73.9429 36.1709 50.288 54.3878 356.549 54.2802 206.33 51.7246 23.8083 40.5704 46.9935 35.7937 41.916 159.336 302.269 85.2896 33.5574 140.175 34.9725 31.4643 70.5978 29.1065 118.735 39.6251 23.8811 23.6369 62.0155 29.902 27.5213 216.979 191.978 54.6252 25.0013 43.9529 177.296 103.127 22.2755 48.7105 30.0892 56.7192 34.505 30.7761 54.4164 74.1694 29.4948 39.6987 60.6038 24.9215 23.3764 49.2942 28.5195 28.7077
internal_count=293785 76412 217373 55874 33210 26135 7075 216803 213279 206172 7107 3524 74303 71790 37143 9255 6139 19996 4170 4911 34647 22664 4705 10881 3306 9115 6090 4545 33217 4489 27888 20538 10795 131869 4402 5085 10140 3025 8936 6000 3482 3183 3847 2955 3157 6983 4706 18175 2872 23077 11937 4799 6393 4999 16787 4432 7138 2623 130182 3315 3120 17093 15723 2936 4902 2677 18912 5537 3432 12355 5359 3764 2684 2727 19234 2738 6996 5972 14033 4044 13375 4791 11140 16496 4866 111270 109650 45732 43716 42137 3463 11549 38674 5334 9922 9989 11630 9326 63918 7600 8106 4016 36355 3633 34678 4641 62431 30037 7242 59993 4813 55180 53575 2893 28657 2691 51781 7090 9451 44691 25966 5912 43240 8289 3913 5771 6234 42035 6284 24139 5959 2647 4653 5402 4090 4858 18737 35751 10018 3894 16528 4090 3702 8328 3371 14032 4620 2805 2776 7287 3520 3237 25733 22790 6470 2943 5185 21063 12230 2604 5760 3549 6745 4099 3641 6470 8833 3501 4729 7222 2969 2782 5877 3398 3423
is_linear=0
shrinkage=0.234416


Tree=2
num_leaves=174
num_cat=0
split_feature=47 70 29 73 31 17 1 30 2 32 21 31 30 58 4 33 22 5 70 14 70 56 17 75 29 68 50 50 22 11 56 56 1 27 61 53 68 33 56 1 20 14 30 68 31 11 31 29 1 32 27 68 2 31 32 1 56 0 4 11 14 47 4 32 11 26 70 29 22 1 22 26 15 33 55 68 75 29 42 22 65 22 33 29 29 26 70 1 30 48 20 27 30 29 75 47 26 56 15 27 47 17 20 4 56 22 75 42 47 74 56 4 67 32 5 4 4 32 70 4 32 5 4 56 5 32 4 2 4 4 32 31 1 27 31 14 32 11 58 58 17 20 20 27 4 0 32 74 55 26 17 11 11 32 14 73 70 31 56 33 11 48 55 14 20 27 48 73 26 32 55 32 11
split_gain=411.33 326.076 153.56 159.4 130.739 99.2604 112.155 68.5579 82.8505 72.4408 48.1644 43.4357 36.4738 35.7197 31.5676 78.9497 31.0103 30.7008 30.192 27.0485 25.6202 24.7415 22.3942 27.4421 31.1244 21.4368 17.9159 17.1411 15.7502 14.47 13.4675 12.9132 12.9049 12.6585 11.9258 11.5193 13.0452 12.3905 24.3074 10.7955 10.6787 9.44845 8.95325 8.46291 8.20656 8.13791 6.80801 7.37612 6.65554 6.20101 5.78039 5.62558 5.48342 7.1112 7.12114 5.35065 11.3057 4.78884 7.1681 4.58616 5.76024 4.24574 4.11165 3.82939 3.73491 3.64856 3.40187 3.35512 5.37685 3.22723 2.38613 4.89749 2.34598 2.02626 1.89863 3.58893 1.9844 4.13401 1.78529 1.51902 1.27835 1.21909 1.21855 1.35005 1.07026 0.948859 0.946922 0.978967 0.860735 1.76746 0.823662 0.732026 0.669218 0.57541 1.11818 0.594291 0.529389 0.325828 0.30587 0.31324 0.286589 0.261073 0.165762 0.683855 0.120315 0.272186 0.109411 0.0996159 0.0723749 0.0378678 0.025815 0.00750049 0.00112542 0.000874139 0.000231898 8.36632e-05 5.93061e-05 4.60721e-05 4.33335e-05 3.92545e-05 2.55941e-05 1.36926e-05 1.19605e-05 1.02968e-05 6.73894e-06 4.75371e-06 4.57207e-06 4.19728e-06 3.76004e-06 3.33165e-06 9.81945e-07 8.69023e-07 5.96942e-07 1.22563e-06 5.527e-07 4.7728e-07 4.53159e-07 4.49251e-07 4.26684e-07 4.48941e-07 4.12919e-07 2.27885e-07 1.69458e-07 1.5468e-07 2.67915e-07 1.49189e-07 9.11167e-08 9.02203e-08 7.35469e-08 4.90901e-08 4.48092e-08 3.37023e-08 3.0887e-08 2.7714e-08 2.54272e-08 2.49802e-08 2.04058e-08 1.50114e-08 9.96246e-09 8.64749e-09 8.49044e-09 8.48767e-09 7.90455e-09 4.19006e-09 2.94722e-09 2.85319e-09 1.79531e-09 1.75208e-09 1.66848e-09 1.12048e-09 5.38904e-10 3.49267e-10 1.48823e-10
threshold=15486.820000000002 27246.600000000002 10881.380000000003 628.50000000000011 -1170.5249999999999 -0.15128057184690197 202105.50000000003 565.41000000000008 -2.6196503556953448 1.0000000180025095e-35 -0.47455414265694645 -269.58499999999992 213.42500000000004 304690.85500000004 -1.0695766212673097 5.5000000000000009 -0.79820527590181334 0.69861811810526964 7106.2600000000011 0.53978593184415258 11508.735000000002 59.500000000000007 -0.27158782993328445 1.5000000000000002 17715.390000000003 164689.20000000004 2499.8700000000003 1317.6950000000002 -0.034210783689048695 -0.04350366850684239 45.500000000000007 66.500000000000014 202104.50000000003 85.500000000000014 211140.00000000003 1.5000000000000002 186331.05000000002 5.5000000000000009 30.500000000000004 202105.50000000003 -0.20650738941802346 0.58915706754642616 1465.9150000000002 139352.40000000002 -851.58499999999992 1.0000000180025095e-35 -3404.2549999999997 21788.130000000005 202101.50000000003 242.34000000000003 180.50000000000003 109792.8 -0.7302118669691634 976.8850000000001 194.96500000000003 202104.50000000003 52.500000000000007 56288420.000000007 -1.9088162962234547 -0.15703553874138546 0.2851115439895206 216797.96000000005 -2.6319498999102295 58.665000000000006 0.026414775562922054 41.500000000000007 154577.49000000002 26792.960000000003 -0.37503352436430992 202105.50000000003 -0.13346499846305696 59.500000000000007 0.095339921894872018 7.5000000000000009 6.5000000000000009 1002682.1400000001 6.5000000000000009 1312.7350000000001 2.5000000000000004 0.13991240592308105 2.5000000000000004 0.94023397476924153 7.5000000000000009 81370.690000000017 12466.120000000001 27.500000000000004 2795.2700000000004 202056.50000000003 264.56000000000006 1401.7650000000001 -0.25140725277643644 114.50000000000001 213.42500000000004 -11625.969999999999 9.5000000000000018 39059.455000000009 44.500000000000007 149.50000000000003 -0.43066001448705143 32.500000000000007 147706.53000000003 0.034630146858242859 0.22175122834307703 0.99903676011146414 72.500000000000014 1.0000000180025095e-35 17.500000000000004 22.500000000000004 101329.65500000001 2001.5950000000003 38.500000000000007 0.76528189610001618 1.0000000180025095e-35 797.65500000000009 0.76384376869830861 0.92369104008531455 0.59550722431681613 291.90500000000003 2795.2700000000004 0.5048712556771946 1103.0300000000002 0.63668157962050709 0.92369104008531455 96.500000000000014 0.76384376869830861 1231.845 0.40353420281714653 -1.4224239857046699 0.92369104008531455 0.40353420281714653 1231.845 -470.44999999999993 202011.50000000003 180.50000000000003 -470.44999999999993 0.69050230040754113 988.02500000000009 -0.04350366850684239 69676.200000000012 190026.00000000003 0.83510209305790262 -1.1212240417600696 -0.25140725277643644 85.500000000000014 0.99903676011146414 78341136.000000015 242.34000000000003 883.05500000000018 35.500000000000007 39.500000000000007 -0.71249189828989545 -0.072830563937330325 0.21789025622965905 5151.8300000000008 0.74559345633857521 2795.5000000000005 106106.59000000001 -713.03499999999985 134.50000000000003 8.5000000000000018 1.0000000180025095e-35 1401.7650000000001 31.500000000000004 0.12293482480509951 -0.12477733056743899 198.50000000000003 4377.5550000000012 3041.5000000000005 40.500000000000007 887.8900000000001 56.500000000000007 1794.7650000000001 -0.072830563937330325
decision_type=2 8 2 10 2 2 2 2 2 2 2 2 2 10 2 2 2 2 10 2 10 2 2 8 2 10 2 2 2 2 2 2 2 2 8 2 10 2 2 2 2 2 2 10 2 2 2 2 2 2 2 10 2 2 2 2 2 2 2 2 2 2 2 2 2 2 8 2 2 2 2 2 2 2 2 8 8 2 2 2 8 2 2 2 2 2 8 2 2 2 2 2 2 2 10 2 2 2 2 2 2 2 2 2 2 2 10 2 2 10 2 2 8 2 2 2 2 2 10 2 2 2 2 2 2 2 2 2 2 2 2 2 2 2 2 2 2 2 10 10 2 2 2 2 2 2 2 10 2 2 2 2 2 2 2 10 10 2 2 2 2 2 2 2 2 2 2 10 2 2 2 2 2
left_child=1 2 3 12 20 17 10 9 -9 -3 -7 16 28 22 40 -16 -4 -6 19 -12 -5 -22 34 24 -24 -14 35 52 -1 43 -17 -28 33 -15 -13 37 -37 -10 -39 41 -11 63 -43 65 62 -23 80 -48 -20 -26 -35 72 53 61 -55 66 -57 -53 -59 60 -49 74 -18 -31 -32 -25 70 68 -58 79 71 78 -46 -70 86 76 88 -78 84 97 -33 96 83 85 -40 -54 87 -2 89 91 -89 108 -79 94 -87 -95 -72 109 -97 -100 110 -69 121 -104 105 -84 -82 118 115 -64 -88 -92 119 -86 123 -76 -90 -113 120 -112 -106 126 127 -98 129 -126 -101 -121 -118 136 -125 142 133 155 151 147 -120 146 -133 -140 141 -134 145 144 -143 -128 -124 -130 -144 -150 -145 -105 153 156 161 -131 158 -148 159 160 166 -146 163 165 -161 168 -152 -164 -160 -166 -169 172 -172
right_child=27 7 11 4 5 6 -8 8 26 14 18 13 25 32 15 30 44 -19 48 -21 21 45 23 29 49 -27 31 -29 -30 39 64 46 -34 50 -36 36 -38 38 55 -41 -42 42 -44 -45 51 -47 47 59 -50 -51 -52 57 82 54 -56 56 67 58 -60 -61 -62 -63 69 -65 -66 -67 -68 101 73 -71 81 -73 -74 -75 75 -77 77 92 -80 -81 106 -83 104 -85 113 93 100 90 116 -91 111 -93 -94 95 -96 98 114 -99 99 102 -102 -103 103 134 107 -107 -108 -109 -110 -111 112 117 -114 -115 -116 -117 128 -119 124 122 -122 -123 137 130 125 -127 131 -129 135 132 -132 138 140 -135 -136 -137 -138 -139 139 -141 -142 143 148 150 154 -147 157 -149 149 -151 152 -153 -154 -155 -156 -157 -158 -159 162 164 -162 -163 167 -165 169 -167 -168 170 -170 -171 171 -173 -174
leaf_value=0.17265039705850221 -0.15589585496781144 -0.32227723340669229 0.14676845356656265 -0.19270109198501351 -0.097196255204339679 0.54869186003346471 0.67183048024410774 -0.31463243132600249 -0.24710582873094264 0.035686970395707077 0.16091050996808848 -0.069520819396827346 -0.17755624401848241 0.19341202502337715 0.56355746426884268 0.17886423202223928 -0.31240082843630013 0.15621624130362635 -0.04275948091326312 0.37404349506987217 0.21702689071804362 0.041078424186260752 0.24376331200661691 -0.21669168658527113 0.039574899889249518 0.0033055992029995119 0.019454374722569199 -0.034888836798947942 -0.013450308673031515 -0.045834777674850426 -0.12443201928238831 -0.1370728298691575 0.22405368384261842 -0.087502767722075894 -0.27672851684328303 0.087021582730265112 -0.20327684213720992 0.007228947021625875 -0.16415118622067357 0.091355334734910726 -0.12775073952510363 -0.067139771996403474 0.095345006278732145 -0.045813812265330149 -0.23745800688067215 -0.19688590118047253 0.07905452939008252 -0.16202109185763414 0.13492840820126961 -0.10093146005455607 0.076175214529685967 -0.1597977168252728 -0.14948833048336888 0.0230742137499555 -0.20387862503016768 0.080624627588816639 0.0044930781423404946 0.09057379756723119 -0.10857564657630707 -0.22130202280924369 0.046802177045482313 -0.076819679767776525 -0.25297070395334259 -0.15714961942181796 0.028804904797063172 -0.10838410323877001 -0.26447481620156693 -0.23848357002741055 -0.11824574021803375 -0.085754599164803255 -0.19161475588325683 -0.029743261365415111 -0.11662635824574584 -0.23649071737428892 -0.23694759211237892 -0.092454219384737787 -0.037381971432524856 -0.17199888292335927 -0.12203150005204701 -0.15173867101456359 -0.2460219971532781 -0.15265710131717491 -0.18754694267000618 -0.13554669619141294 -0.23903487419987277 -0.23610275152084156 -0.2488690146461163 -0.18436563928379854 -0.23673827908708228 -0.11286708447571063 -0.24365438689534394 -0.16749963924995201 -0.23767186022889822 -0.17103777627064112 -0.1331457854160521 -0.18635006558676476 -0.23645858686445978 -0.19866909584696324 -0.18944366411993244 -0.23618148045659265 -0.20111691723045622 -0.19228218268022626 -0.16555947950510433 -0.2360175463497004 -0.23664257541853434 -0.23621459219107702 -0.2138284405130699 -0.21206744686603593 -0.21362346835866916 -0.23684096667849622 -0.23655437692319609 -0.23692239364154136 -0.23830474639105259 -0.23626336427052994 -0.23742716006340675 -0.2361355014801895 -0.23621783315746328 -0.23624789165623633 -0.23613738364428349 -0.23634743763706961 -0.23614209804072708 -0.23635444815490184 -0.23604567547283528 -0.23623523412825365 -0.23627664149199273 -0.23605300409777566 -0.23602680141544616 -0.23615332131451175 -0.23606795931760025 -0.23601867240127397 -0.23613518013823745 -0.2361179279409269 -0.23604134330982007 -0.23611223008575177 -0.23609092640003956 -0.23611117484206834 -0.2360740003418613 -0.23608092242816806 -0.23603462719793986 -0.23609814906690071 -0.23605634060973041 -0.23605098133303154 -0.23603786322510301 -0.23601651978000393 -0.23600813191014094 -0.2360656672155928 -0.23602494956621056 -0.23603826111534917 -0.23600751115759397 -0.23602651999241031 -0.23600304155226925 -0.23603736828289926 -0.23601074382799006 -0.2360111619300308 -0.23601526552454624 -0.2360019433914407 -0.23600918074055249 -0.23601377708167998 -0.23599821903391202 -0.23600135049012028 -0.23600949160108653 -0.23599985472629473 -0.23599744769448092 -0.23600355934226008 -0.23599448543560844 -0.23600128923531258 -0.23599841516576872 -0.2359954918965517 -0.23599411024267863 -0.23599792384849511 -0.23599239279635564 -0.23599468953510114 -0.2359936285879092
leaf_weight=44.575523210223764 19.813836134504527 35.715766460169107 19.984137813095003 41.213507123291492 37.463259880430996 28.012603501789272 44.851718059275299 178.04173861676827 85.039555806666613 42.420131274033338 60.760558940004557 32.173972546122968 99.700431706383824 24.081224841531366 19.517604355234653 18.496981517411768 17.188947624061257 87.928505506366491 20.659082332160324 70.901151724159718 26.329304241575301 14.341753604821863 41.385030055884272 38.982562581077218 50.468787395861 56.373069323599339 61.487433450296521 30.606486537493765 56.87496370030567 31.668830984272063 22.937485456932336 11.766543674282728 37.631549254991114 26.706404409836978 29.039812942035496 21.424389597028494 14.107145447283981 48.122648099903017 19.262148936279118 43.071059465408325 45.56332356762141 36.787515223491937 37.765119368210435 54.541538313962519 20.519660965073854 17.573487206827849 13.943838891573249 15.167100421153007 26.368027137126774 26.230979503598064 21.322389770299196 20.903887985274196 10.823028204962609 16.206987371668223 14.300780310761182 12.607513533905147 13.486836339347063 17.637026809621602 22.73249052837491 15.102354467380794 13.920890541747211 14.668554208241401 13.128130316734312 36.619239191059023 14.12112269271165 30.435315085109323 31.939931237604469 18.465250749606643 17.561235012486577 14.450161887798457 20.850683162920177 14.732886319514362 15.498371296562253 14.570954293478279 11.276199446059765 19.28804576722905 11.670952724292873 21.403809796087444 20.403630274813622 18.57888444326818 13.06413725204766 17.192855380475521 9.6189853898249584 11.647410363424568 11.399609623942526 11.808136419858785 10.255716735497115 26.264219073578715 10.064140652306376 11.40466812904924 13.021999144461004 13.567121962085364 14.171998674515633 10.802371796220539 11.385848409496246 9.4185482868924719 10.883869958575813 12.389988217502831 10.052348547149448 16.425505153369159 13.195193756371735 10.566954990383236 9.9624281805008632 9.47294511459768 9.9379779561422783 18.383170304819942 10.433945006690918 9.7734027435071749 10.298111694864927 20.467960682231933 12.775492821354417 10.747320916969331 16.292696402873844 13.852521738968788 13.494341617915778 18.258856956381351 12.952921929303555 11.539792434312401 9.8772159237414616 11.024567177053543 12.907783199567346 9.8050695145502669 9.2702669869176955 9.6763725047931093 9.5928246486000734 11.465567199513314 9.1090593254193539 13.761305071413515 9.5509256818331796 8.9852118529379421 12.167945491615681 10.51733910199256 9.47057315148413 9.4309316482394916 12.531458815559747 10.269477032590656 16.641439442522824 10.410637247841811 14.369644001126291 10.641517276410012 9.1458536670543236 9.593048670794813 16.458259996026754 10.013448167592285 11.984957680571826 13.42701328312978 11.839208845049134 13.661001591477541 13.005312248133125 17.525816239882261 9.0026502925902658 9.3813554462976736 14.664456204511223 10.563127166591583 15.57519485382363 10.800970011856405 9.7080864980816823 14.95708946045489 11.954035242553806 8.8324267459101993 8.8904060949571413 15.758978473022578 10.477135406341402 8.9514268832281214 10.200069539714606 9.1072012805379909 9.4448879230767471 10.86446682969108 9.9521675049327296 10.64085380034521 10.240496038459229 10.48722490807995 11.224424725864099
leaf_count=1932 2004 673 1065 2435 1776 1107 1989 1700 1424 1049 2271 2203 2351 1015 946 1214 1294 2596 1797 2370 1911 1576 1515 1328 1742 1655 2404 2450 2520 663 2586 1413 1896 1384 1199 1569 1741 1279 2201 1885 1672 2103 1811 2312 1606 1944 1435 1636 2147 2068 1599 2142 1513 1745 1801 839 1551 1353 2393 1778 1574 1859 1042 2403 1616 1783 2309 2231 1998 1412 2530 1784 1542 1868 1351 1770 1292 2305 2584 1957 1554 2040 1315 1607 1134 1683 943 2447 1183 1580 884 1737 1741 1516 1630 1332 1362 1565 1438 2269 1721 1368 1399 1406 1281 2594 1374 1426 1390 2280 1536 1190 1427 1843 1355 2564 1777 1562 1381 1417 1823 1307 1358 1286 1284 1682 1348 1912 1386 1335 1705 1481 1391 1362 1791 1445 2404 1496 2118 1512 1326 1398 2416 1487 1790 1938 1751 2005 1943 2590 1348 1378 2186 1575 2316 1619 1448 2226 1795 1324 1326 2364 1574 1340 1535 1365 1418 1634 1498 1598 1543 1578 1690
internal_value=0 -0.0373538 0.0297644 0.107484 0.187804 0.250883 0.335812 -0.14288 -0.174029 -0.0199069 0.2629 -0.040449 -0.0411033 -0.00808777 0.046324 0.157984 -0.131237 0.0805043 0.218097 0.275685 -0.0512634 0.0488171 -0.0352031 -0.0162339 0.0799249 -0.11223 -0.132767 -0.207907 0.068319 -0.0528778 0.0154989 -0.0639665 0.112778 0.0547074 -0.16782 -0.156353 -0.0282361 -0.167288 -0.146797 -0.0115143 -0.0489513 -0.0425329 0.0151679 -0.114914 -0.15995 -0.0899519 -0.118885 -0.0695928 0.0568698 -0.00847765 -0.0148379 -0.111944 -0.212761 -0.192477 -0.0833119 -0.172977 -0.124696 -0.068727 -0.0215693 -0.116497 -0.0620827 -0.200646 -0.208498 -0.105527 -0.0660413 -0.169206 -0.194487 -0.159372 -0.119727 -0.185895 -0.18085 -0.151759 -0.185465 -0.171866 -0.205267 -0.188239 -0.1992 -0.158445 -0.17945 -0.208307 -0.200144 -0.208347 -0.226378 -0.213463 -0.205769 -0.217293 -0.220857 -0.201217 -0.215074 -0.196637 -0.215802 -0.214528 -0.19816 -0.220539 -0.185562 -0.224537 -0.222622 -0.231161 -0.227545 -0.229669 -0.233771 -0.221667 -0.232011 -0.219068 -0.234321 -0.219497 -0.231727 -0.235424 -0.230545 -0.243144 -0.237667 -0.239185 -0.236522 -0.237515 -0.236609 -0.236446 -0.236222 -0.236573 -0.236047 -0.236176 -0.23636 -0.236088 -0.236108 -0.236272 -0.236026 -0.236155 -0.236066 -0.23624 -0.236111 -0.236018 -0.23618 -0.236048 -0.236011 -0.236043 -0.236053 -0.236069 -0.236098 -0.236038 -0.236078 -0.236062 -0.236007 -0.236006 -0.236033 -0.236004 -0.236016 -0.23605 -0.236026 -0.23605 -0.236025 -0.236018 -0.236001 -0.236027 -0.236 -0.236 -0.236008 -0.23601 -0.235999 -0.236019 -0.235998 -0.236001 -0.236004 -0.236003 -0.235997 -0.235999 -0.235998 -0.235998 -0.236001 -0.235995 -0.235996 -0.235996 -0.235994 -0.235994 -0.235993
internal_weight=0 2529.83 1546.32 733.927 476.403 376.945 251.553 983.51 784.737 198.772 206.701 812.391 257.524 598.911 163.057 75.0732 213.48 125.392 178.689 131.662 99.4581 58.2445 489.17 427.956 118.085 156.074 606.696 1121.52 101.45 309.871 55.5556 154.886 109.742 72.11 61.2138 451.809 35.5315 416.278 331.238 185.912 87.9835 142.841 74.5526 123.959 193.496 31.9152 93.3988 58.1342 47.0271 76.6998 48.0288 97.2914 1090.92 438.184 30.5078 283.116 87.2587 61.2734 40.3695 44.1903 29.088 407.676 96.2041 68.2881 37.0586 69.4179 195.857 74.6512 45.619 79.0151 163.917 79.6508 36.018 32.1322 393.008 187.838 168.55 47.2468 64.9179 64.565 35.2646 84.2661 652.733 248.57 44.5143 236.923 205.169 81.3872 121.303 64.805 61.5733 53.4003 35.5758 226.1 23.194 202.906 67.0732 45.9861 192.104 182.685 123.782 29.0322 172.633 41.3482 404.163 28.0022 23.4981 376.161 39.8332 33.5961 110.587 35.3091 100.331 25.2521 46.2225 29.5351 56.4985 22.2871 366.388 84.0386 22.8458 131.285 71.2631 32.7282 343.542 21.0584 121.479 24.7859 46.4343 322.483 21.8443 105.054 295.965 29.2171 31.3858 33.4814 26.5187 46.4772 35.5285 25.0112 266.748 257.602 69.5255 248.131 52.9122 22.5361 36.0666 23.2119 46.9894 30.5311 195.219 18.8543 185.206 170.541 43.3191 19.7862 159.978 26.7963 150.27 57.0113 27.3379 27.7439 93.2586 39.9648 29.6734 31.0134 18.4475 53.2937 21.9062 20.8409 42.8166 31.9521 21.4649
internal_count=293785 143562 80937 32377 23919 16053 11681 62625 52869 9756 9692 48560 8458 28909 9083 6362 19651 4372 8585 4641 7866 5431 23015 19613 5325 4006 51169 150223 4452 14288 5416 13168 5894 3998 3402 38001 3310 34691 33267 8865 2721 6980 3914 5423 18586 3520 10764 6423 3944 3810 2983 9036 147773 52805 3546 31988 9855 5888 3746 4988 3210 49259 9550 3066 4202 3111 22133 9016 5417 8256 19824 9546 3148 3866 47400 23526 21756 5338 7762 6844 4341 10278 94968 35615 5178 34008 23874 8087 16418 8622 6083 7042 4046 32495 3313 29182 8238 4887 27666 26334 15787 3599 24896 5974 59353 3909 2928 55444 5305 3322 14066 3636 13123 2977 5708 3915 7796 2752 54018 11696 3104 18922 10160 4353 50914 2966 17615 3329 6613 47948 2991 15346 44163 4316 4575 4836 3785 6831 5111 3630 39847 38521 10235 37130 7868 3286 5335 3391 6949 4533 29262 2784 27775 25589 6470 2954 24014 3977 22566 8549 4092 4154 14017 5998 4457 4658 2766 8019 3293 3133 6445 4811 3233
is_linear=0
shrinkage=0.234416


Tree=3
num_leaves=184
num_cat=0
split_feature=46 6 4 29 34 53 41 70 3 1 1 52 5 32 27 6 76 45 1 24 21 70 57 29 34 30 30 27 34 4 69 76 52 76 27 76 34 7 71 35 0 71 19 34 62 7 76 34 29 3 6 76 30 69 22 29 32 27 70 21 71 1 9 11 26 61 29 3 61 4 7 19 22 4 9 0 30 41 22 35 7 22 29 26 34 52 47 69 6 24 61 15 30 35 71 27 15 29 1 70 24 7 24 21 15 3 24 9 11 11 21 11 1 69 9 24 61 76 15 34 29 9 11 52 11 32 4 32 48 70 5 5 47 30 4 4 32 32 5 32 5 32 5 4 4 30 47 4 48 26 4 47 6 10 4 6 1 30 6 4 29 11 6 30 71 26 24 6 47 3 6 3 7 11 4 5 3 6 52 30 30 4 48
split_gain=360.764 362.486 246.397 119.461 117.232 97.6098 76.1045 68.7454 54.6899 51.7873 40.7085 40.3426 37.816 32.3543 31.4099 30.7564 27.3042 26.439 26.2999 26.2353 33.0425 23.4875 35.714 20.3787 18.9115 20.7072 20.5435 18.7997 18.0577 16.2813 16.0097 15.5833 14.107 13.8433 14.8741 13.5195 11.7326 11.0534 10.8278 10.4397 9.63007 9.54836 9.3412 8.99264 10.1712 8.44348 8.34532 14.1331 7.02964 14.826 6.68699 6.23743 6.22724 5.60995 5.60031 7.07506 4.92262 4.89343 4.68442 4.48866 4.34235 5.38983 6.10791 10.1767 7.96494 3.72174 3.41266 3.15257 3.118 2.86906 2.51163 2.50685 5.08156 5.16301 2.4129 2.20052 1.98949 1.84271 2.60433 1.81914 1.80692 2.57953 3.28397 1.78542 1.58706 1.20641 1.19338 1.11863 1.48787 0.980521 0.874783 0.834297 0.737754 0.666473 4.23103 0.663252 0.923953 0.591001 0.585559 0.512483 0.482885 0.447882 0.6333 0.990776 3.03988 3.86066 0.733266 1.06985 2.11441 0.443934 0.311161 0.293892 0.272035 0.264959 0.233698 0.192084 0.632959 0.131539 0.343648 0.123698 0.111535 0.0995938 0.0949016 0.0869937 0.0739034 0.00388662 0.000677845 0.00022806 0.000226195 8.97428e-05 6.64524e-05 6.51172e-05 3.00025e-05 2.91816e-05 1.73477e-05 1.53469e-05 1.34815e-05 1.2709e-05 1.25547e-05 6.94415e-06 5.50283e-06 4.60428e-06 2.74789e-06 2.10173e-06 1.44773e-06 1.26508e-06 1.12563e-06 1.09193e-06 1.05546e-06 8.35801e-07 8.06072e-07 7.59336e-07 5.51514e-07 4.66182e-07 4.28711e-07 3.60776e-07 3.57231e-07 3.16376e-07 2.82682e-07 2.4342e-07 2.1541e-07 1.74523e-07 1.36612e-07 1.27339e-07 1.26402e-07 8.03868e-08 7.54691e-08 7.36985e-08 6.84806e-08 6.18336e-08 5.37601e-08 4.94173e-08 4.1783e-08 3.86155e-08 2.40831e-08 2.14408e-08 1.93834e-08 1.68049e-08 8.18385e-09 6.93509e-09 5.40572e-09 2.85594e-09 3.88333e-10
threshold=1.0000000180025095e-35 -1.1995861618085797 -1.0695766212673097 12466.120000000001 -1.0000000180025095e-35 1.0000000180025095e-35 1.0000000180025095e-35 7106.2600000000011 -0.17205412187334498 202106.50000000003 202105.50000000003 41289.010000000002 -4.0736137555236445 988.02500000000009 12.500000000000002 -0.83170979768387987 1178.8650000000002 8042.1600000000008 202101.50000000003 -0.52133835038592691 1.0000000180025095e-35 1.0000000180025095e-35 1.0000000180025095e-35 1312.7350000000001 -6934.204999999999 1897.0850000000003 213.42500000000004 32.500000000000007 -1.0000000180025095e-35 -0.5406996168202568 -987.99999999999989 7172.8950000000013 1994.4850000000001 991.18500000000006 85.500000000000014 1.0000000180025095e-35 -13088.354999999998 0.37310124462341659 182988.00000000003 4870.6400000000003 53417425.000000007 251784.45000000004 1.0000000180025095e-35 -288.49999999999994 2.5000000000000004 -0.47403340766529195 134.89500000000001 -9121.2749999999978 19655.075000000004 0.43075700135093403 -0.89775916305059333 2516.0850000000005 1604.5300000000002 -865.49999999999989 -0.23898364498047747 26792.960000000003 291.90500000000003 155.50000000000003 52132.160000000011 0.37042795907299003 461043.72000000003 202056.50000000003 0.77317398430341056 -0.20216019646920397 55.500000000000007 563819.6050000001 10881.380000000003 0.64540239652958908 608084.35000000021 -2.3504835547508898 1.0000000180025095e-35 0.18190392952753603 -0.034210783689048695 1.3352619964509902 0.06863667909673031 64332820.000000007 496.09500000000008 1.0000000180025095e-35 1.3624571292709653 4870.6400000000003 0.57241050648308456 0.18304150365875002 33534.470000000008 38.500000000000007 -1282.2749999999999 152490.15000000002 71127.785000000018 -2128.4999999999995 -0.89775916305059333 -0.30064897470132845 742907.78000000014 0.82287483669368511 2799.3850000000007 3408.4100000000003 282012.66000000009 76.500000000000014 -0.11663272358688799 29887.050000000003 202102.50000000003 27246.600000000002 0.67041267375081659 0.57241050648308456 0.31908126052550756 -0.043159861890870094 0.26953611216544754 -0.53799629597360432 -0.61201602622032092 0.26422900895819107 -0.072830563937330325 0.012739597552618902 -0.71693819143876747 0.29862501762213955 202101.50000000003 -1657.9999999999998 0.26422900895819107 -0.36887209681150246 91494.000000000015 12580.425000000001 0.54375582779391107 -6934.204999999999 3966.9000000000001 0.06863667909673031 0.11164005581036653 172373.19000000003 -0.20216019646920397 242.34000000000003 0.59550722431681613 291.90500000000003 3882.3600000000006 4314.9950000000017 0.76384376869830861 0.34448254500587006 15486.820000000002 264.56000000000006 0.59550722431681613 0.40353420281714653 643.99000000000012 396.03500000000003 0.63668157962050709 643.99000000000012 0.76384376869830861 1103.0300000000002 0.40343099015904405 1.0752239964254302 0.59550722431681613 264.56000000000006 76009.575000000012 1.0752239964254302 17332.005000000005 27.500000000000004 0.84765821983465262 55131.585000000006 -1.1995861618085797 -0.38383371540456895 0.99903676011146414 -0.96671839294702888 202011.50000000003 264.56000000000006 -1.7994805736901649 0.92369104008531455 1312.7350000000001 -0.014530105250000348 -0.96671839294702888 642.37500000000011 77418.000000000015 30.500000000000004 -0.97242152619235189 -0.50444642736908485 167790.60500000004 -0.17205412187334498 -1.5587319488088298 -0.53799629597360432 -0.68727617062670532 -0.10337063346045398 0.99903676011146414 0.21972276161004703 -0.17205412187334498 -0.5713798950984158 68621.085000000006 1054.3600000000001 565.41000000000008 0.84765821983465262 6025.8000000000002
decision_type=2 2 2 2 2 2 2 10 2 2 2 2 2 2 2 2 10 2 2 2 2 10 8 2 2 2 2 2 2 2 8 10 2 10 2 10 2 2 8 2 2 10 2 2 10 2 10 2 2 2 2 10 2 8 2 2 2 2 10 2 10 2 2 2 2 8 2 2 10 2 2 2 2 2 2 2 2 2 2 2 2 2 2 2 2 2 2 10 2 2 8 2 2 2 10 2 2 2 2 10 2 2 2 2 2 2 2 2 2 2 2 2 2 10 2 2 10 10 2 2 2 2 2 2 2 2 2 2 2 10 2 2 2 2 2 2 2 2 2 2 2 2 2 2 2 2 2 2 2 2 2 2 2 2 2 2 2 2 2 2 2 2 2 2 10 2 2 2 2 2 2 2 2 2 2 2 2 2 2 2 2 2 2
left_child=1 2 4 5 21 10 -4 9 38 18 11 14 -6 23 -3 -12 -17 24 37 20 -20 -1 31 74 -16 26 28 -9 -26 30 -2 -23 43 34 -28 -30 -21 42 -7 -18 -14 54 -5 44 -29 -44 47 -31 49 59 -13 -35 -42 -39 -38 -56 -45 -43 -54 79 76 -62 63 -63 -65 83 -32 -19 70 -58 71 72 114 -74 -8 -15 -50 78 -48 -34 95 82 -82 -52 -33 91 -80 88 -79 -71 -64 100 -66 94 122 96 -78 128 -73 -81 120 102 106 104 153 -106 107 121 124 -85 -108 117 -105 -97 -49 116 -112 119 158 -103 -72 133 131 125 -109 -115 127 -122 -77 -121 136 147 -117 -95 -88 139 -127 -128 144 -131 151 -142 160 -139 -134 154 -114 -89 -141 -147 -135 -137 163 -104 -146 159 -154 -158 -119 -151 -118 165 -148 -153 -157 -156 -159 173 178 172 -165 -164 -166 179 -174 -175 180 -176 -161 -168 -169 -182 -183
right_child=29 3 6 7 12 8 13 27 -10 -11 15 50 40 75 17 16 39 67 19 36 -22 22 -24 -25 25 -27 33 32 35 46 66 84 48 51 -36 -37 41 53 -40 -41 52 57 45 56 -46 -47 77 68 60 -51 65 -53 58 -55 55 -57 69 -59 -60 -61 61 62 90 64 92 -67 -68 -69 -70 89 85 98 73 -75 -76 97 80 87 86 99 81 -83 -84 109 -86 -87 134 93 -90 -91 -92 -93 -94 101 -96 113 -98 -99 -100 -101 -102 111 103 112 105 -107 110 108 -110 -111 115 -113 146 123 -116 132 142 118 -120 129 126 -123 -124 -125 -126 130 137 -129 -130 135 -132 -133 138 150 -136 140 -138 143 -140 148 141 -143 -144 -145 145 149 162 -149 -150 155 -152 152 156 -155 161 164 157 166 -160 168 -162 -163 171 170 169 -167 167 176 -170 -171 -172 -173 174 175 177 -177 -178 -179 -180 -181 181 182 -184
leaf_value=-0.37154843623863348 0.040014596885517756 -0.10525155305866794 0.39245795520930676 -0.17547291870219636 0.20367166646744403 0.22770660492693462 -0.061189663434900468 0.17142615741588019 0.49082915764824409 0.20065337798334454 0.030285616369105813 0.0037057948598628676 0.044489185228646692 -0.094395532995604089 -0.029589520586827584 0.32716187032680721 0.2073530576939209 -0.17093713800788432 0.28751123043204796 0.086665621867276429 -0.0033418414811000967 0.11429261821128039 -0.40348387894199667 0.25801489362608021 0.28355850565314616 0.24741653755932738 0.0077882820542835227 -0.082903772223760747 0.019329107682916773 0.10241020747195846 -0.11674171303986471 -0.25613791401231573 -0.095656410756409183 0.023634497419431459 0.16121625971090919 0.20365269630963234 -0.11714747147186028 -0.072991616494502184 -0.060535798232758294 -0.03318815767217799 -0.33343296231440639 -0.017912922694263582 0.0415585021681402 0.0037112783423582812 0.10358128995019443 -0.13924668499832585 -0.058133428558925664 -0.23716112620457272 -0.09675116954394003 0.15678316394782082 -0.12654163316131889 -0.13236481741035164 -0.027006869425917821 0.070926362770545162 0.024047417887194219 -0.10326009560542616 -0.066953511745498795 0.12147059582362159 -0.22068745316406682 -0.001446731096557026 -0.23651779631695016 0.1482970552383551 -0.14161603860275115 0.0505007294208129 -0.14969079617541689 -0.050205939602946704 -0.26080735764692298 -0.039733125531198434 -0.06277210445840764 -0.14507668449167099 -0.21677654414055092 -0.23761079986999542 0.0089297338316922052 -0.19244387730606077 0.040260213726853407 -0.23772339778522161 -0.22529875490203571 -0.085209345557475044 -0.13189604748540396 -0.23663254706055253 -0.19638912534908845 -0.23627130848748956 -0.021165646461737526 -0.18421099888042741 -0.12941858482252194 -0.13724378897850739 -0.23627273790149236 -0.23586548030842017 -0.2164932232469389 -0.23644341566830748 -0.23643867823046641 -0.15728936549531811 -0.23734036042889908 -0.23631227624471909 -0.047158754243322998 -0.19285711151713453 -0.13287216033595306 -0.16844208595387328 -0.17617818331538138 -0.16833689797313162 -0.18187696095019368 -0.20571915413748137 -0.23574495437152931 -0.19250254480829576 -0.20905494930990573 0.012691521363686675 -0.19056174761476016 -0.20361423983473995 -0.087310147405527713 -0.24044292891926741 -0.16769107952779852 -0.1941049396524259 -0.23582401722054439 -0.24136181431594525 -0.18649671944069091 -0.23623252064107014 -0.23576368436263667 -0.23576762664000206 -0.17628563875233033 -0.23640849169155137 -0.23832258202815559 -0.20561288627404631 -0.20710565994452412 -0.2142511963927439 -0.23575665389700037 -0.23644262546531636 -0.23623900398153616 -0.23694119328747054 -0.23617588267417935 -0.2360579212781638 -0.23691928990401717 -0.2365848820077105 -0.23582861212858688 -0.23583029144758033 -0.23581639148959055 -0.23576647232251832 -0.23608263338961091 -0.2359833577556508 -0.23602107469176567 -0.23585785369414977 -0.2359756710805252 -0.23573655344359537 -0.23589723928490866 -0.23583082655112578 -0.23580859009049929 -0.23577214702592589 -0.23574768960264189 -0.23575291609266316 -0.23575332590264014 -0.23576081282322389 -0.23572879572779076 -0.23575114448131876 -0.23572824458281499 -0.2358192475089774 -0.23575311508687136 -0.23572122389641786 -0.2357196329938174 -0.23569994092343294 -0.23570593001563481 -0.23569853925842035 -0.23571316857793495 -0.23577638877609611 -0.23569569446233224 -0.23572584977001021 -0.23570098265079253 -0.23572241424140766 -0.23568066837488677 -0.2356729814459704 -0.23573188284930388 -0.23570409127051059 -0.23570145783089955 -0.23572285934072498 -0.23569149703379672 -0.23568269251160942 -0.23568595352029018 -0.2356994961531125 -0.23567816742899514 -0.23567169420974288 -0.23570971329457097 -0.23567138511839697 -0.2356694469258355 -0.23566518649716861 -0.23566310345850619
leaf_weight=278.93406386300921 30.614263894967735 59.402830731123686 31.292867468670011 71.409847312606871 26.504516787827015 14.084623034112157 24.316939632873982 12.844445027876644 47.735467494465411 73.293719900771976 62.308047633618116 18.981723069678992 11.942545290570704 11.572539182845501 60.67574552539736 68.16521138837561 19.122984740417451 20.474581794347614 42.617341928649694 57.475800331681967 43.24089727178216 15.667135939002035 31.236802842002362 22.940655145328492 43.896277517080307 52.901376740541309 72.99511985341087 32.056622216943651 50.086160308681428 10.365471499040721 17.684633222874254 10.801060677971689 11.563684337306766 27.281868592835963 66.219303123652935 38.808825528714806 61.253427606076002 28.168367792852223 14.569037442561237 20.590187092777342 12.394172878935931 27.793719695881009 28.62799668405205 13.357303591910748 32.230079787783325 28.147841999772936 9.2143308776430768 10.638377582188697 11.712592603638766 12.214994883164762 18.553165378514677 29.114630870521069 12.47351549845189 31.557485254015774 59.700835392810404 40.100715203210711 12.410948382690544 27.570629135705531 15.253605043981223 10.975904967635868 17.683518900536001 11.554085629526524 9.8688993430696446 11.347690490540115 10.674592698458584 14.62783649843186 18.473983196541667 19.790547916665673 12.158288355916737 10.25203074980527 21.23578177113086 15.355216240510343 19.947226128075275 10.775902905035762 27.397725174669176 10.315358849707996 12.574033300392331 7.7819391270168152 8.9707493428140896 14.50576510699466 11.537201128900053 13.307358662597833 11.980882226955144 12.883790469262747 10.923642761074008 11.812943928409366 8.1847834931686538 8.0864549418911391 12.150018201209603 17.423983027692891 11.666079203132538 11.593607063870875 10.436015245504676 8.1420577485114354 8.6849331045523268 10.52721805591136 11.270503965206442 10.381013081409035 19.170430685393512 10.342336317058651 12.726070495788006 7.8013438507914534 11.138149638194593 10.83779287105426 8.7757466924376804 8.4867086922749859 10.363774574827401 7.2900603078305712 11.050644909031687 19.229384595528245 10.318270124029366 11.242197275627403 8.130534336902203 11.749609733931718 9.4442228828556818 7.419153820257633 7.4061661907471779 7.2544516599737152 7.8839220511727026 11.771523607894776 13.282603123225273 7.7559792469255617 8.0351399295032007 10.709776139352469 8.5303599201142806 9.2281712298281509 8.1655342346057314 12.990067823324351 10.446333340369163 9.5287063200958055 10.773374849930404 8.2568986569531244 8.2386325658299011 7.8168590152636197 10.386073438450692 8.5047372467815858 15.021760336589066 8.4035598076879996 8.8349188263528031 14.598090912681075 7.5119864745065597 10.767855040729044 7.6765613309107712 12.128136656247078 9.0794907519593817 11.781105069909243 7.5878213490359512 11.427760213613508 8.3413514140993339 8.2176383812911755 9.5566862658597511 7.1490002744831171 10.487263101618735 7.9567523165605953 8.9364544134587067 8.4026360507123226 11.379163310863076 7.9641509414650491 9.3282095999456942 7.2815007423050719 12.412962894421069 9.221487882081421 7.5289653153158733 10.857808615081016 7.2583897979929928 9.8548015449196082 10.159737210255118 7.1755760624073295 7.3412926658056668 12.77577732736246 9.1491078673861885 7.1980804549530122 8.5356497871689481 7.3660447159781937 6.9466803842224101 9.6246022707782668 11.9338803701103 13.11786075728015 7.127049817238003 7.8301654439419499 8.2245841277763265 10.978757156524809 8.9084303732961398
leaf_count=1553 2371 1507 1406 2269 1278 1302 1223 1174 1623 2525 2334 1811 1598 1741 1269 1880 1129 1795 1477 865 1691 1520 730 1383 1500 2593 1401 2263 1261 1277 1218 1373 1129 1961 1922 1833 2257 1725 1536 1912 747 1120 1380 1054 2525 1493 1398 1354 1439 954 1619 2327 1409 1300 2031 1789 1421 1593 2337 1465 2481 1473 1283 1380 1303 1425 1515 960 1921 1330 2098 1905 2258 1721 1765 1096 1305 1351 1225 1784 1477 1884 1643 1474 1420 1713 1238 1379 2153 2305 1557 1353 1325 1242 1433 1291 1449 1521 2448 1415 1515 1421 2010 1943 1578 1451 1834 1300 1927 1779 1815 1991 1410 948 1445 1077 1315 1286 1422 1792 1208 1341 1261 1597 1530 1226 1188 1565 1524 1473 1223 1147 1421 1352 1795 1519 2259 1356 1473 2476 1234 1957 1305 2085 1571 2074 1361 2050 1498 1463 1742 1278 1928 1382 1596 1533 2078 1474 1727 1348 2280 1621 1398 1972 1342 1795 1905 1353 1328 2358 1693 1314 1589 1379 1298 1780 2242 2476 1309 1478 1555 2082 1692
internal_value=0 -0.0290283 -0.192211 0.0201505 -0.282864 0.0840405 0.0676353 -0.0337209 0.337158 0.0156025 0.0597532 0.0321128 -0.0242622 -0.0189677 0.0555875 0.161411 0.237146 0.0753997 -0.00916271 0.0279635 0.141029 -0.341322 -0.218468 0.074129 0.0919665 0.111309 0.0893842 -0.107737 0.160544 -0.196504 -0.08473 -0.0639082 -0.116679 0.0410773 0.0807685 0.0997991 -0.00747917 -0.0802401 0.0811489 0.0826391 -0.140298 -0.0324818 -0.119048 -0.0484807 0.0105903 -0.0480796 -0.204603 -0.164792 -0.145028 -0.0734941 -0.118761 -0.0569 -0.195302 0.00305065 -0.0613507 -0.0271053 -0.119536 0.051498 -0.133557 -0.132852 -0.164094 -0.121669 -0.0906853 -0.0406311 -0.107883 -0.154364 -0.190347 -0.10645 -0.177992 -0.160603 -0.185079 -0.154761 -0.121639 -0.0617005 -0.0074429 -0.181677 -0.189245 -0.217105 -0.166012 -0.172463 -0.197664 -0.153793 -0.107125 -0.184435 -0.192421 -0.208108 -0.202103 -0.219931 -0.165237 -0.202598 -0.192984 -0.216436 -0.19302 -0.221622 -0.193939 -0.215253 -0.181612 -0.21411 -0.2035 -0.208206 -0.224146 -0.223675 -0.218193 -0.199545 -0.171328 -0.100038 -0.223582 -0.200778 -0.165988 -0.217883 -0.230158 -0.231157 -0.224396 -0.227047 -0.213335 -0.232228 -0.217199 -0.232875 -0.216577 -0.234704 -0.231205 -0.228875 -0.229542 -0.233309 -0.220945 -0.237673 -0.236779 -0.23764 -0.236945 -0.23578 -0.236435 -0.236033 -0.235772 -0.235946 -0.236018 -0.235742 -0.23622 -0.235992 -0.23575 -0.23589 -0.235713 -0.235835 -0.235778 -0.235893 -0.235733 -0.235727 -0.235749 -0.2358 -0.23582 -0.235714 -0.235774 -0.235698 -0.235694 -0.235776 -0.235764 -0.235706 -0.235687 -0.235683 -0.235733 -0.235726 -0.235732 -0.23575 -0.235722 -0.235724 -0.235695 -0.235737 -0.235678 -0.235676 -0.235713 -0.23569 -0.235715 -0.235709 -0.235685 -0.235684 -0.235681 -0.235692 -0.23567 -0.235677 -0.235704 -0.235677 -0.235667 -0.235666 -0.235664
internal_weight=0 2482.05 574.794 1907.26 426.131 872.499 148.663 1034.76 76.3891 620.959 796.11 625.923 78.5684 117.371 541.647 170.186 107.878 482.244 547.665 359.753 85.8582 347.563 68.6286 74.6553 441.979 381.304 328.402 413.801 132.791 988.2 66.7729 37.3918 400.957 195.611 139.214 88.895 273.895 187.912 28.6537 39.7132 52.0638 216.419 128.186 117.731 64.2867 56.7758 921.427 220.193 283.226 59.6027 84.2759 56.3965 40.1213 59.7259 161.055 99.8016 53.4443 55.3643 27.7271 47.3877 223.623 83.2309 65.5474 44.0124 32.4583 65.2942 36.1586 40.2651 209.828 40.087 197.67 85.3314 50.8057 30.7231 51.7147 42.7152 140.392 701.233 36.7559 36.4118 128.68 36.8254 23.5181 50.6663 21.7247 112.338 27.5416 664.477 19.932 27.676 21.535 100.525 21.1106 644.545 44.4912 91.8544 23.8445 31.1427 34.5256 24.8481 88.9318 600.054 346.331 77.6406 36.3574 17.2625 268.691 60.1426 26.8711 32.1132 208.548 253.723 41.2832 68.0099 20.0826 198.184 37.814 242.48 24.4666 218.014 76.2057 33.2716 35.8063 57.4827 15.8204 46.7729 54.9699 26.2727 20.7617 210.213 35.0233 27.7711 160.371 25.5156 18.5709 198.441 24.2499 28.6972 152.951 32.4681 165.973 18.2798 27.4957 20.5317 144.116 135.878 30.4454 19.5142 22.9394 98.7856 17.3735 147.693 139.188 19.0949 37.0922 87.0045 112.032 101.545 16.5827 29.9675 19.8191 28.0127 22.3149 27.1559 57.037 18.7913 90.1659 82.2018 21.7498 48.6344 20.0069 14.727 35.8586 34.9805 28.6002 16.9906 47.2212 20.0645 14.4086 17.9899 35.2873 28.1118 19.8872
internal_count=293785 136654 25624 111030 13965 40153 11659 70877 4461 23515 35692 28437 7369 10253 20329 7255 4921 18822 20990 12823 3168 6596 5043 4371 16067 14798 12205 47362 4594 157131 5104 4313 46188 7611 3323 3094 9655 8167 2838 3041 6091 8790 5142 10898 4788 2873 152027 28410 35290 6747 8108 4288 4493 3025 6077 3820 6110 2713 3746 5793 28543 10802 8321 5481 4008 6297 2733 2755 27133 5056 25212 11131 6778 3979 2988 5882 17741 123617 5656 4328 16302 5004 3120 4872 2793 14081 4258 117961 3504 3635 2840 12368 2628 114457 7270 11298 2754 4141 4353 3199 11015 107187 61502 13847 6421 3029 47655 10434 4757 3253 37221 45685 7426 8544 2799 35387 6715 43694 4435 39259 9500 5677 5837 7253 2830 5656 7402 2773 2620 37838 4708 4576 28672 4336 3033 36046 3485 4629 27595 5447 30599 3191 4900 3441 26122 24701 5483 3429 3974 18118 3094 27408 25889 3392 6583 16044 20946 19018 3013 5448 3595 5012 4073 4943 10596 3391 16940 15466 3985 9063 3665 2712 6705 6542 5363 3159 8924 3774 2657 3383 6682 5329 3774
is_linear=0
shrinkage=0.234416


Tree=4
num_leaves=177
num_cat=0
split_feature=46 6 37 40 56 36 27 7 66 3 37 19 69 7 44 50 12 35 51 64 76 32 19 37 37 69 51 76 52 40 3 40 12 75 5 50 51 13 69 13 13 32 51 19 48 68 69 13 69 0 71 69 27 17 68 76 14 0 37 35 72 5 71 0 27 72 12 51 37 66 51 37 68 17 75 0 17 12 0 69 15 14 47 13 68 5 7 76 76 0 20 6 19 27 56 15 9 9 12 27 4 12 76 19 9 52 35 76 76 17 68 59 7 71 27 4 40 4 37 40 37 47 32 4 40 47 32 62 4 4 4 4 4 59 56 56 5 59 7 47 4 47 0 27 4 51 51 59 7 27 6 35 66 4 7 4 14 4 15 32 6 35 6 56 27 13 14 56 47 4 14 6 56 19 13 32
split_gain=301.551 194.696 155.129 105.558 98.3338 84.1526 34.898 29.4115 27.8279 32.9196 43.366 43.3418 28.001 25.2202 25.0481 24.6391 22.6165 20.4436 19.8795 19.0741 18.3062 18.0875 17.5548 16.6606 14.5164 16.0019 13.385 13.134 12.3339 15.4359 12.3177 11.986 26.5522 11.6158 11.2342 10.4103 9.69189 12.3558 18.8377 8.88041 8.28028 7.69361 7.37077 7.35077 7.21113 6.8508 6.65803 6.32349 5.96366 5.87214 5.67912 5.51962 4.85535 4.62841 4.38803 4.28729 4.25782 3.90421 3.88116 3.78076 3.75934 6.68907 3.55122 8.41542 3.0661 3.65164 2.87328 2.71167 2.42462 2.61251 1.91061 2.20753 7.59544 1.87875 1.49038 1.47357 3.08648 1.45726 3.10947 2.78298 2.42146 1.40859 3.24289 1.4791 1.30175 1.18772 0.986196 1.54279 0.957695 2.00972 0.903933 0.870102 0.949931 0.435113 0.431555 0.421285 0.857872 0.392875 0.388568 0.866312 0.296352 0.159699 0.431265 0.141751 0.465775 0.164267 0.28058 0.774911 0.259316 0.348546 0.123864 0.120349 0.0980499 0.0802724 0.0658689 0.0357621 0.00581909 0.0024334 0.000307467 6.01814e-05 5.16057e-05 2.1156e-05 2.05609e-05 1.45039e-05 1.20316e-05 1.01012e-05 7.72553e-06 7.51202e-06 4.62659e-06 4.33428e-06 3.02282e-06 2.12823e-06 1.30714e-06 1.21035e-06 1.0355e-06 9.47101e-07 9.2049e-07 9.12417e-07 7.4236e-07 7.18338e-07 4.95421e-07 4.66494e-07 4.32639e-07 4.2475e-07 3.70965e-07 2.75868e-07 2.57976e-07 1.47564e-07 1.43364e-07 1.40694e-07 1.24662e-07 1.15986e-07 1.15021e-07 1.04665e-07 1.01157e-07 9.72264e-08 1.20647e-07 8.35255e-08 7.64125e-08 6.86765e-08 6.91088e-08 6.84687e-08 6.03327e-08 5.98301e-08 5.46928e-08 3.76851e-08 3.0404e-08 2.97652e-08 2.32464e-08 2.07695e-08 1.36788e-08 1.08944e-08 7.89238e-09 5.78118e-09 5.06534e-09 1.86958e-09
threshold=1.0000000180025095e-35 -1.1995861618085797 1.0000000180025095e-35 7143.6300000000001 66.500000000000014 1.0000000180025095e-35 85.500000000000014 0.57241050648308456 181.81500000000003 0.93902497671102358 -1.0000000180025095e-35 0.043992116839077958 -714.99999999999989 -1.1008992531882649 1.0000000180025095e-35 1317.6950000000002 -0.34116939586923745 274.83000000000004 6.5000000000000009 4185.2750000000005 1378.2750000000003 291.90500000000003 -0.25114202474440295 317.53500000000003 19588.020000000004 -1763.4999999999998 2.5000000000000004 2809.3350000000005 20257.120000000003 7143.6300000000001 0.33718601401487952 2854.1150000000002 -0.51782029681667285 11.500000000000002 1.0000225043742952 1774.7650000000001 10.500000000000002 -0.11369752814015797 -1261.9999999999998 1.0000000180025095e-35 -0.19752380074542047 242.34000000000003 6.5000000000000009 0.18190392952753603 1094.4250000000002 164689.20000000004 -1123.4999999999998 -0.24398465155230048 -1123.4999999999998 56288420.000000007 563819.6050000001 -1261.9999999999998 123.50000000000001 1.0000000180025095e-35 109792.8 8451.465000000002 0.17942845497073703 94575090.000000015 6139.3150000000014 34724.115000000005 7.5000000000000009 0.57809942870486408 282012.66000000009 59285055.500000007 155.50000000000003 8.5000000000000018 -0.39280059147247742 4.5000000000000009 49913.115000000005 1202.3250000000003 6.5000000000000009 6139.3150000000014 414939.34500000003 -0.018482124456888748 7.5000000000000009 124341355.50000001 -0.10093999568418799 0.17935019570110003 67256090.500000015 -1946.4999999999998 0.35398567476386256 0.80469803892413816 55131.585000000006 -0.037239056187988 455060.80000000005 0.76384376869830861 1.3236722861400652 2809.3350000000005 1.0000000180025095e-35 102234480.50000001 -0.48453743049160741 -1.1128930192067448 -0.19479773001085246 244.50000000000003 59.500000000000007 0.22674323697576451 0.46070663372197301 1.0096836980909651 -0.9295338517327848 94.500000000000014 1.0000000180025095e-35 -0.45072015450235198 1378.2750000000003 0.90954372772606618 0.32883003193679955 68621.085000000006 12350.680000000002 5483.7750000000005 803.50500000000011 1.0000000180025095e-35 186331.05000000002 -515.99999999999989 -0.68727617062670532 979668.30500000005 146.50000000000003 -0.5406996168202568 8529.1000000000022 0.59550722431681613 3416.7950000000005 12816.515000000001 3416.7950000000005 28724.590000000004 452.11000000000007 0.59550722431681613 49391.670000000006 15486.820000000002 1231.845 442.50000000000006 1.0752239964254302 0.84765821983465262 0.40353420281714653 0.40353420281714653 -1.9088162962234547 -1034.4999999999998 78.500000000000014 72.500000000000014 0.76384376869830861 -2144.9999999999995 0.57241050648308456 47932.950000000004 0.92369104008531455 101329.65500000001 72590410.500000015 47.500000000000007 0.92369104008531455 8.5000000000000018 4.5000000000000009 -912.49999999999989 0.57241050648308456 47.500000000000007 -1.5587319488088298 8314.885000000002 909.07500000000016 0.99903676011146414 0.57241050648308456 0.92369104008531455 0.33627911134689109 0.6819898100452606 0.26953611216544754 242.34000000000003 -0.89775916305059333 45311.355000000003 -1.1995861618085797 149.50000000000003 61.500000000000007 -0.74530983721840338 0.6387958064586462 134.50000000000003 106842.51000000002 1.0752239964254302 0.48923774009584903 -0.70238405716851993 134.50000000000003 -0.14315625546809899 0.06784133006130566 887.8900000000001
decision_type=2 2 2 2 2 2 2 2 10 2 2 2 8 2 2 2 2 2 2 8 8 2 2 2 2 10 2 10 2 2 2 2 2 8 2 2 2 2 8 2 2 2 2 2 2 10 8 2 10 2 10 10 2 2 10 10 2 2 2 2 8 2 10 2 2 8 2 2 2 10 2 2 10 2 8 2 2 2 2 8 2 2 2 2 10 2 2 10 10 2 2 2 2 2 2 2 2 2 2 2 2 2 10 2 2 2 2 8 10 2 10 10 2 10 2 2 2 2 2 2 2 2 2 2 2 2 2 8 2 2 2 2 2 10 2 2 2 10 2 2 2 2 2 2 2 2 2 10 2 2 2 2 8 2 2 2 2 2 2 2 2 2 2 2 2 2 2 2 2 2 2 2 2 2 2 2
left_child=1 2 6 7 5 40 22 -4 9 16 13 12 21 -11 18 31 23 30 19 -6 33 -12 -1 34 25 -20 -15 47 29 39 -18 32 -2 -21 -7 48 37 38 -26 -19 -3 -25 55 -32 54 -30 -17 -27 -31 -29 66 -41 -51 -46 -10 67 -28 86 -47 -59 61 -22 85 -64 84 73 -34 -5 69 -44 71 72 75 -66 -40 94 -77 78 -68 80 -80 97 -83 -84 95 114 112 -88 89 -72 -79 92 -81 124 -33 116 -97 101 99 -90 -100 102 -73 105 -105 125 107 -107 109 -108 115 152 -38 137 -39 -92 -16 -93 -117 -114 -119 -103 -118 -96 -70 -102 -121 131 -122 -120 -123 -127 -128 -126 -85 140 138 -110 145 -139 -132 -104 -135 -141 -125 155 -137 -136 153 -147 -145 -140 -101 -148 158 -133 -157 -156 167 -151 -161 -106 -153 -160 -158 -164 169 -152 -167 -162 172 -170 -159 -171 175 -173
right_child=15 4 3 42 14 8 -8 -9 44 10 11 -13 -14 26 64 46 17 28 24 20 60 -23 -24 41 36 27 56 49 45 35 43 70 50 -35 -36 -37 57 62 74 51 -42 -43 68 -45 53 58 -48 -49 -50 52 -52 -53 -54 -55 -56 -57 -58 59 -60 -61 -62 -63 63 -65 65 -67 77 -69 93 -71 88 81 -74 -75 -76 76 -78 90 79 91 -82 82 83 134 -86 -87 87 -89 98 -91 110 117 -94 -95 123 96 -98 -99 100 111 103 121 141 104 161 106 108 -109 113 -111 -112 -113 119 -115 -116 118 122 120 129 126 128 130 -124 144 133 127 132 -129 -130 -131 135 136 -134 142 147 146 -138 139 151 143 -142 -143 -144 150 -146 149 148 -149 -150 159 154 162 -154 -155 157 156 164 170 163 160 166 -163 165 -165 -166 168 -168 -169 171 173 -172 174 -174 -175 -176 -177
leaf_value=-0.24209676887995277 0.16413089274752399 0.18905699893834838 0.098317781390254655 -0.054825848194864787 0.2384953534027684 0.30415929245368906 -0.30738067559176341 0.3607121058740857 -0.15476344201789938 -0.13092328911525061 0.23975775512891595 -0.1034502993155826 0.43782060183558713 -0.047233945268086878 -0.24291897103863833 0.07095827841917729 0.21532564914574867 0.14209519567414114 -0.1748654138685207 0.16969601057533718 0.036289777891908015 -0.024537510852152746 -0.10943271292750634 0.13052961540468691 0.24640218603855671 0.20095173393792162 0.0096455556949969629 0.084584539810579853 -0.15304990246408287 -0.17055897458551489 0.14045749058115387 -0.16916370166766728 -0.074878568249090699 -0.048087047025722716 0.13956455153107217 0.103232294079754 -0.20804267236391025 -0.23656669572957534 -0.040772317873297464 -0.017585781831639415 0.32841988167630992 -0.037569703469368887 -0.059833046676298782 0.030213069041264244 0.076934029691141381 0.071194361135570081 -0.11606984939936485 0.034600352726940092 -0.0094536998590569396 -0.014949424038438722 0.0026414436993902105 0.092452818283600371 -0.18936841954348629 -0.078269696754414655 -0.054649612804584871 0.04730834403627434 0.090550919990615888 0.015135093074655857 -0.070954124780621672 -0.19078089898657891 -0.22295012311927961 -0.19010187674618562 -0.21199622567252058 0.10284981188662384 -0.10534112301937637 -0.037797941556939836 -0.08598531966845066 -0.18765786787056787 -0.2360687391837282 -0.21464417397359078 -0.23557733849895357 -0.16113601901396782 0.077669876376180558 -0.22365241548620182 -0.16887961551684028 -0.23571398267122803 -0.046303709823757082 -0.15547989127864931 -0.19546648003994777 -0.22571508770144694 -0.040120134669251455 -0.025322914358303555 -0.13372408209452677 -0.23560429334070632 -0.13337312929424308 -0.13535155591079959 -0.090906521437356932 -0.23586699922072205 -0.12245270142866316 -0.077172230184002211 -0.2536031106754118 -0.23970369345918216 -0.13013704670252002 -0.17289677152431168 -0.23595605476637579 -0.23733986165409166 -0.14697945035360299 -0.17584173278620679 -0.1887416186368657 -0.23545630226204495 -0.23574858155811079 -0.2359192947007904 -0.23556388946590409 -0.15498939875483378 -0.23547411015237957 -0.23551050953901248 -0.15577188248630802 -0.13748931913088414 -0.23554704512434504 -0.2354840142324319 -0.20936821872498815 -0.19497332602336001 -0.23662614190196474 -0.21424785098857144 -0.209435403224389 -0.23732790838853904 -0.2364986363440735 -0.23641374208047999 -0.23585676996932201 -0.23609139771252291 -0.23584191112172542 -0.23564989934724448 -0.23601521356758778 -0.23559261723922781 -0.23582695037564355 -0.23556044201485357 -0.23590962986580699 -0.23569419367179592 -0.23560456949557804 -0.23560983728118035 -0.23558683316153106 -0.23549502730681615 -0.23577307242173942 -0.23575525733770736 -0.23551838876615236 -0.23550775967121115 -0.23551985039876999 -0.23553243468552379 -0.23545665773546859 -0.23549590884733676 -0.23550563093956173 -0.23547617042681582 -0.23567652327001368 -0.23547155682574816 -0.23551969454527499 -0.23547481480370791 -0.23550311650408665 -0.23547522469721585 -0.23544461816757084 -0.23546489351939234 -0.2354466350332865 -0.23544287119477175 -0.23550027278728328 -0.2354651999261464 -0.23544886139320204 -0.23544794651110176 -0.23549840677831052 -0.23542210802188501 -0.23547749633472778 -0.23545764332741484 -0.23543850185815904 -0.23543913352395807 -0.23543563776677887 -0.23544548451439992 -0.23546912960213498 -0.23542512198134419 -0.23544639004578558 -0.23542778216228555 -0.23542045747235801 -0.23542891796122398 -0.23542892122672382 -0.23541100873197268 -0.23541087707615482 -0.23541918870718934 -0.23541577010147907 -0.23540587117648157
leaf_weight=96.107281788252294 13.995143136009572 46.882505009882152 63.533801952144131 20.516045331489295 20.518002718221396 43.685582045000046 169.84044308052398 37.228379550389946 49.312482057604939 114.49152039503679 34.776525788009167 32.402131053153425 22.755730034550652 167.11513779405504 11.326834981329741 23.211649720091373 48.406716046389192 71.325007784180343 28.595406488981098 32.351768122054636 14.48227702220902 24.082393815740943 127.55670996778645 35.922640209086239 14.070696255192159 22.10110791772604 70.845744146034122 10.923926367890088 30.723406403325498 30.805307172704488 58.271722486708313 6.9855161178857115 12.998511954676358 23.043457209598273 47.631911988835782 17.762586924247444 8.381158107891677 11.147644903976472 9.564226040150972 53.47122584329918 46.8270279369317 25.640206018462777 13.282028301618995 77.35151441115886 24.320949907880276 18.957858261652291 19.038053563795984 29.076672692317516 21.39510877430439 15.771699249744414 9.7975141154602152 47.125540587119758 19.755549756111577 18.658816553652287 46.975060900207609 13.210302840219809 72.142735243774951 9.3152473503723758 23.812275090720505 10.336762352846561 14.299201905727385 14.206886018160729 9.7032938932534325 8.9843879793770594 12.522714390419425 16.38801770680584 18.455211462453008 14.3534707815852 9.0115468006115425 10.91043212963268 10.867158811539413 6.2947986051440266 6.7285760520026079 17.943704456789419 10.434656762517987 9.047202684683727 9.9011912709102017 9.6481492139864695 11.391438042279335 12.003355269785972 10.68611836247146 6.6835628028493366 11.511559524107723 7.1170888291671899 11.348162126261739 13.907256584148852 8.0619931530673075 8.0756360408849996 6.2211200001183924 7.3969450257718554 8.7882219641469366 14.39835301181302 10.905682418495408 7.4415811463259152 6.7252892637625363 12.915729999542238 10.440572054125367 7.8562669965904197 9.9791459534317237 7.483745138160887 7.2997636990621677 8.0924844557885063 6.184181963093577 5.8243515901267555 6.1596233518794161 11.590544615639375 5.8809621459804458 7.1755426402669391 6.2474437123164526 6.1837851167656481 8.6502324934117478 5.7870744988322231 9.7800195175223035 11.054811363108454 8.7977548055350763 11.735422465484595 8.9265460255555826 8.1128931678831595 8.3811587775126082 11.722064767498525 7.8053811755962696 8.2081226510927063 10.546675766585393 6.1383013208396759 7.4124129591509726 10.186360779218374 7.4408276327885652 7.651376250665634 10.700389548670499 7.3152465503662816 7.9427534271962967 9.728642968926577 7.9856015038676578 6.9470107958186409 9.3191838045604545 11.257228541653602 9.6808949699625355 5.9472055521327993 5.6486475355923167 8.8699734816327673 8.5979145360179228 7.2218809453770518 8.5612906466703844 6.6943190167657951 10.208709217607973 9.0958323082886618 6.2953910254873398 8.1656997208483499 10.829678915441034 6.5804541334509841 9.2263297117315357 6.2847150312736622 5.8047976049128929 10.974354124628006 7.3293721168302026 10.278793418779971 5.9491666052490464 5.9606700278818634 6.1450423868373019 8.4213707512244458 8.0764105496928256 6.1422161548398435 6.0600863113068035 6.7131790621206164 8.5387762510217708 10.803893272764979 7.5126482993364325 9.180941282771526 7.0559783000499001 6.020941076334557 6.0958872623741618 6.2314404915087023 8.1253311545588058 7.5826057521626424 5.9526445427909485 10.368923784699289
leaf_count=850 1606 818 2319 2013 1839 1844 2417 1475 1779 1146 1477 2349 1309 1822 814 1664 1923 2289 1945 2305 1701 2014 2310 1312 1792 1582 1083 1380 2000 2342 1309 1098 1751 1229 927 1235 1382 1546 1204 1862 1805 2136 1920 1781 1931 827 1373 2546 1584 1810 1526 1481 2438 1489 2313 1834 1580 1311 2119 1639 1132 1356 1488 1286 1936 2033 2311 1844 1432 1718 2268 1289 1234 2579 1532 1792 1953 1181 1774 1550 1354 1272 2461 1471 1639 1894 1215 1398 1378 1500 827 1363 1268 1235 1181 1582 1405 1712 1937 1715 1398 1420 1310 1314 1391 2566 1310 1592 1345 1392 1426 1301 1260 2540 1415 1470 1220 1151 1529 1845 1427 1637 1727 1275 1318 2173 1270 1501 2182 1525 1651 2156 1469 1276 2030 2471 2141 1290 1293 1959 1894 1626 1663 1508 2219 2046 1388 1836 2504 1496 2125 1453 1284 2490 1689 2366 1310 1404 1384 1922 1875 1427 1411 1552 1933 2543 1731 2150 1664 1408 1427 1481 1933 1789 1411 2477
internal_value=0 -0.0240667 -0.140126 0.0213163 0.0120129 0.0439907 -0.22727 0.195264 0.0288647 0.0404594 -0.00243077 0.125928 0.216995 -0.0368991 -0.0746833 -0.187644 0.075875 0.0517244 -0.047976 0.0329021 -0.00997455 0.13162 -0.166438 0.154767 -0.0806928 -0.0206449 -0.00218498 0.0245261 0.0154947 0.0410476 0.113813 -0.197146 -0.146999 0.079102 0.218305 -0.0517804 -0.125887 -0.0713569 0.0385944 0.0788236 0.258697 0.0605182 -0.135674 0.0775806 -0.0702839 -0.068606 -0.0133181 0.106439 -0.104528 -0.0657219 -0.170954 0.0339629 -0.111938 0.0095554 -0.105922 -0.0664186 0.0504652 -0.184123 -0.00794682 -0.0931747 -0.124759 -0.0758195 -0.142654 -0.0606292 -0.172813 -0.127026 -0.180844 -0.109504 -0.188057 -0.129651 -0.21409 -0.195428 -0.155872 -0.175023 -0.107614 -0.187937 -0.136741 -0.189508 -0.173294 -0.192029 -0.120275 -0.210894 -0.175318 -0.203078 -0.205563 -0.187935 -0.213209 -0.163448 -0.2238 -0.171423 -0.220574 -0.21681 -0.180216 -0.223943 -0.220211 -0.22069 -0.196948 -0.226156 -0.226436 -0.198415 -0.228537 -0.230458 -0.211751 -0.229749 -0.209601 -0.230929 -0.224517 -0.19803 -0.22905 -0.196628 -0.234571 -0.223188 -0.230933 -0.233058 -0.224599 -0.240589 -0.238694 -0.237249 -0.23642 -0.236128 -0.235921 -0.235562 -0.236237 -0.235666 -0.235839 -0.235478 -0.235948 -0.235467 -0.235705 -0.235742 -0.235517 -0.235457 -0.235839 -0.235749 -0.235529 -0.235498 -0.23545 -0.235461 -0.235445 -0.235454 -0.235545 -0.235517 -0.235712 -0.235448 -0.235547 -0.235459 -0.235478 -0.235498 -0.235466 -0.235448 -0.235441 -0.235425 -0.235476 -0.235479 -0.235438 -0.235475 -0.235467 -0.235427 -0.235447 -0.235443 -0.235439 -0.235457 -0.235421 -0.235461 -0.235481 -0.235418 -0.235434 -0.235437 -0.235416 -0.235429 -0.23542 -0.235412 -0.235416 -0.235423 -0.23541 -0.235408
internal_weight=0 2554.98 605.913 212.408 1949.07 1423.88 393.504 100.762 1330.17 1190.9 538.612 114.017 81.6146 424.595 525.194 817.403 652.289 499.408 412.835 118.902 98.3836 58.8589 223.664 152.88 293.934 126.224 310.104 97.629 315.378 241.885 184.03 775.153 195.768 55.3952 91.3175 69.963 167.709 86.6099 34.0696 171.922 93.7095 61.5628 111.646 135.623 139.267 73.4935 42.2497 51.1778 52.2004 46.4512 181.773 100.597 35.5272 42.9798 96.2875 48.0798 142.988 81.0993 42.7701 19.652 42.9884 28.6892 52.5403 18.6877 112.359 46.8544 171.976 34.8695 63.5663 24.1925 579.385 198.287 55.7348 30.4664 19.9989 49.0062 18.9484 158.977 104.459 86.0036 22.0776 142.552 42.7971 36.1135 65.5045 33.8527 61.4473 16.1376 381.098 18.2641 54.5184 63.9261 22.909 39.3738 30.0578 54.1564 23.3563 99.7551 362.834 25.2967 337.537 91.8988 19.7009 327.558 18.1262 309.432 128.421 18.7661 109.655 12.0647 44.8703 19.0756 45.3097 97.5905 19.9454 36.22 30.8001 41.017 27.4318 36.9285 26.6187 72.1979 19.4732 23.0723 31.9323 181.01 27.1485 173.711 18.5058 15.6964 64.1054 166.059 15.4264 22.9207 24.602 55.8973 155.873 86.5357 146.192 80.2883 16.5407 13.4061 15.5083 74.341 16.347 87.7856 39.3567 17.4849 28.0994 53.2903 65.4711 58.4063 13.2885 17.2697 58.7768 34.4954 24.7667 27.5113 31.2655 44.1944 37.614 12.3018 52.7577 12.8582 14.4879 46.473 29.1926 18.4073 40.4129 21.68 20.1819 29.609 14.086 13.6035 22.553 16.6004
internal_count=293785 136654 25624 20047 111030 49886 5577 3794 47263 39751 12780 7149 4800 5631 61144 157131 26971 20752 46209 9562 7723 3491 3160 6219 36647 11701 4485 9756 15739 10793 5013 154094 27221 3534 2771 5161 24946 12157 4528 5632 2623 3448 16253 3090 7512 4946 3037 4128 3926 5628 25615 3343 4248 3420 4092 5691 2663 12789 2946 2950 4189 3057 7629 2774 14935 6548 24089 3857 10562 3638 126873 41214 10752 4515 2736 9518 3745 22338 14380 12069 3128 30462 9070 7798 8387 4855 9839 2613 85659 3768 7958 8941 2818 6924 5773 6748 2987 21392 81891 5678 76213 19680 4225 74276 4132 70144 29166 4158 25008 2702 6777 4300 7226 22306 2961 5351 3761 6123 4524 5844 4760 15455 2947 4675 5689 40978 4584 39580 3609 3054 14035 38079 2739 4257 5337 12398 35906 19766 33765 18421 3545 2936 2939 17131 3494 20032 8853 3866 6382 12267 15172 13733 2999 3878 13664 7765 5609 6453 7211 10221 8725 2818 12440 2936 3243 10987 6803 4275 9576 5072 4764 7033 3337 3197 5369 3958
is_linear=0
shrinkage=0.234416


Tree=5
num_leaves=183
num_cat=0
split_feature=46 60 44 2 73 4 33 5 28 4 50 17 23 4 31 73 73 55 24 35 74 35 50 74 42 16 51 31 11 73 7 34 50 76 11 35 34 52 2 73 51 35 52 22 33 5 31 7 24 4 50 55 19 48 50 24 17 35 4 52 34 74 33 31 22 35 4 76 55 49 62 19 16 7 76 52 74 60 74 33 35 11 9 11 22 2 5 62 11 74 61 23 9 35 28 73 34 55 2 76 7 39 16 24 76 55 61 23 11 34 5 4 23 11 9 73 35 74 2 69 39 2 39 4 35 39 35 4 76 39 5 4 4 35 76 4 35 2 5 35 61 76 2 35 35 51 23 16 51 19 51 51 51 4 55 60 7 16 7 73 7 24 73 31 2 16 19 19 31 52 76 24 16 28 11 16 28 52 52 33 23 55
split_gain=242.759 89.6966 57.8649 36.9597 38.3606 36.2886 36.5607 31.0514 27.5559 25.7075 22.7589 20.3734 20.0011 23.2793 19.487 19.3997 17.0499 23.9469 18.3773 16.3305 15.4621 15.1785 13.4542 18.6184 23.8217 12.5433 12.0941 11.9545 11.839 13.4991 11.2204 11.0215 13.8152 13.1496 10.7968 10.4809 13.8194 9.45761 13.3056 13.5621 9.05801 8.70071 8.21128 7.76356 7.70197 7.41535 6.79074 6.74576 7.29313 7.60518 6.24121 11.311 15.3508 5.47393 5.45834 4.93042 4.6151 5.77485 4.46134 6.81723 4.26318 4.05775 3.81759 3.72665 3.63102 3.56474 3.48797 3.47862 3.79924 3.33324 3.23074 3.16565 3.03769 3.14183 3.02423 2.97497 2.91011 2.77634 4.03388 2.31015 1.92708 1.88288 1.88147 1.8184 1.79014 1.67579 1.64178 1.39792 1.26062 1.20554 1.40793 1.91932 1.90131 0.861032 2.41269 0.833539 0.808241 0.903994 2.61085 0.673327 1.44937 0.547694 0.537554 1.64085 0.609979 0.357328 0.182099 0.140709 0.135235 0.144268 0.12695 0.112967 0.0999667 0.0940392 0.0742878 0.0571905 0.0520822 0.000595719 0.00059362 0.000272201 7.86601e-05 6.85535e-05 4.72761e-05 4.12642e-05 3.99332e-05 3.58544e-05 9.61144e-06 7.95109e-06 5.77735e-06 5.23777e-06 3.38871e-06 3.09279e-06 3.04013e-06 2.89715e-06 2.34737e-06 1.7601e-06 1.73748e-06 1.43355e-06 1.36774e-06 1.65565e-06 1.04099e-06 8.0665e-07 4.66282e-07 4.40099e-07 4.15132e-07 2.52482e-07 2.49528e-07 2.32748e-07 2.11399e-07 2.0216e-07 1.95325e-07 1.71506e-07 1.70062e-07 1.5012e-07 1.38634e-07 1.22571e-07 9.38712e-08 8.43478e-08 7.97297e-08 6.98413e-08 6.88917e-08 7.85393e-08 6.686e-08 5.35302e-08 5.2405e-08 4.57282e-08 2.95551e-08 2.90528e-08 2.8218e-08 2.34379e-08 1.70713e-08 1.37092e-08 1.36191e-08 1.05891e-08 7.81426e-09 6.04977e-09 4.41926e-09 3.69418e-09 3.24568e-09 1.8052e-09 1.34113e-09 4.49324e-10
