tree
version=v4
num_class=1
num_tree_per_iteration=1
label_index=0
max_feature_idx=305
objective=binary sigmoid:1
average_output
feature_names=numero_de_cliente foto_mes internet cliente_edad cliente_antiguedad cproductos cdescubierto_preacordado ctarjeta_visa ctarjeta_visa_transacciones ctarjeta_master ctarjeta_master_transacciones cprestamos_personales cpayroll_trx ccomisiones_mantenimiento ccomisiones_otras ccallcenter_transacciones thomebanking chomebanking_transacciones ctrx_quarter Master_status Master_Fvencimiento Master_fultimo_cierre Master_fechaalta Master_cconsumos Visa_status Visa_Fvencimiento Visa_fultimo_cierre Visa_fechaalta Visa_cconsumos kmes ctrx_quarter_normalizado vm_status01 vm_status02 vm_status03 vm_status04 vm_status05 vm_status06 vm_Fvencimiento vm_fultimo_cierre vm_fechaalta vm_cconsumos vmr_Master_mlimitecompra vmr_Visa_mlimitecompra vmr_msaldototal vmr_mconsumototal vmr_mpagominimo mrentabilidad_rank mrentabilidad_annual_rank mcomisiones_rank mactivos_margen_rank mpasivos_margen_rank mcuenta_corriente_rank mcaja_ahorro_rank mcuentas_saldo_rank mtarjeta_visa_consumo_rank mtarjeta_master_consumo_rank mprestamos_personales_rank mpayroll_rank mttarjeta_visa_debitos_automaticos_rank mcomisiones_mantenimiento_rank mtransferencias_recibidas_rank Master_mfinanciacion_limite_rank Master_msaldototal_rank Master_mlimitecompra_rank Master_mconsumototal_rank Master_mpagominimo_rank Visa_mfinanciacion_limite_rank Visa_msaldototal_rank Visa_mlimitecompra_rank Visa_mconsumototal_rank Visa_mpagominimo_rank mpayroll_sobre_edad_rank mv_status07_rank vm_mfinanciacion_limite_rank vm_msaldototal_rank vm_mlimitecompra_rank vm_mconsumototal_rank vm_mpagominimo_rank internet_lag1 cliente_edad_lag1 cliente_antiguedad_lag1 cproductos_lag1 cdescubierto_preacordado_lag1 ctarjeta_visa_lag1 ctarjeta_visa_transacciones_lag1 ctarjeta_master_lag1 ctarjeta_master_transacciones_lag1 cprestamos_personales_lag1 cpayroll_trx_lag1 ccomisiones_mantenimiento_lag1 ccomisiones_otras_lag1 ccallcenter_transacciones_lag1 thomebanking_lag1 chomebanking_transacciones_lag1 ctrx_quarter_lag1 Master_status_lag1 Master_Fvencimiento_lag1 Master_fultimo_cierre_lag1 Master_fechaalta_lag1 Master_cconsumos_lag1 Visa_status_lag1 Visa_Fvencimiento_lag1 Visa_fultimo_cierre_lag1 Visa_fechaalta_lag1 Visa_cconsumos_lag1 kmes_lag1 ctrx_quarter_normalizado_lag1 vm_status01_lag1 vm_status02_lag1 vm_status03_lag1 vm_status04_lag1 vm_status05_lag1 vm_status06_lag1 vm_Fvencimiento_lag1 vm_fultimo_cierre_lag1 vm_fechaalta_lag1 vm_cconsumos_lag1 vmr_Master_mlimitecompra_lag1 vmr_Visa_mlimitecompra_lag1 vmr_msaldototal_lag1 vmr_mconsumototal_lag1 vmr_mpagominimo_lag1 mrentabilidad_rank_lag1 mrentabilidad_annual_rank_lag1 mcomisiones_rank_lag1 mactivos_margen_rank_lag1 mpasivos_margen_rank_lag1 mcuenta_corriente_rank_lag1 mcaja_ahorro_rank_lag1 mcuentas_saldo_rank_lag1 mtarjeta_visa_consumo_rank_lag1 mtarjeta_master_consumo_rank_lag1 mprestamos_personales_rank_lag1 mpayroll_rank_lag1 mttarjeta_visa_debitos_automaticos_rank_lag1 mcomisiones_mantenimiento_rank_lag1 mtransferencias_recibidas_rank_lag1 Master_mfinanciacion_limite_rank_lag1 Master_msaldototal_rank_lag1 Master_mlimitecompra_rank_lag1 Master_mconsumototal_rank_lag1 Master_mpagominimo_rank_lag1 Visa_mfinanciacion_limite_rank_lag1 Visa_msaldototal_rank_lag1 Visa_mlimitecompra_rank_lag1 Visa_mconsumototal_rank_lag1 Visa_mpagominimo_rank_lag1 mpayroll_sobre_edad_rank_lag1 mv_status07_rank_lag1 vm_mfinanciacion_limite_rank_lag1 vm_msaldototal_rank_lag1 vm_mlimitecompra_rank_lag1 vm_mconsumototal_rank_lag1 vm_mpagominimo_rank_lag1 internet_delta1 cliente_edad_delta1 cliente_antiguedad_delta1 cproductos_delta1 cdescubierto_preacordado_delta1 ctarjeta_visa_delta1 ctarjeta_visa_transacciones_delta1 ctarjeta_master_delta1 ctarjeta_master_transacciones_delta1 cprestamos_personales_delta1 cpayroll_trx_delta1 ccomisiones_mantenimiento_delta1 ccomisiones_otras_delta1 ccallcenter_transacciones_delta1 thomebanking_delta1 chomebanking_transacciones_delta1 ctrx_quarter_delta1 Master_status_delta1 Master_Fvencimiento_delta1 Master_fultimo_cierre_delta1 Master_fechaalta_delta1 Master_cconsumos_delta1 Visa_status_delta1 Visa_Fvencimiento_delta1 Visa_fultimo_cierre_delta1 Visa_fechaalta_delta1 Visa_cconsumos_delta1 kmes_delta1 ctrx_quarter_normalizado_delta1 vm_status01_delta1 vm_status02_delta1 vm_status03_delta1 vm_status04_delta1 vm_status05_delta1 vm_status06_delta1 vm_Fvencimiento_delta1 vm_fultimo_cierre_delta1 vm_fechaalta_delta1 vm_cconsumos_delta1 vmr_Master_mlimitecompra_delta1 vmr_Visa_mlimitecompra_delta1 vmr_msaldototal_delta1 vmr_mconsumototal_delta1 vmr_mpagominimo_delta1 mrentabilidad_rank_delta1 mrentabilidad_annual_rank_delta1 mcomisiones_rank_delta1 mactivos_margen_rank_delta1 mpasivos_margen_rank_delta1 mcuenta_corriente_rank_delta1 mcaja_ahorro_rank_delta1 mcuentas_saldo_rank_delta1 mtarjeta_visa_consumo_rank_delta1 mtarjeta_master_consumo_rank_delta1 mprestamos_personales_rank_delta1 mpayroll_rank_delta1 mttarjeta_visa_debitos_automaticos_rank_delta1 mcomisiones_mantenimiento_rank_delta1 mtransferencias_recibidas_rank_delta1 Master_mfinanciacion_limite_rank_delta1 Master_msaldototal_rank_delta1 Master_mlimitecompra_rank_delta1 Master_mconsumototal_rank_delta1 Master_mpagominimo_rank_delta1 Visa_mfinanciacion_limite_rank_delta1 Visa_msaldototal_rank_delta1 Visa_mlimitecompra_rank_delta1 Visa_mconsumototal_rank_delta1 Visa_mpagominimo_rank_delta1 mpayroll_sobre_edad_rank_delta1 mv_status07_rank_delta1 vm_mfinanciacion_limite_rank_delta1 vm_msaldototal_rank_delta1 vm_mlimitecompra_rank_delta1 vm_mconsumototal_rank_delta1 vm_mpagominimo_rank_delta1 internet_tend6 cliente_edad_tend6 cliente_antiguedad_tend6 cproductos_tend6 cdescubierto_preacordado_tend6 ctarjeta_visa_tend6 ctarjeta_visa_transacciones_tend6 ctarjeta_master_tend6 ctarjeta_master_transacciones_tend6 cprestamos_personales_tend6 cpayroll_trx_tend6 ccomisiones_mantenimiento_tend6 ccomisiones_otras_tend6 ccallcenter_transacciones_tend6 thomebanking_tend6 chomebanking_transacciones_tend6 ctrx_quarter_tend6 Master_status_tend6 Master_Fvencimiento_tend6 Master_fultimo_cierre_tend6 Master_fechaalta_tend6 Master_cconsumos_tend6 Visa_status_tend6 Visa_Fvencimiento_tend6 Visa_fultimo_cierre_tend6 Visa_fechaalta_tend6 Visa_cconsumos_tend6 kmes_tend6 ctrx_quarter_normalizado_tend6 vm_status01_tend6 vm_status02_tend6 vm_status03_tend6 vm_status04_tend6 vm_status05_tend6 vm_status06_tend6 vm_Fvencimiento_tend6 vm_fultimo_cierre_tend6 vm_fechaalta_tend6 vm_cconsumos_tend6 vmr_Master_mlimitecompra_tend6 vmr_Visa_mlimitecompra_tend6 vmr_msaldototal_tend6 vmr_mconsumototal_tend6 vmr_mpagominimo_tend6 mrentabilidad_rank_tend6 mrentabilidad_annual_rank_tend6 mcomisiones_rank_tend6 mactivos_margen_rank_tend6 mpasivos_margen_rank_tend6 mcuenta_corriente_rank_tend6 mcaja_ahorro_rank_tend6 mcuentas_saldo_rank_tend6 mtarjeta_visa_consumo_rank_tend6 mtarjeta_master_consumo_rank_tend6 mprestamos_personales_rank_tend6 mpayroll_rank_tend6 mttarjeta_visa_debitos_automaticos_rank_tend6 mcomisiones_mantenimiento_rank_tend6 mtransferencias_recibidas_rank_tend6 Master_mfinanciacion_limite_rank_tend6 Master_msaldototal_rank_tend6 Master_mlimitecompra_rank_tend6 Master_mconsumototal_rank_tend6 Master_mpagominimo_rank_tend6 Visa_mfinanciacion_limite_rank_tend6 Visa_msaldototal_rank_tend6 Visa_mlimitecompra_rank_tend6 Visa_mconsumototal_rank_tend6 Visa_mpagominimo_rank_tend6 mpayroll_sobre_edad_rank_tend6 mv_status07_rank_tend6 vm_mfinanciacion_limite_rank_tend6 vm_msaldototal_rank_tend6 vm_mlimitecompra_rank_tend6 vm_mconsumototal_rank_tend6 vm_mpagominimo_rank_tend6
feature_infos=[29186441:186129871] [202101:202103] [0:3] [19:101] [1:375] [3:16] [0:1] [0:3] [0:333] [0:2] [0:248] [0:234] [0:63] [0:48] [0:295] [0:72] [0:1] [0:3081] [0:2057] [0:9] [-2914237:4019] [-3:1771] [1:7602] [0:99] [0:9] [-2914237:3928] [-3:39] [1:12524] [0:197] [1:3] [0:2057] [0:9] [0:18] [0:10] [0:20] [0:1010] [0:10] [-2914237:3105] [-3:1771] [1:12524] [0:230] [0.010105176325015499:1] [0.00447208699588569:1] [-28.971839756451999:43.234088819918803] [-0.65590165293170399:56.748208478714297] [0:50.260993763034897] [-1:1] [-1:1] [-1:1] [-1:1] [-1:1] [-1:1] [0:1] [-1:1] [0:1] [0:1] [0:1] [0:1] [0:1] [-1:1] [0:1] [0:1] [-1:1] [3.4064586455920397e-05:1] [-1:1] [0:1] [0:1] [-1:1] [3.21016981798337e-05:1] [-1:1] [0:1] [0:1] [0:1] [0:1] [-1:1] [0:1] [-1:1] [0:1] [0:3] [19:101] [1:374] [3:16] [0:1] [0:3] [0:328] [0:2] [0:248] [0:207] [0:89] [0:48] [0:295] [0:63] [0:1] [0:2749] [0:1978] [0:9] [-2914268:3988] [-3:95] [2:7571] [0:116] [0:9] [-2914268:1582] [-3:43] [2:12493] [0:197] [1:12] [0:1978] [0:9] [0:18] [0:10] [0:20] [0:1010] [0:10] [-2914268:1613] [-3:95] [2:12493] [0:230] [0.010105176325015499:1] [0.0303030303030303:1] [-34.095323758784602:43.234088819918803] [-0.1943947878983:83.3835091083413] [0:50.260993763034897] [-1:1] [-1:1] [-1:1] [-1:1] [-1:1] [-1:1] [0:1] [-1:1] [0:1] [0:1] [0:1] [0:1] [0:1] [-1:1] [0:1] [3.4272397011446999e-05:1] [-1:1] [3.4271222454505003e-05:1] [-1:1] [0:1] [0:1] [-1:1] [3.2270556344391401e-05:1] [-1:1] [0:1] [0:1] [0:1] [0:1] [-1:1] [0:1] [-1:1] [0:1] [-3:3] [-3:14] [-69:12] [-5:4] [-1:1] [-1:1] [-274:238] [-1:1] [-243:233] [-62:27] [-50:36] [-45:47] [-56:37] [-59:40] [-1:1] [-809:1330] [-405:210] [-9:9] [-2163:365] [-18:31] [-989:365] [-73:77] [-7:9] [-2894:2913996] [-28:31] [-989:2564] [-97:115] [-11:2] [-405:210] [-9:9] [-9:18] [-10:10] [-20:20] [-1010:1010] [-10:10] [-2163:2913784] [-28:31] [-2797:4171] [-111:96] [-0.58823529411764697:0.70588235294117596] [-0.71428571428571397:0.81277955314742401] [-12.2878295163634:35.4326437417837] [-62.901147562048401:27.685720216267601] [-14.4232240464165:19.907295568888401] [-1.9917485647236299:1.99808040098694] [-1.7299026475656201:1.8876584241162699] [-1.9977877198537299:1.9946804995704801] [-1.99104598289951:1.99897518082007] [-1.96684941402096:1.94285573841505] [-1.8845777823952401:1.93594436086664] [-0.99358614077429197:0.99282573478361502] [-1.9199823591270799:1.9246570284812901] [-0.99989039894783005:0.993670655851006] [-0.99967330937602095:0.99974507138001401] [-0.97763357724699695:0.99986220201185105] [-0.99994059994060003:1] [-0.99995147515527905:0.99994682265354995] [-1.97502315597501:1.9614111782775401] [-0.99949838113913103:0.99968078799762905] [-0.49075763312794701:0.70721861982237499] [-1.99556653996161:1.96242811410741] [-0.42392660584191399:0.72040423805810105] [-1.8481680132165601:1.8116656616920399] [-0.99982245894363098:0.99947538690215998] [-0.77553232414918905:0.79572074676787996] [-1.9865647571374501:1.98134574165615] [-0.79692028461306796:0.79856255664803] [-1.99980286243741:1.9339811679374299] [-0.99988540433171602:0.99973383018365702] [-1:0.99994035548133098] [-0.93773443360840203:0.97678812959890204] [-0.98178300822182796:0.94281689238945998] [-1.98811141898947:1.92931581920466] [-0.98181525068515196:0.94336300185695099] [-1.99942442730517:1.9077267948275201] [-1:0.99985461946645304] [-1:1] [-0.68571428571428605:3.3428571428571399] [-49.657142857142901:5.3428571428571399] [-2:2] [-1:0.25714285714285701] [-0.74285714285714299:1] [-55.028571428571396:54] [-0.40000000000000002:1] [-43.657142857142901:41] [-14.3714285714286:20.600000000000001] [-9.5999999999999996:12.657142857142899] [-5.4857142857142902:6.8571428571428603] [-46.171428571428599:10] [-17:27] [-1:1] [-372.28571428571399:341.68571428571403] [-178.914285714286:120.428571428571] [-4.5:9] [-1066:1020.5] [-244.07142857142901:198.5] [-1199.37142857143:656.5] [-51:42] [-4.5:9] [-1066:749335.45714285702] [-343.68604651162798:1397.5] [-1199.37142857143:1010.25714285714] [-88:55] [-11:2] [-178.914285714286:126] [-9:9] [-4.5:18] [-10:3] [-20:5.1428571428571397] [-1010:300] [-10:2.5714285714285698] [-1676:749280.942857143] [-1194.25714285714:198.5] [-3123:3813] [-54.742857142857098:66] [-0.58498023715415004:0.58333333333333304] [-0.5:0.5] [-6.8588737314617401:28.749991315975599] [-22.163987139171699:14.3426427957193] [-0.40739776548432599:11.772584435241299] [-1.48397299372651:1.29014179170253] [-0.730003157071622:0.63570617190458201] [-1.8756404367017601:1.64463846207422] [-1.35655649873975:1.49488511385686] [-1.2795824795833499:1.5000168210204401] [-1.3104833145527199:1.11391835335508] [-0.78647701579565599:0.99282573478361502] [-1.8400791627053701:1.28519882705877] [-0.90583467396844597:0.99028182701652101] [-0.87811493473470104:0.98987259065664801] [-0.248018822884882:0.99986220201185105] [-0.99835177772545303:0.98938327567696505] [-0.80065069506063302:0.96391600118308196] [-1.7137591031477799:0.69404563160823596] [-0.98420329670329698:0.98550016291951803] [-0.31385189131593:0.190831199224515] [-1.6575184855757801:0.97770597738287601] [-0.18836779192810199:0.19371462761116801] [-0.99913729356667502:1.8116656616920399] [-0.99355279867148605:0.98587424633936305] [-0.240499168053245:0.206426730177414] [-1.9077724938384699:1.2485858465100801] [-0.22154657234627501:0.20085049848551301] [-1.3062225939698:1.2535477927193099] [-0.99959394160880299:0.97131288437297103] [-0.99852837296915498:0.97906477394727398] [-0.19746707497917301:0.238296345942524] [-0.30441289859176202:0.35344027150770002] [-0.92669172932330801:1.1478169901775399] [-0.30413338726824501:0.34798616891848599] [-0.87257196349169197:1] [-0.79060554709173902:0.97332348050988404]
tree_sizes=1833 1840 1834 1846 1839 1839 1828 1828 1819 1840 1831 1834 1844 1840 1846 1849 1842 1848 1820 1833

Tree=0
num_leaves=16
num_cat=0
split_feature=106 53 106 50 150 241 67 54 295 57 88 47 60 153 57
split_gain=2335.24 658.977 322.943 179.359 79.5798 79.554 42.0007 21.1721 56.2608 26.8364 19.246 29.495 18.0249 13.2221 6.65473
threshold=13.100000000000001 -0.20008235376508246 40.400000000000006 0.13795615236475053 0.14367819665280654 0.12857142857142853 0.28576852476786102 0.20005793325026802 -0.052679369391091593 1.0000000180025095e-35 1.0000000180025095e-35 0.32004620579578108 0.20002938929350253 0.62117448580717516 0.033372206269758113
decision_type=8 2 8 2 8 10 10 2 8 2 10 2 2 10 2
left_child=1 -1 3 4 -2 7 -7 8 -4 12 11 -5 -10 -8 -9
right_child=2 -3 5 10 -6 6 13 14 9 -11 -12 -13 -14 -15 -16
leaf_value=9.8991260891731603 0.14122594745755546 0.41858285157949293 -2.7349646424439871 -2.673251939777038 -3.2418432359259306 -2.0894901194921647 -3.6672788815589779 -5.2452238516972089 -3.6392143284751244 -5.4575658522948158 -5.3708735319951693 -4.666379351160165 -5.0521748428539519 -5.1111206253160857 -5.513791224957016
leaf_weight=11.590157496742906 19.344950092025101 19.954405336640775 10.675974629819391 12.53586391080171 10.854608063586058 10.707498176954685 11.71625168528408 156.77710775285959 16.266150321811438 80.048794025555253 11.485079006291924 18.210102395154536 20.290656506083906 13.82832934334874 224.20597507525235
leaf_count=1103 1841 1899 1016 1193 1033 1019 1115 14920 1548 7618 1093 1733 1931 1316 21337
internal_value=-4.53428 3.90194 -4.91935 -2.93562 -1.07475 -5.18322 -3.75201 -5.28531 -4.9322 -5.13337 -4.26633 -3.85373 -4.42347 -4.44889 -5.40327
internal_weight=0 31.5446 616.947 72.4306 30.1996 544.517 36.2521 508.265 127.282 116.606 42.231 30.746 36.5568 25.5446 380.983
internal_count=61715 3002 58713 6893 2874 51820 3450 48370 12113 11097 4019 2926 3479 2431 36257
is_linear=0
shrinkage=1


Tree=1
num_leaves=16
num_cat=0
split_feature=106 51 57 30 52 67 67 276 245 273 135 18 134 302 241
split_gain=2097.84 640.102 200.491 271.135 109.056 110.313 59.3476 28.9214 25.9643 19.5936 9.70674 9.85419 6.99335 20.2765 6.4343
threshold=13.100000000000001 -0.16001611679295147 0.033372206269758113 38.20000000000001 0.10002632700724452 0.17861019727104152 0.21433228560424253 0.043332833598956108 1.0000000180025095e-35 -1.0000000180025095e-35 1.0000000180025095e-35 116.50000000000001 0.2761958674142006 0.0015287078332577402 0.092857142857142874
decision_type=8 2 2 2 2 8 10 8 10 10 8 2 10 10 10
left_child=1 -1 3 4 5 -2 7 9 -6 -5 11 12 -8 -14 -12
right_child=2 -3 -4 6 8 -7 10 -9 -10 -11 14 -13 13 -15 -16
leaf_value=8.2949621696571754 1.5610266305948386 -0.76575553429656829 -5.4686933438488587 -3.3468627481980024 -4.3276376788537174 -2.6655282602987707 -4.9901031592654785 -2.3851722248764098 -2.4027074096206595 -4.7804577004685012 -5.3644942852859021 -5.1377017834267029 -5.0428122274314156 -3.2199563366193846 -4.6445973699591381
leaf_weight=14.595402323640885 11.1173042897135 16.73900352884084 327.57168613187969 15.467553794384001 18.893112583085898 13.89137643761933 14.416768889874218 10.760037422180174 11.138319987803696 24.851062991656363 88.633706695400178 41.737176407128572 11.947424364276232 12.47281681653112 14.437784587964414
leaf_count=1389 1058 1593 31174 1472 1798 1322 1372 1024 1060 2365 8435 3972 1137 1187 1374
internal_value=-4.53428 3.45468 -4.9327 -4.32678 -2.32918 -0.786665 -4.7952 -3.84176 -3.6137 -4.23048 -5.06038 -4.80036 -4.43782 -4.11178 -5.26365
internal_weight=0 31.3344 617.336 289.764 55.0401 25.0087 234.724 51.0787 30.0314 40.3186 183.646 80.5742 38.837 24.4202 103.071
internal_count=61732 2982 58750 27576 5238 2380 22338 4861 2858 3837 17477 7668 3696 2324 9809
is_linear=0
shrinkage=1


Tree=2
num_leaves=16
num_cat=0
split_feature=106 128 133 30 126 40 67 182 26 18 68 121 280 295 50
split_gain=2325.43 445.582 164.616 289.397 111.094 53.6476 39.8199 22.0194 18.6922 14.132 12.9061 9.5096 5.92289 5.38309 5.27894
threshold=13.100000000000001 0.035140542736748458 0.03456231862754116 38.20000000000001 0.14475920140071452 1.5000000000000002 0.10717667955265302 -2.8999999999999995 2.5000000000000004 60.500000000000007 0.48279652667589151 0.0033928984826395855 -0.047862658156452791 -0.052679369391091593 0.37935107538933704
decision_type=8 10 10 2 8 2 10 8 10 2 8 10 8 10 2
left_child=1 -1 3 4 5 -2 7 -5 -6 11 -9 -8 -11 -4 -14
right_child=2 -3 13 6 8 -7 9 10 -10 12 -12 -13 14 -15 -16
leaf_value=7.0747156832696021 0.21349747859147961 -0.61853910365257248 -5.0404157255251443 -2.8463665959438957 -2.943325985954456 -2.6583436371563991 -3.6826454973167855 -5.2718059474342551 -4.5558979166692852 -4.6925032568388456 -3.7426080717752099 -4.8376268271579628 -4.941161280739502 -5.4870150886904518 -5.3608302927517153
leaf_weight=18.30467303656042 16.497323000803593 12.788052287884055 29.726704948581755 12.598911005072294 14.605910172685983 10.739021724089978 10.739021724089982 10.980702252127232 14.154072663746772 22.287147824652493 11.096288591623304 21.204839373007417 41.400925237685442 293.11644911300391 108.58811203204095
leaf_count=1742 1570 1217 2829 1199 1390 1022 1022 1045 1347 2121 1056 2018 3940 27895 10334
internal_value=-4.53428 3.91058 -4.95253 -4.4124 -2.36623 -0.918841 -4.89201 -3.90122 -3.73694 -5.06024 -4.5032 -4.44934 -5.17352 -5.44589 -5.24499
internal_weight=0 31.0927 617.735 294.892 55.9963 27.2363 238.896 34.6759 28.76 204.22 22.077 31.9439 172.276 322.843 149.989
internal_count=61747 2959 58788 28064 5329 2592 22735 3300 2737 19435 2101 3040 16395 30724 14274
is_linear=0
shrinkage=1


Tree=3
num_leaves=16
num_cat=0
split_feature=94 252 53 94 71 77 106 241 200 126 12 8 124 53 89
split_gain=2176.55 456.422 421.63 133.257 78.102 138.789 54.0453 48.485 47.9372 25.5783 24.2098 37.6674 23.3002 8.73506 7.16962
threshold=22.500000000000004 1.0000000180025095e-35 -1.0000000180025095e-35 55.500000000000007 1.0000000180025095e-35 0.10004430337449552 13.100000000000001 0.092857142857142874 -1.0000000180025095e-35 0.46571729205662055 1.0000000180025095e-35 3.5000000000000004 0.5348176614515201 1.0000000180025095e-35 1.0000000180025095e-35
decision_type=8 8 2 8 2 2 10 10 10 10 2 2 10 2 10
left_child=1 2 -1 4 5 8 -4 10 -2 -9 11 12 -5 -7 -13
right_child=3 -3 6 7 -6 13 -8 9 -10 -11 -12 14 -14 -15 -16
leaf_value=4.4802086604471345 -2.8024489813812172 6.8072697604504082 -0.91884110948503706 -2.934447675181949 -5.307095129180234 -3.7907829370991131 -3.7494095979790405 -3.1249593736405838 0.13659671668693374 -4.8818281628704074 -5.4922244667590521 -4.9485744590352398 -4.8458267265690464 -4.7187233663708783 -5.4105441148802704
leaf_weight=13.765282249078153 10.938670855946841 12.872115080244837 13.618172362446785 12.640942401252689 29.421977326273918 15.961422699503599 13.365983985364437 15.288920360617338 11.26441417634487 18.09451605565846 303.09890570584685 57.005081069655716 12.872115080244837 27.835292120464146 81.80360481608659
leaf_count=1310 1041 1225 1296 1203 2800 1519 1272 1455 1072 1722 28845 5425 1225 2649 7785
internal_value=-4.53428 1.61629 -0.0234641 -5.03514 -3.95208 -3.34804 -2.3209 -5.2415 -1.31137 -4.07722 -5.32465 -5.01556 -3.8988 -4.38054 -5.22083
internal_weight=0 53.6216 40.7494 596.226 95.4218 65.9998 26.9842 500.804 22.2031 33.3834 467.421 164.322 25.5131 43.7967 138.809
internal_count=61844 5103 3878 56741 9081 6281 2568 47660 2113 3177 44483 15638 2428 4168 13210
is_linear=0
shrinkage=1


Tree=4
num_leaves=16
num_cat=0
split_feature=30 53 106 57 126 77 133 143 50 165 77 126 229 276 74
split_gain=2352.21 760.507 325.868 103.009 120.006 124.564 55.4077 52.1455 37.8865 23.3165 14.5046 8.39697 14.42 7.11089 4.47577
threshold=12.500000000000002 -0.20008235376508246 40.400000000000006 0.033372206269758113 0.14475920140071452 0.066697200054064362 1.0000000180025095e-35 0.14361637738154753 0.24141111630761303 1.0000000180025095e-35 0.10004430337449552 0.46571729205662055 -0.024223843004859549 0.0022963880195119306 0.58629855479372661
decision_type=2 2 8 2 10 2 8 10 2 10 2 10 10 10 2
left_child=1 -1 3 4 5 -2 7 8 -4 11 -6 12 -9 -10 -14
right_child=2 -3 6 -5 10 -7 -8 9 13 -11 -12 -13 14 -15 -16
leaf_value=10.794974036291464 1.2735751436021392 0.23986792144888369 -2.3015834713981267 -5.4021191904989347 -2.8922751041109889 -2.8779960151725237 -5.4553927176192198 -4.2046328729170845 -5.0197119381784816 -3.740899631543916 -4.292128856187464 -5.3037526751378623 -4.8301433729245451 -3.8899350437207842 -5.4343532662041767
leaf_weight=11.138319987803699 13.639188060536982 17.632170697674155 12.640942401252685 13.996454928070305 12.063010703772308 15.37298315297812 323.58921134378761 23.127775748260319 11.422031912021341 13.302936891093848 19.15580880921334 99.477806909941137 22.381718466058373 10.87562376167625 27.110250536352396
leaf_count=1060 1298 1678 1203 1332 1148 1463 30795 2201 1087 1266 1823 9467 2130 1035 2580
internal_value=-4.53428 4.32621 -4.92381 -2.95837 -2.39049 -0.926261 -5.19202 -4.80524 -3.68461 -5.01643 -3.75122 -5.11502 -4.85649 -4.46867 -5.16111
internal_weight=0 28.7705 618.156 74.2274 60.231 29.0122 543.928 220.339 34.9386 185.4 31.2188 172.098 72.6197 22.2977 49.492
internal_count=61566 2738 58828 7064 5732 2761 51764 20969 3325 17644 2971 16378 6911 2122 4710
is_linear=0
shrinkage=1


Tree=5
num_leaves=16
num_cat=0
split_feature=18 51 30 276 74 129 211 71 54 295 30 271 45 256 199
split_gain=2505.25 630.865 336.818 156.343 42.5443 46.9708 35.0401 40.7187 39.7832 48.3093 12.077 8.88654 7.31433 3.69682 9.17389
threshold=12.500000000000002 -0.080008058396475734 38.20000000000001 0.055228425901538251 0.13796694376798052 0.20931221878669101 0.5083956237148386 0.033372206269758113 0.16671488065725451 -0.013546902922622898 98.200000000000017 0.0017991192944034602 0.00087725329836257861 -1.1071428571428548 0.050117828952045557
decision_type=2 2 2 10 2 8 10 2 2 8 2 8 2 10 10
left_child=1 -1 3 4 5 -2 7 8 9 -4 -11 -6 -10 -14 -15
right_child=2 -3 6 -5 11 -7 -8 -9 12 10 -12 -13 13 14 -16
leaf_value=9.2540154013186928 -1.709000117573575 0.082468376430088419 -2.2380527019063146 0.42921717450461117 -3.8967243314366571 -4.1454984769079752 -3.4464123654433099 -5.484689842287767 -4.4147636482843682 -4.2360426862498217 -5.5450125157902139 -5.0954048560548175 -4.6959393145055248 -5.309979623764189 -4.4919895045150584
leaf_weight=14.122549116611482 17.726741339080039 15.992946246638892 10.886131610721348 11.884377270005642 11.527110402472315 14.290674701333041 10.959686554037033 314.97277512680739 13.271413343958555 20.62690767552704 10.707498176954685 13.344968287274243 14.133056965656577 140.40587894059718 15.194349719211457
leaf_count=1344 1687 1522 1036 1131 1097 1360 1043 29975 1263 1963 1019 1270 1345 13362 1446
internal_value=-4.53428 4.38343 -4.95624 -2.86958 -3.55871 -2.79651 -5.21661 -5.25253 -4.92785 -4.05285 -4.68334 -4.53987 -5.12972 -5.18563 -5.2301
internal_weight=0 30.1155 619.932 68.7739 56.8895 32.0174 551.158 540.198 225.225 42.2205 31.3344 24.8721 183.005 169.733 155.6
internal_count=61863 2866 58997 6545 5414 3047 52452 51409 21434 4018 2982 2367 17416 16153 14808
is_linear=0
shrinkage=1


Tree=6
num_leaves=16
num_cat=0
split_feature=30 30 49 287 126 241 77 50 71 74 135 96 74 30 221
split_gain=2216.55 388.575 254.406 160.036 113.114 98.4199 69.8929 63.35 27.1699 40.0626 30.0168 10.4443 7.36227 3.96888 4.75833
threshold=12.500000000000002 38.20000000000001 0.12509615913137054 0.043111673398233304 0.14475920140071452 0.12857142857142853 0.066697200054064362 0.31038110658533707 0.033372206269758113 0.17245442077833703 0.071053016955005058 -561.99999999999989 0.55181394629156411 60.500000000000007 0.023984685615295005
decision_type=2 2 2 10 8 10 2 2 2 2 8 8 2 2 10
left_child=2 3 -1 4 6 8 -2 -7 9 10 -3 -6 -9 14 -11
right_child=1 5 -4 -5 11 7 -8 12 -10 13 -12 -13 -14 -15 -16
leaf_value=1.6103976078182223 -0.22512064128133424 -3.215027227988446 7.6265824899318986 0.77571131931123372 -4.1792130642106233 -1.7515290551111482 -3.5167313000188543 -3.9104655848819512 -5.4936767120646532 -4.4692745205679962 -5.088732596264224 -5.3707140640612909 -4.994516755015133 -5.2883108082865533 -5.3571211936895384
leaf_weight=18.168070998974148 13.534109570086008 19.313426544889808 11.464063308201728 11.232890629209576 20.500813486985862 12.126057798042892 12.32570692989975 11.012225799262525 311.67331052664667 13.943915682844819 15.341459605842827 11.474571157246826 14.532355229370294 144.13616535160691 10.644451082684098
leaf_count=1729 1288 1838 1091 1069 1951 1154 1173 1048 29661 1327 1460 1092 1383 13717 1013
internal_value=-4.53428 -4.91458 3.93794 -2.67828 -3.34912 -5.19402 -1.79402 -3.63371 -5.30814 -5.02382 -4.0445 -4.60679 -4.52718 -5.22496 -4.85363
internal_weight=0 621.791 29.6321 69.0681 57.8352 552.723 25.8598 37.6706 515.053 203.379 34.6549 31.9754 25.5446 168.725 24.5884
internal_count=61994 59174 2820 6573 5504 52601 2461 3585 49016 19355 3298 3043 2431 16057 2340
is_linear=0
shrinkage=1


Tree=7
num_leaves=16
num_cat=0
split_feature=94 50 30 128 241 71 53 77 71 54 18 256 150 50 52
split_gain=1973.7 594.753 163.344 57.6904 50.3987 49.3074 73.2454 58.6321 34.0142 42.0285 30.8592 26.4608 8.43694 10.3514 5.9681
threshold=22.500000000000004 0.034501166948164158 38.20000000000001 0.069850927828928364 0.12857142857142853 1.0000000180025095e-35 0.20006469069559804 0.23340475905177452 0.033372206269758113 0.066700325519921125 92.500000000000014 3.2637065637065654 0.50073635650401871 0.20692612116875053 0.46668968054754706
decision_type=8 2 2 10 10 2 2 2 2 2 2 8 8 2 2
left_child=1 -1 5 -3 8 6 7 -2 9 11 -6 -4 13 -11 -12
right_child=2 3 4 -5 10 -7 -8 -9 -10 12 14 -13 -14 -15 -16
leaf_value=5.5899665767205757 -0.056235184947718508 0.48484962418725441 -2.6404555517904518 -2.3060971425212098 -3.035666315553109 -5.0922677268083287 -4.5957162101144817 -3.2903166505821062 -5.4968332211916833 -4.1360804820298984 -4.3261254119755357 -4.8079983462336431 -5.2974351925502452 -5.0680847831830285 -5.3684504478050705
leaf_weight=20.206593713723123 11.842345873825254 11.443047610111533 11.705743836238979 20.99468239210546 15.940407001413403 11.043749346397815 12.640942401252685 10.644451082684098 311.33705935720354 15.61466368101537 10.665466780774297 10.854608063586058 113.09597927238792 50.322089076973498 11.327461270615457
leaf_count=1923 1127 1089 1114 1998 1517 1051 1203 1013 29629 1486 1015 1033 10763 4789 1078
internal_value=-4.53428 1.33132 -5.05593 -1.32154 -5.20736 -3.24922 -2.66979 -1.58713 -5.28962 -4.9696 -4.0951 -3.68334 -5.13168 -4.84737 -4.86298
internal_weight=0 52.6443 597.035 32.4377 550.863 46.1715 35.1277 22.4868 512.93 201.593 37.9333 22.5604 179.033 65.9368 21.9929
internal_count=61828 5010 56818 3087 52424 4394 3343 2140 48814 19185 3610 2147 17038 6275 2093
is_linear=0
shrinkage=1


Tree=8
num_leaves=16
num_cat=0
split_feature=18 50 20 94 30 71 74 71 123 153 52 1 302 124 52
split_gain=2305.02 642.289 174.2 102.718 77.431 58.5039 68.806 31.3237 28.0657 27.4849 18.4941 17.4896 22.3911 7.24222 9.9474
threshold=22.500000000000004 0.034501166948164158 -668.49999999999989 55.500000000000007 12.500000000000002 0.033372206269758113 0.034502538766042257 0.033372206269758113 0.50102783479924506 0.24203669901087752 0.36669088780931308 202101.50000000003 0.0059173922178040765 0.67848280742564804 0.60002312903783561
decision_type=2 2 8 8 2 2 2 2 10 8 2 2 10 8 2
left_child=1 2 -1 5 -3 6 -2 9 11 10 -5 -8 -13 14 -11
right_child=3 4 -4 7 -6 -7 8 -9 -10 13 -12 12 -14 -15 -16
leaf_value=3.0894646313964573 -1.6198385110185507 0.74454231512665814 8.7664931155381147 -3.5314577961511806 -2.4141654543315934 -5.3645670196885984 -4.582846614058675 -5.4807082326280874 -5.0604557202505394 -4.6397658740546781 -4.8171581781688584 -2.1031696715228652 -4.1175081961303306 -5.3497760006783084 -5.4947394282867847
leaf_weight=10.654958931729196 13.502586022950707 13.355476136319341 10.970194403082134 18.872096884995699 18.525337866507471 27.709197931922972 11.432539761066435 295.47020729910582 20.637415524572134 43.082181084901094 27.47802525293082 11.621681043878199 10.507849045097826 92.195867521688342 19.891358242370188
leaf_count=1014 1285 1271 1044 1796 1763 2637 1088 28119 1964 4100 2615 1106 1000 8774 1893
internal_value=-4.53428 1.76258 5.96936 -5.09093 -1.09092 -4.14057 -3.63961 -5.27338 -4.14279 -4.96939 -4.29367 -3.57851 -3.05965 -5.17123 -4.90983
internal_weight=0 53.506 21.6252 592.401 31.8808 95.4113 67.7021 496.99 54.1995 201.52 46.3501 33.5621 22.1295 155.169 62.9735
internal_count=61469 5092 2058 56377 3034 9080 6443 47297 5158 19178 4411 3194 2106 14767 5993
is_linear=0
shrinkage=1


Tree=9
num_leaves=16
num_cat=0
split_feature=30 53 18 128 150 205 71 50 77 205 67 18 241 281 213
split_gain=2378.68 708.895 335.78 113.321 94.7199 71.1367 56.401 36.8262 34.9158 20.8364 16.2848 14.5877 11.7546 6.46034 5.27305
threshold=12.500000000000002 -0.20008235376508246 38.500000000000007 0.27720695860151351 0.28655584574845455 -1.0000000180025095e-35 0.033372206269758113 0.31038110658533707 0.23340475905177452 -0.034824616104474043 0.035737669613775155 67.500000000000014 0.042857142857142858 -0.0040883079633491888 0.0069223500994751459
decision_type=2 2 2 8 10 8 2 2 2 10 10 2 10 8 10
left_child=1 -1 3 4 5 -2 7 8 11 -5 -9 -4 -12 -14 -10
right_child=2 -3 6 9 -6 -7 -8 10 14 -11 12 -13 13 -15 -16
leaf_value=10.345090312540599 0.59692140641053282 0.30971597652735738 -2.4417422556600337 -3.4576017459319601 -4.1990572504425705 -2.4501522021644515 -5.4975855474636957 -4.0022035241213985 -4.9479801779985442 -5.2841024276641217 -5.3138938693626443 -4.0386454497307467 -3.975819277237481 -5.0423701497127906 -4.2067272161090736
leaf_weight=11.516602553427221 15.141810473985968 18.105023904703557 11.600665345788004 10.539372592233123 12.630434552207587 15.509585190564396 316.27574840839952 12.315199080854653 33.499022755771875 15.330951756797729 129.80345925409347 11.285429874435065 10.833592365495859 11.936916515231134 13.450046777725218
leaf_count=1096 1441 1723 1104 1003 1202 1476 30099 1172 3188 1459 12353 1074 1031 1136 1280
internal_value=-4.53428 4.21137 -4.96128 -2.88421 -1.89452 -0.944896 -5.22196 -4.85058 -4.24194 -4.54 -5.10836 -3.2292 -5.19764 -4.53493 -4.73562
internal_weight=0 29.6216 620.152 69.1522 43.2818 30.6514 551 234.724 69.8352 25.8703 164.889 22.8861 152.574 22.7705 46.9491
internal_count=61837 2819 59018 6581 4119 2917 52437 22338 6646 2462 15692 2178 14520 2167 4468
is_linear=0
shrinkage=1


Tree=10
num_leaves=16
num_cat=0
split_feature=106 30 203 211 147 130 106 60 50 202 123 47 241 74 305
split_gain=1979.23 306.909 306.741 102.931 47.1418 48.8098 45.6291 34.617 84.2857 21.148 11.3124 9.73782 27.0979 5.55836 4.69167
threshold=13.100000000000001 38.20000000000001 -1.0000000180025095e-35 0.062287681505405507 0.06905854645282801 0.20764452434908151 76.40000000000002 0.26669869808730701 0.10347115722588851 -0.0044883153547665136 0.29276118764848252 0.32004620579578108 0.12857142857142853 0.62079299159967161 -0.0053904922261071948
decision_type=8 2 8 10 8 10 10 2 2 8 10 2 10 2 8
left_child=2 3 -1 7 5 6 9 8 -2 -3 -10 12 13 14 -7
right_child=1 4 -4 -5 -6 11 -8 -9 10 -11 -12 -13 -14 -15 -16
leaf_value=7.1549103743092672 -1.4342505696296035 -2.1461927070762061 0.69981849562150078 -0.28578607493801211 -5.4764930915256738 -5.2751629279528069 -4.9675431308145335 -4.9847360797027918 -3.5604883431192866 -3.9480079374776063 -4.93349794779669 -5.2907747017636924 -3.5034771851435162 -5.4120513496791531 -4.4191682367729088
leaf_weight=12.126057798042892 17.758264886215329 12.357230477035044 18.735494847409431 11.978947911411522 306.48243309836835 11.1173042897135 25.975402839481831 12.493832514621316 11.08578074257821 13.775790098123254 13.082272061146794 121.9330803193152 12.735513042658566 30.083971816115081 15.09977907780558
leaf_count=1154 1690 1176 1783 1140 29167 1058 2472 1189 1055 1311 1245 11604 1212 2863 1437
internal_value=-4.53428 -4.9703 3.23614 -2.93956 -5.21566 -4.88679 -4.02894 -3.5237 -3.08832 -3.096 -4.3037 -5.12086 -4.82076 -5.11873 -4.78215
internal_weight=0 615.96 30.8616 66.3991 549.561 243.078 52.1084 54.4202 41.9263 26.133 24.1681 190.97 69.0366 56.3011 26.2171
internal_count=61556 58619 2937 6319 52300 23133 4959 5179 3990 2487 2300 18174 6570 5358 2495
is_linear=0
shrinkage=1


Tree=11
num_leaves=16
num_cat=0
split_feature=52 94 18 125 12 54 119 122 128 241 253 126 295 71 74
split_gain=1358.96 1445.78 328.438 255.141 124.225 76.5397 54.8188 50.6975 11.7146 24.6028 16.054 13.0312 9.78908 14.7533 14.5198
threshold=0.033359621099681255 22.500000000000004 38.500000000000007 0.12668235354476501 1.0000000180025095e-35 0.100036232477183 0.031942475963815505 0.45522356609052256 0.104587907410828 0.12857142857142853 30.178737541528253 0.14475920140071452 -0.077102342983886976 0.033372206269758113 0.17245442077833703
decision_type=2 8 2 10 2 2 8 8 8 10 10 10 8 2 2
left_child=1 3 4 -1 5 7 -3 -2 11 12 -11 -4 -10 14 -14
right_child=2 6 8 -5 -6 -7 -8 -9 9 10 -12 -13 13 -15 -16
leaf_value=2.9073156927222508 0.20752350736831637 -2.1343087217310526 -3.9270271972679351 9.421113561433355 -5.2869326387895574 -3.5223354776607301 -4.7108798456038281 -2.5545536822451718 -4.5129928682178742 -3.6444890132844527 -5.1061662163778649 -5.1955011398678925 -4.4351938027407423 -5.510309181128072 -5.2620213367878117
leaf_weight=12.777544438838961 15.992946246638896 12.020979307591913 13.597156664356588 11.35898481775075 15.499077341519294 19.775771902874112 26.374701103195548 11.369492666795848 13.565633117221296 14.206611908972265 15.950914850458501 20.02796027995646 25.229345557279885 288.15674436371773 134.27980294730514
leaf_count=1216 1522 1144 1294 1081 1475 1882 2510 1082 1291 1352 1518 1906 2401 27423 12779
internal_value=-4.53428 -0.0918229 -4.99537 5.9728 -2.83097 -2.02345 -3.9042 -0.94016 -5.25359 -5.29267 -4.4176 -4.68256 -5.34988 -5.37524 -5.13124
internal_weight=0 62.5322 587.651 24.1365 62.6373 47.1382 38.3957 27.3624 525.014 491.389 30.1575 33.6251 461.232 447.666 159.509
internal_count=61876 5951 55925 2297 5961 4486 3654 2604 49964 46764 2870 3200 43894 42603 15180
is_linear=0
shrinkage=1


Tree=12
num_leaves=16
num_cat=0
split_feature=30 277 18 211 126 287 126 12 77 297 20 48 53 125 121
split_gain=2430.71 353.253 318.807 97.4546 85.8178 54.8122 30.8699 30.5966 39.8023 25.6328 15.8359 11.7575 10.183 7.12392 4.8127
threshold=12.500000000000002 0.0049755526060920015 38.500000000000007 0.062287681505405507 0.14475920140071452 0.06246586517897821 0.35884037603374358 1.0000000180025095e-35 0.10004430337449552 1.0000000180025095e-35 -1154.9999999999998 0.27591832544332257 0.16006007499317101 -0.33391151281243397 0.0067741053084585008
decision_type=2 10 2 10 8 10 10 2 2 8 10 2 2 10 10
left_child=1 -1 3 4 9 7 -7 8 10 -2 -4 13 -6 -10 -8
right_child=2 -3 5 -5 12 6 14 -9 11 -11 -12 -13 -14 -15 -16
leaf_value=1.5502752268979618 -0.94621490478861903 8.639763921661201 -3.2177307432669413 -0.45504573580359597 -3.8471983014842497 -2.7078375476984529 -4.2179832677664182 -5.4713324967103789 -5.035644337499444 -2.9897314404435438 -4.7035040744044307 -5.267868606656724 -5.0404157255251443 -3.9182269663202618 -5.1703394660107174
leaf_weight=17.758264886215333 10.654958931729199 11.632188892923294 15.898375605233015 12.966685721650718 11.190859233029185 12.336214778944848 10.549880441278221 325.73281254898757 11.779298779554667 14.479815984144809 13.071764212101696 140.72111441195011 19.817803299054503 11.064765044488011 10.675974629819391
leaf_count=1690 1014 1107 1513 1234 1065 1174 1004 30999 1121 1378 1244 13392 1886 1053 1016
internal_value=-4.53428 4.35616 -4.95075 -2.926 -3.49669 -5.20433 -3.96585 -5.28453 -4.96849 -2.12346 -3.88813 -5.15984 -4.60979 -4.49441 -4.69699
internal_weight=0 29.3905 620.94 69.1101 56.1434 551.83 33.5621 518.268 192.535 25.1348 28.9701 163.565 31.0087 22.8441 21.2259
internal_count=61890 2797 59093 6577 5343 52516 3194 49322 18323 2392 2757 15566 2951 2174 2020
is_linear=0
shrinkage=1


Tree=13
num_leaves=16
num_cat=0
split_feature=90 52 126 147 30 274 106 57 54 282 211 126 146 18 199
split_gain=796.766 785.231 286.022 234.973 327.894 110.716 55.4189 55.1959 55.9808 35.3336 21.7267 20.5052 15.913 11.3758 2.93955
threshold=2.5000000000000004 0.033359621099681255 0.14475920140071452 0.03456231862754116 38.20000000000001 -0.0030457386180041944 32.20000000000001 0.033372206269758113 0.066700325519921125 -1.0000000180025095e-35 0.17504377489831704 0.46571729205662055 0.51770266176831814 45.500000000000007 0.019239452187943502
decision_type=8 2 8 10 2 10 10 2 2 8 8 10 10 2 10
left_child=1 -1 3 4 5 -2 -3 8 9 -4 13 -12 -6 -10 -15
right_child=2 6 7 -5 12 -7 -8 -9 10 -11 11 -13 -14 14 -16
leaf_value=4.1838550606483604 -1.5111191096002332 -2.5407603834442276 -2.041353489095973 -5.4460520776855432 -3.6335642484428354 2.6774123654507136 -4.9671925118801221 -5.4917195896474578 -4.4417665698165143 -4.4045297038116127 -3.1300615990723668 -4.95756217848162 -5.1305222952153349 -5.2987637112948054 -4.9506318136417544
leaf_weight=19.323934393934906 12.147073496133091 20.637415524572134 10.560388290323315 30.315144495107234 17.264395981095735 13.134811306372283 17.306427377276123 281.46324452199042 20.847572505474091 15.782789265736939 11.180351383984091 13.618172362446783 12.063010703772305 121.82800182886422 30.28362094797194
leaf_count=1839 1156 1964 1005 2885 1643 1250 1647 26786 1984 1502 1064 1296 1148 11594 2882
internal_value=-4.53428 -1.00494 -4.91164 -3.21353 -1.97419 0.664967 -3.64747 -5.19689 -4.82659 -3.45719 -5.009 -4.13364 -4.2493 -5.13451 -5.22945
internal_weight=0 57.2678 590.489 84.9244 54.6093 25.2819 37.9438 505.564 224.101 26.3432 197.758 24.7985 29.3274 172.959 152.112
internal_count=61645 5450 56195 8082 5197 2406 3611 48113 21327 2507 18820 2360 2791 16460 14476
is_linear=0
shrinkage=1


Tree=14
num_leaves=16
num_cat=0
split_feature=106 129 30 50 67 241 88 77 152 218 202 13 89 53 57
split_gain=1969.76 628.748 329.298 184.36 83.6035 54.4229 24.5029 26.307 19.5104 19.5599 12.0462 9.6122 7.12074 10.4226 6.22785
threshold=13.100000000000001 -0.19978399599474997 38.20000000000001 0.17244112602988854 0.10717667955265302 0.092857142857142874 1.0000000180025095e-35 0.10004430337449552 0.64335853631419215 -0.0008698875234733999 -0.0044883153547665136 1.0000000180025095e-35 1.0000000180025095e-35 0.5200425935640276 1.0000000180025095e-35
decision_type=8 8 2 2 8 10 8 2 8 8 8 2 10 2 2
left_child=1 -1 3 4 -2 6 7 10 9 -7 -4 -5 13 -9 -8
right_child=2 -3 5 11 -6 8 14 12 -10 -11 -12 -13 -14 -15 -16
leaf_value=9.4913663179605567 0.40292214945929938 -0.024547487673623358 -3.4132727317647884 -5.0816311176453954 -2.7443033400811339 -4.4915037927939903 -4.7415391651373717 -4.585040508748853 -4.9968947064655653 -2.6961635499101888 -4.7725534683552127 -3.9815554037817709 -5.3399996880349532 -5.4214725487058448 -5.500382583622061
leaf_weight=10.507849045097826 16.308181717991829 20.469289939850572 13.134811306372283 17.264395981095731 17.495568660087883 11.390508364886044 11.201367082074283 38.542790297418833 14.595402323640881 12.987701419740917 12.945670023560526 14.710988663136961 97.554870534688234 24.28363914322108 313.69081754330546
leaf_count=1000 1552 1948 1250 1643 1665 1084 1066 3668 1389 1236 1232 1400 9284 2311 29853
internal_value=-4.53428 3.20337 -4.96881 -2.85419 -1.22597 -5.22157 -5.30839 -5.01944 -4.08248 -3.53502 -4.08798 -4.57552 -5.1709 -4.90834 -5.47422
internal_weight=0 30.9771 616.107 65.7791 33.8038 550.328 511.354 186.462 38.9736 24.3782 26.0805 31.9754 160.381 62.8264 324.892
internal_count=61581 2948 58633 6260 3217 52373 48664 17745 3709 2320 2482 3043 15263 5979 30919
is_linear=0
shrinkage=1


Tree=15
num_leaves=16
num_cat=0
split_feature=106 281 52 30 271 12 67 52 45 124 130 199 136 67 256
split_gain=2108.25 339.609 240.976 331.209 161.998 56.2975 78.9032 43.1375 27.1677 17.2861 8.14872 7.26883 7.04714 5.56379 4.12943
threshold=13.100000000000001 -1.0000000180025095e-35 0.13335866950276704 38.20000000000001 0.00087836289943133219 1.0000000180025095e-35 0.10717667955265302 0.36669088780931308 0.0029167086605428956 0.46359827907989254 0.17314246126553703 0.024436366465614503 0.034730954745665711 0.60723332121624563 -0.027799227799227794
decision_type=8 8 2 2 10 2 10 2 2 10 8 10 8 10 8
left_child=1 -1 3 4 -2 6 7 -4 -5 -9 -8 14 -10 -13 -12
right_child=2 -3 5 8 -6 -7 10 9 12 -11 11 13 -14 -15 -16
leaf_value=5.9720074729731767 0.93099503042509824 -0.80359840541337846 -2.0738773919971849 -3.6914546902255356 -3.881900687060253 -5.4721653111837032 -4.3752090241431656 -3.3842623116324444 -4.6225541509049908 -5.1316026346260433 -5.0331328852532771 -4.2531534029758404 -5.3868227640548545 -5.1356922807622905 -5.4115385261071953
leaf_weight=19.796787600964308 19.765264053829018 11.81082232668996 13.82832934334874 18.882604734040797 10.823084516450761 315.72934025805444 14.532355229370294 10.644451082684101 19.513075676746666 12.094534250907598 46.886022439226508 13.933407833799722 31.607609927654266 14.658449417911468 74.920963691547513
leaf_count=1884 1881 1124 1316 1797 1030 30047 1383 1013 1857 1151 4462 1326 3008 1395 7130
internal_value=-4.53428 3.44017 -4.93318 -3.51701 -0.771953 -5.2086 -4.79563 -3.46665 -4.71648 -4.31365 -5.09028 -5.15937 -5.0951 -4.70561 -5.26588
internal_weight=0 31.6076 617.819 100.592 30.5883 517.228 201.499 36.5673 70.0033 22.739 164.931 150.399 51.1207 28.5919 121.807
internal_count=61804 3008 58796 9573 2911 49223 19176 3480 6662 2164 15696 14313 4865 2721 11592
is_linear=0
shrinkage=1


Tree=16
num_leaves=16
num_cat=0
split_feature=35 56 18 94 128 165 71 77 52 213 124 106 267 199 241
split_gain=918.925 1173.81 933.008 169.774 108.057 51.3568 37.1641 39.4342 31.4706 16.6556 11.2923 9.89121 6.49226 4.81289 4.35173
threshold=805.00000000000011 0.16689574093842152 12.500000000000002 39.500000000000007 0.069850927828928364 1.0000000180025095e-35 0.033372206269758113 0.23340475905177452 0.26669296526670555 0.0069223500994751459 0.42799269713707755 70.40000000000002 30.350000000000005 -0.0056824144164599891 0.092857142857142874
decision_type=2 2 2 8 10 10 2 2 2 10 8 10 8 10 10
left_child=2 -2 -1 4 -4 6 7 9 -6 11 12 -5 13 -9 -12
right_child=1 -3 3 5 8 -7 -8 10 -10 -11 14 -13 -14 -15 -16
leaf_value=1.9180802431333861 7.0778266071281966 -5.1742321730214131 -1.6063904922416485 -3.8899350437207842 -3.4356418716192527 -3.4840720967483447 -5.5019490464605507 -4.8150646374086818 -5.0900310593249127 -3.2091648562781327 -5.3834242996833463 -4.9664899951580423 -5.281148501065652 -3.873787946432302 -4.7725534683552127
leaf_weight=19.964913185685873 15.131302624940874 16.182087529450655 20.311672204174101 14.500831682235001 20.385227147489786 16.49732300080359 301.8799952166155 10.959686554037035 26.374701103195548 13.271413343958555 117.58283081464469 20.742494015023112 11.369492666795848 10.770545271225274 12.945670023560522
leaf_count=1900 1440 1540 1933 1380 1940 1570 28729 1043 2510 1263 11190 1974 1082 1025 1232
internal_value=-4.53428 0.746226 -4.80662 -5.03128 -3.53224 -5.2208 -5.27654 -4.95579 -4.36879 -4.16399 -5.19055 -4.52354 -4.66887 -4.34852 -5.32284
internal_weight=0 31.3134 617.557 597.592 67.0716 530.52 514.023 212.143 46.7599 48.5147 163.628 35.2433 33.0997 21.7302 130.529
internal_count=61751 2980 58771 56871 6383 50488 48918 20189 4450 4617 15572 3354 3150 2068 12422
is_linear=0
shrinkage=1


Tree=17
num_leaves=16
num_cat=0
split_feature=74 52 277 57 128 106 60 12 70 126 77 98 165 50 199
split_gain=906.613 1467.09 264.897 197.058 125.439 99.1149 79.0311 41.6277 39.2643 29.234 17.8562 17.4762 12.3616 9.69387 6.45223
threshold=0.034502538766042257 0.033359621099681255 0.0021221213571618702 1.0000000180025095e-35 0.069850927828928364 40.400000000000006 0.20002938929350253 1.0000000180025095e-35 0.10348473979697952 0.35884037603374358 0.50008243487934012 466.50000000000006 1.0000000180025095e-35 0.10347115722588851 0.024436366465614503
decision_type=2 2 10 2 10 8 2 2 8 8 2 10 10 2 10
left_child=1 2 -1 6 5 -2 11 8 9 -6 -7 -3 13 -10 -15
right_child=4 3 -4 -5 7 10 -8 -9 12 -11 -12 -13 -14 14 -16
leaf_value=1.4681478093026126 -1.757811364522758 -1.845031458202814 7.9615536408612098 -5.2507034004785531 -2.4509144830298761 -3.6278699967734491 -3.9544784548878371 -5.4806380256138949 -4.2329681043381155 -4.6624750693235164 -5.0691777425702531 -0.077777536242462197 -4.0809055212672565 -5.2817898602498783 -4.7332716353987285
leaf_weight=12.262659835629167 18.483306470327079 11.621681043878199 12.882622929289935 47.569032627157867 10.665466780774294 13.040240664966403 15.089271228760479 279.6138630900532 11.432539761066435 13.597156664356591 25.218837708234787 10.791560969315467 12.294183382764457 125.36914695706218 25.870324349030852
leaf_count=1167 1759 1106 1226 4527 1015 1241 1436 26610 1088 1294 2400 1027 1170 11931 2462
internal_value=-4.53428 -1.9158 4.7949 -3.89934 -5.06516 -3.6593 -2.18524 -5.23176 -4.88246 -3.69031 -4.57792 -0.994131 -5.04777 -5.12085 -5.18796
internal_weight=0 110.217 25.1453 85.0715 535.585 56.7424 37.5025 478.843 199.229 24.2626 38.2591 22.4132 174.966 162.672 151.239
internal_count=61459 10489 2393 8096 50970 5400 3569 45570 18960 2309 3641 2133 16651 15481 14393
is_linear=0
shrinkage=1


Tree=18
num_leaves=16
num_cat=0
split_feature=126 106 106 30 12 67 53 93 199 23 12 106 48 50 233
split_gain=1077.31 1202.07 236.596 230.984 81.2434 134.278 117.092 26.3808 24.3536 16.0073 11.7585 10.3158 10.2491 8.97949 3.56045
threshold=0.073010634727330756 13.100000000000001 23.500000000000004 38.20000000000001 1.0000000180025095e-35 0.10717667955265302 0.16006007499317101 1.5000000000000002 0.039190347458014009 inf 1.0000000180025095e-35 70.40000000000002 0.6207747329570561 0.24141111630761303 -0.107142857142857
decision_type=8 10 8 2 2 10 2 10 8 8 2 10 2 2 10
left_child=1 -1 7 -3 5 6 -4 -2 11 -10 -5 13 -8 -7 -13
right_child=2 3 4 10 -6 8 12 -9 9 -11 -12 14 -14 -15 -16
leaf_value=5.6924138628361742 -1.0020632406037553 -0.61984457928978198 -0.17044253589581437 -4.3028042608287498 -5.4755959512808206 -4.2116751477482914 -3.5124612343014405 -3.0490940775806044 -4.9359440060686639 -3.3983894787076832 -5.493459452602786 -4.8886886906592331 -4.7823209825792343 -5.106921010701015 -5.3846876491815658
leaf_weight=19.93338963855058 12.767036589793863 18.882604734040797 10.791560969315467 14.490323833189903 316.92723504919559 17.999945414252579 13.775790098123254 12.420277571305631 13.134811306372287 13.975439229980109 19.39748933725059 16.760019226931036 11.800314477644859 29.674165703356266 106.03470471408218
leaf_count=1897 1215 1797 1027 1379 30161 1713 1311 1182 1250 1330 1846 1595 1123 2824 10091
internal_value=-4.53428 -0.923521 -5.00861 -3.42261 -5.14565 -4.69867 -2.9328 -2.01149 -5.0237 -4.14333 -4.98434 -5.16371 -4.09835 -4.76891 -5.31699
internal_weight=0 72.7038 576.061 52.7704 550.874 233.947 36.3677 25.1873 197.579 27.1103 33.8878 170.469 25.5761 47.6741 122.795
internal_count=61741 6919 54822 5022 52425 22264 3461 2397 18803 2580 3225 16223 2434 4537 11686
is_linear=0
shrinkage=1


Tree=19
num_leaves=16
num_cat=0
split_feature=94 51 30 276 12 8 71 77 67 129 47 46 98 52 279
split_gain=2012.62 560.529 400.331 100.062 58.1901 76.3985 56.2531 41.624 29.6372 16.2812 15.9485 28.0866 8.32358 6.61988 5.8728
threshold=12.500000000000002 -0.16001611679295147 38.20000000000001 0.055228425901538251 1.0000000180025095e-35 1.0000000180025095e-35 0.033372206269758113 0.10004430337449552 0.17861019727104152 0.33423431666124853 0.32004620579578108 0.26094651324124102 574.50000000000011 0.43335960352616604 -0.0049520976789451344
decision_type=8 2 2 10 2 2 2 2 10 8 2 2 8 2 10
left_child=1 -1 3 4 5 -2 7 9 -7 -4 11 13 -12 14 -9
right_child=2 -3 6 -5 -6 8 -8 10 -10 -11 12 -13 -14 -15 -16
leaf_value=8.1221994134301312 -0.63170667634661237 -0.57266501785675805 -3.0714528191611414 0.084581984276931088 -5.0727199369118408 -2.3576025516373651 -5.4938440476705868 -5.1693534843007711 -4.329174535437236 -4.4413367107465511 -4.4264135914033256 -3.4734363263101722 -5.3138169268584354 -5.4439860246607106 -4.3489251076963225
leaf_weight=13.901884286664428 13.229381947778164 15.887867756187914 15.362475303933023 11.190859233029185 12.703989495523272 13.176842702552678 312.69257188402116 15.971930548548697 18.09451605565846 19.93338963855058 11.621681043878196 15.929899152368305 116.78423428721726 19.796787600964308 19.229363752529025
leaf_count=1323 1259 1512 1462 1065 1209 1254 29758 1520 1722 1897 1106 1516 11114 1884 1830
internal_value=-4.53428 3.48494 -4.9311 -2.65009 -3.18507 -2.64618 -5.21614 -4.84604 -3.49841 -3.8451 -5.02327 -4.64269 -5.2335 -4.98136 -4.72118
internal_weight=0 29.7898 615.718 68.3956 57.2047 44.5007 547.322 234.63 31.2714 35.2959 199.334 70.928 128.406 54.9981 35.2013
internal_count=61431 2835 58596 6509 5444 4235 52087 22329 2976 3359 18970 6750 12220 5234 3350
is_linear=0
shrinkage=1


end of trees

feature_importances:
ctrx_quarter_normalizado=18
ctrx_quarter_normalizado_lag1=16
mpasivos_margen_rank=12
mpasivos_margen_rank_lag1=12
ctrx_quarter=11
mcaja_ahorro_rank=11
mpayroll_sobre_edad_rank=11
vm_mpagominimo_rank=11
Visa_msaldototal_rank=10
ccomisiones_mantenimiento_tend6=10
mcuentas_saldo_rank=9
cpayroll_trx=8
vm_msaldototal_rank=8
mpayroll_rank=7
ctrx_quarter_lag1=7
mcaja_ahorro_rank_lag1=6
mrentabilidad_annual_rank_delta1=6
mtarjeta_visa_consumo_rank=5
mcomisiones_rank_lag1=4
mcomisiones_mantenimiento_rank_delta1=4
mcomisiones_rank_tend6=4
Visa_msaldototal_rank_tend6=4
mrentabilidad_annual_rank=3
mcuenta_corriente_rank=3
mtransferencias_recibidas_rank=3
mcuentas_saldo_rank_lag1=3
vm_msaldototal_rank_lag1=3
ccomisiones_mantenimiento_delta1=3
Visa_cconsumos_tend6=3
ctarjeta_visa_transacciones=2
Master_Fvencimiento=2
vmr_mpagominimo=2
mcomisiones_rank=2
cpayroll_trx_lag1=2
ccomisiones_mantenimiento_lag1=2
Master_fechaalta_lag1=2
vmr_mpagominimo_lag1=2
mrentabilidad_annual_rank_lag1=2
mactivos_margen_rank_lag1=2
mtarjeta_visa_consumo_rank_lag1=2
mpayroll_rank_lag1=2
mcomisiones_mantenimiento_rank_lag1=2
mpayroll_sobre_edad_rank_lag1=2
vm_mpagominimo_rank_lag1=2
mpasivos_margen_rank_delta1=2
mcuentas_saldo_rank_delta1=2
Master_mfinanciacion_limite_rank_delta1=2
vmr_msaldototal_tend6=2
mactivos_margen_rank_tend6=2
mcuentas_saldo_rank_tend6=2
mcomisiones_mantenimiento_rank_tend6=2
vm_msaldototal_rank_tend6=2
foto_mes=1
ccomisiones_mantenimiento=1
Master_cconsumos=1
Visa_fultimo_cierre=1
vm_status05=1
vm_cconsumos=1
mrentabilidad_rank=1
mactivos_margen_rank=1
mprestamos_personales_rank=1
Visa_mlimitecompra_rank=1
Visa_mpagominimo_rank=1
ccomisiones_otras_lag1=1
chomebanking_transacciones_lag1=1
Master_Fvencimiento_lag1=1
vmr_msaldototal_lag1=1
mrentabilidad_rank_lag1=1
mttarjeta_visa_debitos_automaticos_rank_lag1=1
mtransferencias_recibidas_rank_lag1=1
Visa_msaldototal_rank_lag1=1
Visa_mpagominimo_rank_lag1=1
vm_mconsumototal_rank_lag1=1
ctrx_quarter_normalizado_delta1=1
mcomisiones_rank_delta1=1
mcuenta_corriente_rank_delta1=1
Visa_mfinanciacion_limite_rank_delta1=1
Visa_mconsumototal_rank_delta1=1
vm_mpagominimo_rank_delta1=1
cproductos_tend6=1
chomebanking_transacciones_tend6=1
Visa_status_tend6=1
Visa_Fvencimiento_tend6=1
vm_fechaalta_tend6=1
vmr_mpagominimo_tend6=1
mrentabilidad_rank_tend6=1
mcuenta_corriente_rank_tend6=1
mcaja_ahorro_rank_tend6=1
mtarjeta_visa_consumo_rank_tend6=1
Visa_mconsumototal_rank_tend6=1
vm_mpagominimo_rank_tend6=1

parameters:
[boosting: rf]
[objective: binary]
[metric: binary_logloss]
[tree_learner: serial]
[device_type: cpu]
[data_sample_strategy: bagging]
[data: ]
[valid: ]
[num_iterations: 20]
[learning_rate: 0.1]
[num_leaves: 16]
[num_threads: 0]
[seed: 999721]
[deterministic: 0]
[force_col_wise: 0]
[force_row_wise: 1]
[histogram_pool_size: -1]
[max_depth: -1]
[min_data_in_leaf: 1000]
[min_sum_hessian_in_leaf: 0.001]
[bagging_fraction: 0.632121]
[pos_bagging_fraction: 1]
[neg_bagging_fraction: 1]
[bagging_freq: 1]
[bagging_seed: 1669]
[feature_fraction: 1]
[feature_fraction_bynode: 0.2]
[feature_fraction_seed: 8076]
[extra_trees: 0]
[extra_seed: 6945]
[early_stopping_round: 0]
[early_stopping_min_delta: 0]
[first_metric_only: 1]
[max_delta_step: 0]
[lambda_l1: 0]
[lambda_l2: 0]
[linear_lambda: 0]
[min_gain_to_split: 0]
[drop_rate: 0.1]
[max_drop: 50]
[skip_drop: 0.5]
[xgboost_dart_mode: 0]
[uniform_drop: 0]
[drop_seed: 26005]
[top_rate: 0.2]
[other_rate: 0.1]
[min_data_per_group: 100]
[max_cat_threshold: 32]
[cat_l2: 10]
[cat_smooth: 10]
[max_cat_to_onehot: 4]
[top_k: 20]
[monotone_constraints: ]
[monotone_constraints_method: basic]
[monotone_penalty: 0]
[feature_contri: ]
[forcedsplits_filename: ]
[refit_decay_rate: 0.9]
[cegb_tradeoff: 1]
[cegb_penalty_split: 0]
[cegb_penalty_feature_lazy: ]
[cegb_penalty_feature_coupled: ]
[path_smooth: 0]
[interaction_constraints: ]
[verbosity: -100]
[saved_feature_importance_type: 0]
[use_quantized_grad: 0]
[num_grad_quant_bins: 4]
[quant_train_renew_leaf: 0]
[stochastic_rounding: 1]
[linear_tree: 0]
[max_bin: 31]
[max_bin_by_feature: ]
[min_data_in_bin: 3]
[bin_construct_sample_cnt: 200000]
[data_random_seed: 20674]
[is_enable_sparse: 1]
[enable_bundle: 1]
[use_missing: 1]
[zero_as_missing: 0]
[feature_pre_filter: 0]
[pre_partition: 0]
[two_round: 0]
[header: 0]
[label_column: ]
[weight_column: ]
[group_column: ]
[ignore_column: ]
[categorical_feature: ]
[forcedbins_filename: ]
[precise_float_parser: 0]
[parser_config_file: ]
[objective_seed: 9122]
[num_class: 1]
[is_unbalance: 0]
[scale_pos_weight: 1]
[sigmoid: 1]
[boost_from_average: 1]
[reg_sqrt: 0]
[alpha: 0.9]
[fair_c: 1]
[poisson_max_delta_step: 0.7]
[tweedie_variance_power: 1.5]
[lambdarank_truncation_level: 30]
[lambdarank_norm: 1]
[label_gain: ]
[lambdarank_position_bias_regularization: 0]
[eval_at: ]
[multi_error_top_k: 1]
[auc_mu_weights: ]
[num_machines: 1]
[local_listen_port: 12400]
[time_out: 120]
[machine_list_filename: ]
[machines: ]
[gpu_platform_id: -1]
[gpu_device_id: -1]
[gpu_use_dp: 0]
[num_gpu: 1]

end of parameters
