tree
version=v4
num_class=1
num_tree_per_iteration=1
label_index=0
max_feature_idx=305
objective=binary sigmoid:1
average_output
feature_names=numero_de_cliente foto_mes internet cliente_edad cliente_antiguedad cproductos cdescubierto_preacordado ctarjeta_visa ctarjeta_visa_transacciones ctarjeta_master ctarjeta_master_transacciones cprestamos_personales cpayroll_trx ccomisiones_mantenimiento ccomisiones_otras ccallcenter_transacciones thomebanking chomebanking_transacciones ctrx_quarter Master_status Master_Fvencimiento Master_fultimo_cierre Master_fechaalta Master_cconsumos Visa_status Visa_Fvencimiento Visa_fultimo_cierre Visa_fechaalta Visa_cconsumos kmes ctrx_quarter_normalizado vm_status01 vm_status02 vm_status03 vm_status04 vm_status05 vm_status06 vm_Fvencimiento vm_fultimo_cierre vm_fechaalta vm_cconsumos vmr_Master_mlimitecompra vmr_Visa_mlimitecompra vmr_msaldototal vmr_mconsumototal vmr_mpagominimo mrentabilidad_rank mrentabilidad_annual_rank mcomisiones_rank mactivos_margen_rank mpasivos_margen_rank mcuenta_corriente_rank mcaja_ahorro_rank mcuentas_saldo_rank mtarjeta_visa_consumo_rank mtarjeta_master_consumo_rank mprestamos_personales_rank mpayroll_rank mttarjeta_visa_debitos_automaticos_rank mcomisiones_mantenimiento_rank mtransferencias_recibidas_rank Master_mfinanciacion_limite_rank Master_msaldototal_rank Master_mlimitecompra_rank Master_mconsumototal_rank Master_mpagominimo_rank Visa_mfinanciacion_limite_rank Visa_msaldototal_rank Visa_mlimitecompra_rank Visa_mconsumototal_rank Visa_mpagominimo_rank mpayroll_sobre_edad_rank mv_status07_rank vm_mfinanciacion_limite_rank vm_msaldototal_rank vm_mlimitecompra_rank vm_mconsumototal_rank vm_mpagominimo_rank internet_lag1 cliente_edad_lag1 cliente_antiguedad_lag1 cproductos_lag1 cdescubierto_preacordado_lag1 ctarjeta_visa_lag1 ctarjeta_visa_transacciones_lag1 ctarjeta_master_lag1 ctarjeta_master_transacciones_lag1 cprestamos_personales_lag1 cpayroll_trx_lag1 ccomisiones_mantenimiento_lag1 ccomisiones_otras_lag1 ccallcenter_transacciones_lag1 thomebanking_lag1 chomebanking_transacciones_lag1 ctrx_quarter_lag1 Master_status_lag1 Master_Fvencimiento_lag1 Master_fultimo_cierre_lag1 Master_fechaalta_lag1 Master_cconsumos_lag1 Visa_status_lag1 Visa_Fvencimiento_lag1 Visa_fultimo_cierre_lag1 Visa_fechaalta_lag1 Visa_cconsumos_lag1 kmes_lag1 ctrx_quarter_normalizado_lag1 vm_status01_lag1 vm_status02_lag1 vm_status03_lag1 vm_status04_lag1 vm_status05_lag1 vm_status06_lag1 vm_Fvencimiento_lag1 vm_fultimo_cierre_lag1 vm_fechaalta_lag1 vm_cconsumos_lag1 vmr_Master_mlimitecompra_lag1 vmr_Visa_mlimitecompra_lag1 vmr_msaldototal_lag1 vmr_mconsumototal_lag1 vmr_mpagominimo_lag1 mrentabilidad_rank_lag1 mrentabilidad_annual_rank_lag1 mcomisiones_rank_lag1 mactivos_margen_rank_lag1 mpasivos_margen_rank_lag1 mcuenta_corriente_rank_lag1 mcaja_ahorro_rank_lag1 mcuentas_saldo_rank_lag1 mtarjeta_visa_consumo_rank_lag1 mtarjeta_master_consumo_rank_lag1 mprestamos_personales_rank_lag1 mpayroll_rank_lag1 mttarjeta_visa_debitos_automaticos_rank_lag1 mcomisiones_mantenimiento_rank_lag1 mtransferencias_recibidas_rank_lag1 Master_mfinanciacion_limite_rank_lag1 Master_msaldototal_rank_lag1 Master_mlimitecompra_rank_lag1 Master_mconsumototal_rank_lag1 Master_mpagominimo_rank_lag1 Visa_mfinanciacion_limite_rank_lag1 Visa_msaldototal_rank_lag1 Visa_mlimitecompra_rank_lag1 Visa_mconsumototal_rank_lag1 Visa_mpagominimo_rank_lag1 mpayroll_sobre_edad_rank_lag1 mv_status07_rank_lag1 vm_mfinanciacion_limite_rank_lag1 vm_msaldototal_rank_lag1 vm_mlimitecompra_rank_lag1 vm_mconsumototal_rank_lag1 vm_mpagominimo_rank_lag1 internet_delta1 cliente_edad_delta1 cliente_antiguedad_delta1 cproductos_delta1 cdescubierto_preacordado_delta1 ctarjeta_visa_delta1 ctarjeta_visa_transacciones_delta1 ctarjeta_master_delta1 ctarjeta_master_transacciones_delta1 cprestamos_personales_delta1 cpayroll_trx_delta1 ccomisiones_mantenimiento_delta1 ccomisiones_otras_delta1 ccallcenter_transacciones_delta1 thomebanking_delta1 chomebanking_transacciones_delta1 ctrx_quarter_delta1 Master_status_delta1 Master_Fvencimiento_delta1 Master_fultimo_cierre_delta1 Master_fechaalta_delta1 Master_cconsumos_delta1 Visa_status_delta1 Visa_Fvencimiento_delta1 Visa_fultimo_cierre_delta1 Visa_fechaalta_delta1 Visa_cconsumos_delta1 kmes_delta1 ctrx_quarter_normalizado_delta1 vm_status01_delta1 vm_status02_delta1 vm_status03_delta1 vm_status04_delta1 vm_status05_delta1 vm_status06_delta1 vm_Fvencimiento_delta1 vm_fultimo_cierre_delta1 vm_fechaalta_delta1 vm_cconsumos_delta1 vmr_Master_mlimitecompra_delta1 vmr_Visa_mlimitecompra_delta1 vmr_msaldototal_delta1 vmr_mconsumototal_delta1 vmr_mpagominimo_delta1 mrentabilidad_rank_delta1 mrentabilidad_annual_rank_delta1 mcomisiones_rank_delta1 mactivos_margen_rank_delta1 mpasivos_margen_rank_delta1 mcuenta_corriente_rank_delta1 mcaja_ahorro_rank_delta1 mcuentas_saldo_rank_delta1 mtarjeta_visa_consumo_rank_delta1 mtarjeta_master_consumo_rank_delta1 mprestamos_personales_rank_delta1 mpayroll_rank_delta1 mttarjeta_visa_debitos_automaticos_rank_delta1 mcomisiones_mantenimiento_rank_delta1 mtransferencias_recibidas_rank_delta1 Master_mfinanciacion_limite_rank_delta1 Master_msaldototal_rank_delta1 Master_mlimitecompra_rank_delta1 Master_mconsumototal_rank_delta1 Master_mpagominimo_rank_delta1 Visa_mfinanciacion_limite_rank_delta1 Visa_msaldototal_rank_delta1 Visa_mlimitecompra_rank_delta1 Visa_mconsumototal_rank_delta1 Visa_mpagominimo_rank_delta1 mpayroll_sobre_edad_rank_delta1 mv_status07_rank_delta1 vm_mfinanciacion_limite_rank_delta1 vm_msaldototal_rank_delta1 vm_mlimitecompra_rank_delta1 vm_mconsumototal_rank_delta1 vm_mpagominimo_rank_delta1 internet_tend6 cliente_edad_tend6 cliente_antiguedad_tend6 cproductos_tend6 cdescubierto_preacordado_tend6 ctarjeta_visa_tend6 ctarjeta_visa_transacciones_tend6 ctarjeta_master_tend6 ctarjeta_master_transacciones_tend6 cprestamos_personales_tend6 cpayroll_trx_tend6 ccomisiones_mantenimiento_tend6 ccomisiones_otras_tend6 ccallcenter_transacciones_tend6 thomebanking_tend6 chomebanking_transacciones_tend6 ctrx_quarter_tend6 Master_status_tend6 Master_Fvencimiento_tend6 Master_fultimo_cierre_tend6 Master_fechaalta_tend6 Master_cconsumos_tend6 Visa_status_tend6 Visa_Fvencimiento_tend6 Visa_fultimo_cierre_tend6 Visa_fechaalta_tend6 Visa_cconsumos_tend6 kmes_tend6 ctrx_quarter_normalizado_tend6 vm_status01_tend6 vm_status02_tend6 vm_status03_tend6 vm_status04_tend6 vm_status05_tend6 vm_status06_tend6 vm_Fvencimiento_tend6 vm_fultimo_cierre_tend6 vm_fechaalta_tend6 vm_cconsumos_tend6 vmr_Master_mlimitecompra_tend6 vmr_Visa_mlimitecompra_tend6 vmr_msaldototal_tend6 vmr_mconsumototal_tend6 vmr_mpagominimo_tend6 mrentabilidad_rank_tend6 mrentabilidad_annual_rank_tend6 mcomisiones_rank_tend6 mactivos_margen_rank_tend6 mpasivos_margen_rank_tend6 mcuenta_corriente_rank_tend6 mcaja_ahorro_rank_tend6 mcuentas_saldo_rank_tend6 mtarjeta_visa_consumo_rank_tend6 mtarjeta_master_consumo_rank_tend6 mprestamos_personales_rank_tend6 mpayroll_rank_tend6 mttarjeta_visa_debitos_automaticos_rank_tend6 mcomisiones_mantenimiento_rank_tend6 mtransferencias_recibidas_rank_tend6 Master_mfinanciacion_limite_rank_tend6 Master_msaldototal_rank_tend6 Master_mlimitecompra_rank_tend6 Master_mconsumototal_rank_tend6 Master_mpagominimo_rank_tend6 Visa_mfinanciacion_limite_rank_tend6 Visa_msaldototal_rank_tend6 Visa_mlimitecompra_rank_tend6 Visa_mconsumototal_rank_tend6 Visa_mpagominimo_rank_tend6 mpayroll_sobre_edad_rank_tend6 mv_status07_rank_tend6 vm_mfinanciacion_limite_rank_tend6 vm_msaldototal_rank_tend6 vm_mlimitecompra_rank_tend6 vm_mconsumototal_rank_tend6 vm_mpagominimo_rank_tend6
feature_infos=[29186441:186129871] [202101:202103] [0:3] [19:101] [1:375] [3:16] [0:1] [0:3] [0:333] [0:2] [0:248] [0:234] [0:63] [0:48] [0:295] [0:72] [0:1] [0:3081] [0:2057] [0:9] [-2914237:4019] [-3:1771] [1:7602] [0:99] [0:9] [-2914237:3928] [-3:39] [1:12524] [0:197] [1:3] [0:2057] [0:9] [0:18] [0:10] [0:20] [0:1010] [0:10] [-2914237:3105] [-3:1771] [1:12524] [0:230] [0.010105176325015499:1] [0.00447208699588569:1] [-28.971839756451999:43.234088819918803] [-0.65590165293170399:56.748208478714297] [0:50.260993763034897] [-1:1] [-1:1] [-1:1] [-1:1] [-1:1] [-1:1] [0:1] [-1:1] [0:1] [0:1] [0:1] [0:1] [0:1] [-1:1] [0:1] [0:1] [-1:1] [3.4064586455920397e-05:1] [-1:1] [0:1] [0:1] [-1:1] [3.21016981798337e-05:1] [-1:1] [0:1] [0:1] [0:1] [0:1] [-1:1] [0:1] [-1:1] [0:1] [0:3] [19:101] [1:374] [3:16] [0:1] [0:3] [0:328] [0:2] [0:248] [0:207] [0:89] [0:48] [0:295] [0:63] [0:1] [0:2749] [0:1978] [0:9] [-2914268:3988] [-3:95] [2:7571] [0:116] [0:9] [-2914268:1582] [-3:43] [2:12493] [0:197] [1:12] [0:1978] [0:9] [0:18] [0:10] [0:20] [0:1010] [0:10] [-2914268:1613] [-3:95] [2:12493] [0:230] [0.010105176325015499:1] [0.0303030303030303:1] [-34.095323758784602:43.234088819918803] [-0.1943947878983:83.3835091083413] [0:50.260993763034897] [-1:1] [-1:1] [-1:1] [-1:1] [-1:1] [-1:1] [0:1] [-1:1] [0:1] [0:1] [0:1] [0:1] [0:1] [-1:1] [0:1] [3.4272397011446999e-05:1] [-1:1] [3.4271222454505003e-05:1] [-1:1] [0:1] [0:1] [-1:1] [3.2270556344391401e-05:1] [-1:1] [0:1] [0:1] [0:1] [0:1] [-1:1] [0:1] [-1:1] [0:1] [-3:3] [-3:14] [-69:12] [-5:4] [-1:1] [-1:1] [-274:238] [-1:1] [-243:233] [-62:27] [-50:36] [-45:47] [-56:37] [-59:40] [-1:1] [-809:1330] [-405:210] [-9:9] [-2163:365] [-18:31] [-989:365] [-73:77] [-7:9] [-2894:2913996] [-28:31] [-989:2564] [-97:115] [-11:2] [-405:210] [-9:9] [-9:18] [-10:10] [-20:20] [-1010:1010] [-10:10] [-2163:2913784] [-28:31] [-2797:4171] [-111:96] [-0.58823529411764697:0.70588235294117596] [-0.71428571428571397:0.81277955314742401] [-12.2878295163634:35.4326437417837] [-62.901147562048401:27.685720216267601] [-14.4232240464165:19.907295568888401] [-1.9917485647236299:1.99808040098694] [-1.7299026475656201:1.8876584241162699] [-1.9977877198537299:1.9946804995704801] [-1.99104598289951:1.99897518082007] [-1.96684941402096:1.94285573841505] [-1.8845777823952401:1.93594436086664] [-0.99358614077429197:0.99282573478361502] [-1.9199823591270799:1.9246570284812901] [-0.99989039894783005:0.993670655851006] [-0.99967330937602095:0.99974507138001401] [-0.97763357724699695:0.99986220201185105] [-0.99994059994060003:1] [-0.99995147515527905:0.99994682265354995] [-1.97438666598979:1.95383460072586] [-0.99949838113913103:0.99968078799762905] [-0.49103301091184498:0.70050742045840897] [-1.99556653996161:1.96242811410741] [-0.47144074370621902:0.68939806167774997] [-1.8481680132165601:1.8116656616920399] [-0.99982245894363098:0.99947538690215998] [-0.77072385608193505:0.79296278287052602] [-1.9865647571374501:1.98134574165615] [-0.81091679387763904:0.79591265614816897] [-1.99980286243741:1.9339811679374299] [-0.99988540433171602:0.99973383018365702] [-1:0.99994035548133098] [-0.96993557623478899:0.99142244460328799] [-0.98178300822182796:0.94284890980693503] [-1.98811141898947:1.92931581920466] [-0.98181525068515196:0.94326695267977201] [-1.99942442730517:1.9077267948275201] [-1:0.99985461946645304] [-1:1] [-0.68571428571428605:3.3428571428571399] [-49.657142857142901:5.3428571428571399] [-2:2] [-1:0.25714285714285701] [-0.74285714285714299:1] [-55.028571428571396:54] [-0.40000000000000002:1] [-43.657142857142901:41] [-14.3714285714286:20.600000000000001] [-9.5999999999999996:12.657142857142899] [-5.4857142857142902:6.8571428571428603] [-46.171428571428599:10] [-17:27] [-1:1] [-372.28571428571399:341.68571428571403] [-178.914285714286:120.428571428571] [-4.5:9] [-1066:1020.5] [-244.07142857142901:198.5] [-1199.37142857143:656.5] [-51:42] [-4.5:9] [-1066:749335.45714285702] [-343.68604651162798:1397.5] [-1199.37142857143:1010.25714285714] [-88:55] [-11:2] [-178.914285714286:126] [-9:9] [-4.5:18] [-10:3] [-20:5.1428571428571397] [-1010:300] [-10:2.5714285714285698] [-1676:749280.942857143] [-1194.25714285714:198.5] [-3123:3813] [-54.742857142857098:66] [-0.58498023715415004:0.58333333333333304] [-0.5:0.5] [-6.8588737314617401:28.749991315975599] [-22.163987139171699:14.3426427957193] [-0.40739776548432599:11.772584435241299] [-1.48397299372651:1.29014179170253] [-0.730003157071622:0.63570617190458201] [-1.8756404367017601:1.64463846207422] [-1.35655649873975:1.49488511385686] [-1.2795824795833499:1.5000168210204401] [-1.3104833145527199:1.11391835335508] [-0.78647701579565599:0.99282573478361502] [-1.8400791627053701:1.28519882705877] [-0.90587078939334398:0.99028182701652101] [-0.87811493473470104:0.98987259065664801] [-0.248018822884882:0.99986220201185105] [-0.99835177772545303:0.98938327567696505] [-0.80065069506063302:0.96391600118308196] [-1.7065072360625899:0.67278797996661099] [-0.98420329670329698:0.98550016291951803] [-0.31774107618540298:0.18743467285436999] [-1.6575184855757801:0.97770597738287601] [-0.21854189404983901:0.18549738353248299] [-0.99913729356667502:1.8116656616920399] [-0.99355279867148605:0.98587424633936305] [-0.241372714620401:0.20591589863397999] [-1.9077724938384699:1.2485858465100801] [-0.22875804684982601:0.20067357849158901] [-1.3049421842386799:1.2535477927193099] [-0.99959394160880299:0.97131288437297103] [-0.99852837296915498:0.97906477394727398] [-0.402520385470719:0.23257549639800601] [-0.30002248011732302:0.35043063426504001] [-0.92669172932330801:1.1463086945515999] [-0.31200326556911101:0.35096369341102601] [-0.87257196349169197:1] [-0.78994048150888296:0.97332348050988404]
tree_sizes=1835 1840 1832 1844 1848 1834 1833 1842 1818 1832 1833 1832 1832 1845 1849 1836 1835 1845 1820 1838

Tree=0
num_leaves=16
num_cat=0
split_feature=106 53 106 50 150 241 67 54 295 57 88 47 60 153 57
split_gain=2335.24 658.977 322.943 179.359 79.5798 79.554 42.0007 21.1721 56.2608 26.8364 19.246 29.495 18.0249 10.5231 6.65286
threshold=13.100000000000001 -0.20008235376508246 40.400000000000006 0.13795615236475053 0.14367819665280654 0.12857142857142853 0.28576852476786102 0.20005793325026802 -0.052674003822822196 1.0000000180025095e-35 1.0000000180025095e-35 0.32004620579578108 0.20002938929350253 0.62117448580717516 0.033372206269758113
decision_type=8 2 8 2 8 10 10 2 8 2 10 2 2 10 2
left_child=1 -1 3 4 -2 7 -7 8 -4 12 11 -5 -10 -8 -9
right_child=2 -3 5 10 -6 6 13 14 9 -11 -12 -13 -14 -15 -16
leaf_value=9.8991260891731603 0.14122594745755546 0.41858285157949293 -2.7349646424439871 -2.673251939777038 -3.2418432359259306 -2.0894901194921647 -3.7510214497903611 -5.2452640324590494 -3.6392143284751244 -5.4575658522948158 -5.3708735319951693 -4.666379351160165 -5.0521748428539519 -5.039189674098532 -5.5137882981896542
leaf_weight=11.590157496742906 19.344950092025101 19.954405336640775 10.675974629819391 12.53586391080171 10.854608063586058 10.707498176954685 11.705743836238982 156.79812345094979 16.266150321811438 80.048794025555253 11.485079006291924 18.210102395154536 20.290656506083906 13.838837192393838 224.18495937716216
leaf_count=1103 1841 1899 1016 1193 1033 1019 1114 14922 1548 7618 1093 1733 1931 1317 21335
internal_value=-4.53428 3.90194 -4.91935 -2.93562 -1.07475 -5.18322 -3.75201 -5.28531 -4.9322 -5.13337 -4.26633 -3.85373 -4.42347 -4.44889 -5.40327
internal_weight=0 31.5446 616.947 72.4306 30.1996 544.517 36.2521 508.265 127.282 116.606 42.231 30.746 36.5568 25.5446 380.983
internal_count=61715 3002 58713 6893 2874 51820 3450 48370 12113 11097 4019 2926 3479 2431 36257
is_linear=0
shrinkage=1


Tree=1
num_leaves=16
num_cat=0
split_feature=106 51 57 30 52 67 67 276 245 273 135 18 134 302 241
split_gain=2097.84 640.102 200.475 271.145 109.056 110.313 59.3511 28.9214 25.9643 19.5936 9.70338 9.85827 6.99335 20.2765 6.4343
threshold=13.100000000000001 -0.16001611679295147 0.033372206269758113 38.20000000000001 0.10002632700724452 0.17861019727104152 0.21433228560424253 0.043339144650012811 1.0000000180025095e-35 -1.0000000180025095e-35 1.0000000180025095e-35 116.50000000000001 0.2761958674142006 0.0015314106883374701 0.092857142857142874
decision_type=8 2 2 2 2 8 10 8 10 10 8 2 10 10 10
left_child=1 -1 3 4 5 -2 7 9 -6 -5 11 12 -8 -14 -12
right_child=2 -3 -4 6 8 -7 10 -9 -10 -11 14 -13 13 -15 -16
leaf_value=8.2949621696571754 1.5610266305948386 -0.76575553429656829 -5.4686908956028786 -3.3468627481980024 -4.3276376788537174 -2.6655282602987707 -4.9901031592654785 -2.3851722248764098 -2.4027074096206595 -4.7804577004685012 -5.3644942852859021 -5.1378043031177079 -5.0428122274314156 -3.2199563366193846 -4.6445973699591381
leaf_weight=14.595402323640885 11.1173042897135 16.73900352884084 327.56117828283459 15.467553794384001 18.893112583085898 13.89137643761933 14.416768889874218 10.760037422180174 11.138319987803696 24.851062991656363 88.633706695400178 41.74768425617367 11.947424364276232 12.47281681653112 14.437784587964414
leaf_count=1389 1058 1593 31173 1472 1798 1322 1372 1024 1060 2365 8435 3973 1137 1187 1374
internal_value=-4.53428 3.45468 -4.9327 -4.32683 -2.32918 -0.786665 -4.79523 -3.84176 -3.6137 -4.23048 -5.06041 -4.80045 -4.43782 -4.11178 -5.26365
internal_weight=0 31.3344 617.336 289.775 55.0401 25.0087 234.735 51.0787 30.0314 40.3186 183.656 80.5847 38.837 24.4202 103.071
internal_count=61732 2982 58750 27577 5238 2380 22339 4861 2858 3837 17478 7669 3696 2324 9809
is_linear=0
shrinkage=1


Tree=2
num_leaves=16
num_cat=0
split_feature=106 128 133 30 126 40 67 182 26 18 68 121 280 295 50
split_gain=2325.43 445.582 164.616 289.499 111.213 53.7713 39.8219 22.0194 18.6922 14.133 10.0879 9.5096 5.93009 5.38045 5.28012
threshold=13.100000000000001 0.035140542736748458 0.03456231862754116 38.20000000000001 0.14475920140071452 1.5000000000000002 0.10717667955265302 -2.8999999999999995 2.5000000000000004 60.500000000000007 0.48279652667589151 0.0033928984826395855 -0.04787338572226154 -0.052674003822822196 0.37935107538933704
decision_type=8 10 10 2 8 2 10 8 10 2 8 10 8 10 2
left_child=1 -1 3 4 5 -2 7 -5 -6 11 -9 -8 -11 -4 -14
right_child=2 -3 13 6 8 -7 9 10 -10 12 -12 -13 14 -15 -16
leaf_value=7.0747156832696021 0.21716765704551566 -0.61853910365257248 -5.0405940282778881 -2.8463665959438957 -2.943325985954456 -2.6583436371563991 -3.6826454973167855 -5.1814329373986485 -4.5558979166692852 -4.6921011298299069 -3.8294791778055348 -4.8376268271579628 -4.941161280739502 -5.4870130094824825 -5.360865931726762
leaf_weight=18.30467303656042 16.486815151758496 12.788052287884055 29.737212797626853 12.598911005072294 14.605910172685983 10.739021724089978 10.739021724089982 11.001717950217428 14.154072663746772 22.276639975607395 11.075272893533109 21.204839373007417 41.400925237685442 293.10594126395881 108.60912773013115
leaf_count=1742 1569 1217 2830 1199 1390 1022 1022 1047 1347 2120 1054 2018 3940 27894 10336
internal_value=-4.53428 3.91058 -4.95253 -4.4124 -2.36564 -0.917056 -4.89204 -3.90122 -3.73694 -5.06027 -4.5032 -4.44934 -5.17354 -5.44589 -5.24503
internal_weight=0 31.0927 617.735 294.892 55.9858 27.2258 238.906 34.6759 28.76 204.231 22.077 31.9439 172.287 322.843 150.01
internal_count=61747 2959 58788 28064 5328 2591 22736 3300 2737 19436 2101 3040 16396 30724 14276
is_linear=0
shrinkage=1


Tree=3
num_leaves=16
num_cat=0
split_feature=94 252 53 94 71 77 106 241 200 126 12 8 124 53 89
split_gain=2176.55 456.422 421.63 133.257 78.102 139.138 54.0453 48.485 48.2398 25.5783 24.2098 37.6674 23.3002 8.77441 7.16962
threshold=22.500000000000004 1.0000000180025095e-35 -1.0000000180025095e-35 55.500000000000007 1.0000000180025095e-35 0.10004430337449552 13.100000000000001 0.092857142857142874 -1.0000000180025095e-35 0.46571729205662055 1.0000000180025095e-35 3.5000000000000004 0.5348176614515201 1.0000000180025095e-35 1.0000000180025095e-35
decision_type=8 8 2 8 2 2 10 10 10 10 2 2 10 2 10
left_child=1 2 -1 4 5 8 -4 10 -2 -9 11 12 -5 -7 -13
right_child=3 -3 6 7 -6 13 -8 9 -10 -11 -12 14 -14 -15 -16
leaf_value=4.4802086604471345 -2.8024489813812172 6.8072697604504082 -0.91884110948503706 -2.934447675181949 -5.307095129180234 -3.7896273181408189 -3.7494095979790405 -3.1249593736405838 0.14721654702801246 -4.8818281628704074 -5.4922244667590521 -4.9485744590352398 -4.8458267265690464 -4.719658082603253 -5.4105441148802704
leaf_weight=13.765282249078153 10.938670855946841 12.872115080244837 13.618172362446785 12.640942401252689 29.421977326273918 15.950914850458501 13.365983985364437 15.288920360617338 11.243398478254674 18.09451605565846 303.09890570584685 57.005081069655716 12.872115080244837 27.86681566759944 81.80360481608659
leaf_count=1310 1041 1225 1296 1203 2800 1518 1272 1455 1070 1722 28845 5425 1225 2652 7785
internal_value=-4.53428 1.61629 -0.0234641 -5.03514 -3.95208 -3.34804 -2.3209 -5.2415 -1.30736 -4.07722 -5.32465 -5.01556 -3.8988 -4.3811 -5.22083
internal_weight=0 53.6216 40.7494 596.226 95.4218 65.9998 26.9842 500.804 22.1821 33.3834 467.421 164.322 25.5131 43.8177 138.809
internal_count=61844 5103 3878 56741 9081 6281 2568 47660 2111 3177 44483 15638 2428 4170 13210
is_linear=0
shrinkage=1


Tree=4
num_leaves=16
num_cat=0
split_feature=30 53 106 57 126 77 133 143 50 165 77 126 229 276 213
split_gain=2352.21 760.507 325.868 103.009 120.006 124.978 55.4077 52.1455 37.8865 23.3165 14.6198 8.39697 14.4373 7.11089 6.42472
threshold=12.500000000000002 -0.20008235376508246 40.400000000000006 0.033372206269758113 0.14475920140071452 0.066697200054064362 1.0000000180025095e-35 0.14361637738154753 0.24141111630761303 1.0000000180025095e-35 0.10004430337449552 0.46571729205662055 -0.024248971095218948 0.0023009093976099153 0.00063951353601648963
decision_type=2 2 8 2 10 2 8 10 2 10 2 10 10 10 8
left_child=1 -1 3 4 5 -2 7 8 -4 11 -6 12 14 -10 -9
right_child=2 -3 6 -5 10 -7 -8 9 13 -11 -12 -13 -14 -15 -16
leaf_value=10.794974036291464 1.278832343031123 0.23986792144888369 -2.3015834713981267 -5.4021191904989347 -2.8876455449283025 -2.8798177477549132 -5.4553927176192198 -4.7452902078575061 -5.0197119381784816 -3.740899631543916 -4.2935018793760698 -5.3037526751378623 -5.1611933397690191 -3.8899350437207842 -3.6905634438966546
leaf_weight=11.138319987803699 13.628680211491885 17.632170697674155 12.640942401252685 13.996454928070305 12.041995005682113 15.383491002023218 323.58921134378761 11.253906327299772 11.422031912021341 13.302936891093848 19.176824507303536 99.477806909941137 49.502476851455867 10.87562376167625 11.863361571915449
leaf_count=1060 1297 1678 1203 1332 1146 1464 30795 1071 1087 1266 1825 9467 4711 1035 1129
internal_value=-4.53428 4.32621 -4.92381 -2.95837 -2.39049 -0.926261 -5.19202 -4.80524 -3.68461 -5.01643 -3.75122 -5.11502 -4.85649 -4.46867 -4.20402
internal_weight=0 28.7705 618.156 74.2274 60.231 29.0122 543.928 220.339 34.9386 185.4 31.2188 172.098 72.6197 22.2977 23.1173
internal_count=61566 2738 58828 7064 5732 2761 51764 20969 3325 17644 2971 16378 6911 2122 2200
is_linear=0
shrinkage=1


Tree=5
num_leaves=16
num_cat=0
split_feature=18 51 30 276 74 129 211 71 54 295 30 271 243 67 126
split_gain=2505.25 630.865 336.818 156.343 42.5443 46.9708 35.406 40.6978 37.7152 49.2257 11.2297 8.88654 8.38749 5.03126 6.42164
threshold=12.500000000000002 -0.080008058396475734 38.20000000000001 0.055228425901538251 0.13796694376798052 0.20931221878669101 0.50463874474190207 0.033372206269758113 0.16671488065725451 -0.013546166190044598 98.200000000000017 0.0017991192944034602 0.15714285714285703 0.60723332121624563 0.43008752783542409
decision_type=2 2 2 10 2 8 10 2 2 8 2 8 10 10 8
left_child=1 -1 3 4 5 -2 7 8 9 -4 -11 -6 13 14 -10
right_child=2 -3 6 -5 11 -7 -8 -9 12 10 -12 -13 -14 -15 -16
leaf_value=9.2540154013186928 -1.709000117573575 0.082468376430088419 -2.2476011903005895 0.42921717450461117 -3.8967243314366571 -4.1454984769079752 -3.430191301479276 -5.4846918546534429 -4.7025785708743788 -4.2819493096933297 -5.5450125157902139 -5.0954048560548175 -4.522235623505753 -5.3628312195107366 -5.28946215423277
leaf_weight=14.122549116611482 17.726741339080039 15.992946246638892 10.917655157856641 11.884377270005642 11.527110402472315 14.290674701333041 10.87562376167625 314.98328297585249 35.611100413836539 20.584876279346648 10.696990327909587 13.344968287274243 20.532337034121156 87.824602318927646 39.131229843944311
leaf_count=1344 1687 1522 1039 1131 1097 1360 1035 29976 3389 1959 1018 1270 1954 8358 3724
internal_value=-4.53428 4.38343 -4.95624 -2.86958 -3.55871 -2.79651 -5.21661 -5.25257 -4.92805 -4.0758 -4.71386 -4.53987 -5.12448 -5.20054 -5.00984
internal_weight=0 30.1155 619.932 68.7739 56.8895 32.0174 551.158 540.282 225.299 42.1995 31.2819 24.8721 183.099 162.567 74.7423
internal_count=61863 2866 58997 6545 5414 3047 52452 51417 21441 4016 2977 2367 17425 15471 7113
is_linear=0
shrinkage=1


Tree=6
num_leaves=16
num_cat=0
split_feature=30 30 49 287 241 126 150 18 30 88 74 12 124 74 278
split_gain=2216.55 388.575 254.406 170.704 98.4199 94.6896 49.6139 48.4646 15.457 16.395 18.846 11.562 16.3352 16.4762 8.26412
threshold=12.500000000000002 38.20000000000001 0.12509615913137054 0.016125484877215504 0.12857142857142853 0.14475920140071452 0.07210849704738552 98.500000000000014 60.500000000000007 1.0000000180025095e-35 0.24142796459662755 1.0000000180025095e-35 0.42799269713707755 0.20694343670915602 -0.0077082657988804095
decision_type=2 2 2 10 10 8 10 2 2 8 2 2 8 2 8
left_child=2 3 -1 5 8 6 -2 -6 9 10 -3 12 13 -10 -7
right_child=1 4 -4 -5 7 14 -8 -9 11 -11 -12 -13 -14 -15 -16
leaf_value=1.6103976078182223 -0.6686892199823502 -3.4073188590616033 7.6265824899318986 0.29915497107043887 -2.4238541941327472 -3.9893988341095721 -3.5623676273737095 -4.6970889157127154 -3.5453248346366051 -5.4300302910894587 -4.9444443554155058 -5.4876931808407772 -5.330393657195037 -5.0056046757028092 -5.0779991069592816
leaf_weight=18.168070998974148 12.714497344568377 12.630434552207587 11.464063308201728 15.057747681625186 17.621662848629057 10.928163006901739 11.096288591623304 20.048975978046656 11.001717950217424 26.090989178977907 21.646169032901525 296.58403929788619 121.14499164093286 25.954387141391635 19.271395148709416
leaf_count=1729 1210 1202 1091 1433 1677 1040 1056 1908 1047 2483 2060 28225 11529 2470 1834
internal_value=-4.53428 -4.91458 3.93794 -2.67828 -5.19402 -3.50837 -2.0172 -3.63371 -5.30814 -4.83271 -4.37804 -5.37127 -5.15286 -4.57088 -4.68407
internal_weight=0 621.791 29.6321 69.0681 552.723 54.0103 23.8108 37.6706 515.053 60.3676 34.2766 454.685 158.101 36.9561 30.1996
internal_count=61994 59174 2820 6573 52601 5140 2266 3585 49016 5745 3262 43271 15046 3517 2874
is_linear=0
shrinkage=1


Tree=7
num_leaves=16
num_cat=0
split_feature=106 51 241 50 90 280 30 71 236 133 74 295 59 199 74
split_gain=1965.16 529.201 120.349 110.101 91.2524 81.4502 71.6536 31.9299 32.1805 23.0636 33.6166 20.4493 8.38266 5.12452 4.92432
threshold=23.500000000000004 -0.16001611679295147 0.12857142857142853 0.31038110658533707 2.5000000000000004 -1.0000000180025095e-35 38.20000000000001 1.0000000180025095e-35 -1.0000000180025095e-35 0.06905854645282801 0.13796694376798052 -0.0054183078527376338 0.51733931605290617 0.019239452187943502 0.44835363805439754
decision_type=8 2 10 2 10 8 2 2 10 8 2 8 2 10 2
left_child=1 4 6 -4 -1 -3 7 8 -2 10 11 -8 -5 14 -12
right_child=2 5 3 12 -6 -7 9 -9 -10 -11 13 -13 -14 -15 -16
leaf_value=6.6849535703738887 -2.0104923804515993 0.23298115902359928 -1.3938497806681576 -5.2469171214472468 2.7144145989246367 -3.0023839565995827 -2.9729326605471811 -5.3546786065022296 -4.2029144374775029 -5.4659291422416594 -4.985057179559182 -4.6683466081178189 -4.1465267752466106 -4.8599474553655551 -5.4006597683273885
leaf_weight=12.34672262798995 11.316953421570362 14.710988663136957 16.140056133270264 13.418523230589928 10.896639459766446 16.518338698893789 10.886131610721348 10.507849045097826 16.392244510352612 303.47718827147037 39.288847579620779 20.532337034121159 14.301182550378142 35.033168716356158 103.91211920697242
leaf_count=1175 1077 1400 1536 1277 1037 1572 1036 1000 1560 28881 3739 1954 1361 3334 9889
internal_value=-4.53428 1.21067 -5.06451 -3.47022 4.82354 -1.47832 -5.19133 -3.87037 -3.30749 -5.28972 -5.03464 -4.08091 -4.6792 -5.20277 -5.28663
internal_weight=0 54.4727 595.207 43.8598 23.2434 31.2293 551.347 38.217 27.7092 513.13 209.653 31.4185 27.7197 178.234 143.201
internal_count=61828 5184 56644 4174 2212 2972 52470 3637 2637 48833 19952 2990 2638 16962 13628
is_linear=0
shrinkage=1


Tree=8
num_leaves=16
num_cat=0
split_feature=18 50 20 94 30 71 74 71 123 153 52 1 302 124 52
split_gain=2305.02 642.289 174.2 102.718 77.431 58.5039 68.806 31.3237 28.0657 27.5149 18.5094 17.4896 22.3911 7.23285 9.94287
threshold=22.500000000000004 0.034501166948164158 -668.49999999999989 55.500000000000007 12.500000000000002 0.033372206269758113 0.034502538766042257 0.033372206269758113 0.50102783479924506 0.24203669901087752 0.36669088780931308 202101.50000000003 0.0059216465435462211 0.67848280742564804 0.60002312903783561
decision_type=2 2 8 8 2 2 2 2 10 8 2 2 10 8 2
left_child=1 2 -1 5 -3 6 -2 9 11 10 -5 -8 -13 14 -11
right_child=3 4 -4 7 -6 -7 8 -9 -10 13 -12 12 -14 -15 -16
leaf_value=3.0894646313964573 -1.6198385110185507 0.74454231512665814 8.7664931155381147 -3.5303360386472034 -2.4141654543315934 -5.3645670196885984 -4.582846614058675 -5.4807082326280874 -5.0604557202505394 -4.6402072424806828 -4.8168797335102429 -2.1031696715228652 -4.1175081961303306 -5.3497537464306042 -5.4947659716275998
leaf_weight=10.654958931729196 13.502586022950707 13.355476136319341 10.970194403082134 18.861589035950601 18.525337866507471 27.709197931922972 11.432539761066435 295.47020729910582 20.637415524572134 43.10319678299129 27.467517403885722 11.621681043878199 10.507849045097826 92.185359672643244 19.901866091415286
leaf_count=1014 1285 1271 1044 1795 1763 2637 1088 28119 1964 4102 2614 1106 1000 8773 1894
internal_value=-4.53428 1.76258 5.96936 -5.09093 -1.09092 -4.14057 -3.63961 -5.27338 -4.14279 -4.96939 -4.2931 -3.57851 -3.05965 -5.17128 -4.91014
internal_weight=0 53.506 21.6252 592.401 31.8808 95.4113 67.7021 496.99 54.1995 201.52 46.3291 33.5621 22.1295 155.19 63.0051
internal_count=61469 5092 2058 56377 3034 9080 6443 47297 5158 19178 4409 3194 2106 14769 5996
is_linear=0
shrinkage=1


Tree=9
num_leaves=16
num_cat=0
split_feature=30 53 18 128 287 130 71 50 77 205 67 18 241 281 49
split_gain=2378.68 708.895 335.78 113.321 103.394 63.8471 56.401 36.8262 34.817 20.8364 16.2848 14.5754 11.7546 6.46034 5.00378
threshold=12.500000000000002 -0.20008235376508246 38.500000000000007 0.27720695860151351 0.016125484877215504 0.10405948108930302 0.033372206269758113 0.31038110658533707 0.23340475905177452 -0.034823034998895989 0.035737669613775155 67.500000000000014 0.042857142857142858 -0.0040878549178044636 -0.18181228883476097
decision_type=2 2 2 8 10 10 2 2 2 10 10 2 10 8 2
left_child=1 -1 3 4 5 -2 7 8 11 -5 -9 -4 -12 -14 -10
right_child=2 -3 6 9 -6 -7 -8 10 14 -11 12 -13 13 -15 -16
leaf_value=10.345090312540599 -1.438824117445372 0.30971597652735738 -2.4445506450357173 -3.4576017459319601 0.72776227242019598 -4.2598409473365715 -5.4975855474636957 -4.0022035241213985 -4.4476599572710196 -5.2841024276641217 -5.3138938693626443 -4.0400467214201043 -3.975819277237481 -5.0423701497127906 -5.1060055492110603
leaf_weight=11.516602553427221 16.560370095074177 18.105023904703557 11.611173194833102 10.539372592233123 11.159335685893891 15.562124435789881 316.27574840839952 12.315199080854653 26.427240348421037 15.330951756797729 129.80345925409347 11.295937723480163 10.833592365495859 11.936916515231134 20.500813486985862
leaf_count=1096 1576 1723 1105 1003 1062 1481 30099 1172 2515 1459 12353 1075 1031 1136 1951
internal_value=-4.53428 4.21137 -4.96128 -2.88421 -1.89452 -2.8055 -5.22196 -4.85058 -4.24194 -4.54 -5.10836 -3.23132 -5.19764 -4.53493 -4.73526
internal_weight=0 29.6216 620.152 69.1522 43.2818 32.1225 551 234.724 69.8352 25.8703 164.889 22.9071 152.574 22.7705 46.9281
internal_count=61837 2819 59018 6581 4119 3057 52437 22338 6646 2462 15692 2180 14520 2167 4466
is_linear=0
shrinkage=1


Tree=10
num_leaves=16
num_cat=0
split_feature=106 203 30 211 147 130 106 60 50 202 47 241 230 74 305
split_gain=1979.23 308.028 306.909 88.3552 47.1418 48.8098 45.6291 35.4476 66.6492 21.148 9.73782 27.0979 5.79611 5.55836 4.69167
threshold=13.100000000000001 -1.0000000180025095e-35 38.20000000000001 0.061250028052361058 0.06905854645282801 0.20764452434908151 76.40000000000002 0.26669869808730701 0.13795615236475053 -0.0044883153547665136 0.32004620579578108 0.12857142857142853 -0.12857142857142848 0.62079299159967161 -0.005395800133178699
decision_type=8 8 2 10 8 10 10 2 2 8 2 10 10 2 8
left_child=1 -1 3 7 5 6 9 8 12 -4 11 13 -2 14 -7
right_child=2 -3 4 -5 -6 10 -8 -9 -10 -11 -12 -13 -14 -15 -16
leaf_value=7.16592505157735 -1.2624995568105644 0.69631802980792923 -2.1461927070762061 -0.49263285235807697 -5.4764930915256738 -5.2751629279528069 -4.9675431308145335 -4.9761238031446586 -4.3066036965991241 -3.9480079374776063 -5.2907747017636924 -3.5034771851435162 -2.3125685019083613 -5.4120513496791531 -4.4191682367729088
leaf_weight=12.115549948997794 10.507849045097826 18.746002696454529 12.357230477035044 12.073518552817402 306.48243309836835 11.1173042897135 25.975402839481831 12.304691231809555 20.99468239210546 13.775790098123254 121.9330803193152 12.735513042658566 10.518356894142928 30.083971816115081 15.09977907780558
leaf_count=1153 1000 1784 1176 1149 29167 1058 2472 1171 1998 1311 11604 1212 1001 2863 1437
internal_value=-4.53428 3.23614 -4.9703 -2.93956 -5.21566 -4.88679 -4.02894 -3.48337 -3.04626 -3.096 -5.12086 -4.82076 -1.7878 -5.11873 -4.78215
internal_weight=0 30.8616 615.96 66.3991 549.561 243.078 52.1084 54.3256 42.0209 26.133 190.97 69.0366 21.0262 56.3011 26.2171
internal_count=61556 2937 58619 6319 52300 23133 4959 5170 3999 2487 18174 6570 2001 5358 2495
is_linear=0
shrinkage=1


Tree=11
num_leaves=16
num_cat=0
split_feature=52 94 18 125 12 54 119 122 128 241 253 126 295 71 74
split_gain=1358.96 1445.78 328.438 255.141 124.225 76.5397 54.8188 50.6975 11.7146 24.6028 16.054 13.0312 9.7782 14.753 14.5198
threshold=0.033359621099681255 22.500000000000004 38.500000000000007 0.12668235354476501 1.0000000180025095e-35 0.100036232477183 0.031942475963815505 0.45522356609052256 0.104587907410828 0.12857142857142853 30.178737541528253 0.14475920140071452 -0.077102342983886976 0.033372206269758113 0.17245442077833703
decision_type=2 8 2 10 2 2 8 8 8 10 10 10 8 2 2
left_child=1 3 4 -1 5 7 -3 -2 11 12 -11 -4 -10 14 -14
right_child=2 6 8 -5 -6 -7 -8 -9 9 10 -12 -13 13 -15 -16
leaf_value=2.9073156927222508 0.20752350736831637 -2.1343087217310526 -3.9270271972679351 9.421113561433355 -5.2869326387895574 -3.5223354776607301 -4.7108798456038281 -2.5545536822451718 -4.513791645034881 -3.6444890132844527 -5.1061662163778649 -5.1955011398678925 -4.4351938027407423 -5.5103079155991299 -5.2620213367878117
leaf_weight=12.777544438838961 15.992946246638896 12.020979307591913 13.597156664356588 11.35898481775075 15.499077341519294 19.775771902874112 26.374701103195548 11.369492666795848 13.576140966266394 14.206611908972265 15.950914850458501 20.02796027995646 25.229345557279885 288.14623651467264 134.27980294730514
leaf_count=1216 1522 1144 1294 1081 1475 1882 2510 1082 1292 1352 1518 1906 2401 27422 12779
internal_value=-4.53428 -0.0918229 -4.99537 5.9728 -2.83097 -2.02345 -3.9042 -0.94016 -5.25359 -5.29267 -4.4176 -4.68256 -5.34988 -5.37524 -5.13124
internal_weight=0 62.5322 587.651 24.1365 62.6373 47.1382 38.3957 27.3624 525.014 491.389 30.1575 33.6251 461.232 447.655 159.509
internal_count=61876 5951 55925 2297 5961 4486 3654 2604 49964 46764 2870 3200 43894 42602 15180
is_linear=0
shrinkage=1


Tree=12
num_leaves=16
num_cat=0
split_feature=30 277 18 211 126 287 53 297 12 77 47 48 53 67 125
split_gain=2430.71 353.253 318.807 93.3876 78.5482 54.6088 33.1196 30.743 29.631 42.8177 16.6517 12.142 9.84025 9.19581 9.03958
threshold=12.500000000000002 0.0049792831045560653 38.500000000000007 0.043263765341672512 0.14475920140071452 0.062324533534549656 0.16006007499317101 1.0000000180025095e-35 1.0000000180025095e-35 0.10004430337449552 0.56006654207336715 0.31040433167319054 0.16006007499317101 0.5715166752496601 -0.33391151281243397
decision_type=2 10 2 10 8 10 2 8 2 2 2 2 2 10 10
left_child=1 -1 3 4 7 8 -7 -2 9 10 -4 14 -6 -8 -11
right_child=2 -3 5 -5 12 6 13 -9 -10 11 -12 -13 -14 -15 -16
leaf_value=1.5502752268979618 -0.89577943746955846 8.639763921661201 -3.1100371304428656 -0.65031242388760191 -3.8456026114332102 -2.5954441858943751 -4.0661841529493845 -3.1622283706826702 -5.4682699228575062 -5.1057804174333272 -4.6272303122502301 -5.2903998103522287 -5.0252585308421409 -5.3567494996794478 -3.925149458020134
leaf_weight=17.758264886215333 10.539372592233123 11.632188892923294 14.784543606452646 14.301182550378142 11.180351383984087 11.527110402472315 11.495586855337026 13.849345041438939 325.76433609612286 13.660203758627178 14.16458051279187 137.46368120796978 19.239871601574123 10.623435384593902 12.346722627989946
leaf_count=1690 1003 1107 1407 1361 1064 1097 1094 1318 31002 1300 1348 13082 1831 1011 1175
internal_value=-4.53428 4.35616 -4.95075 -2.926 -3.5198 -5.20433 -3.96979 -2.1828 -5.28449 -4.97335 -3.85239 -5.17186 -4.5917 -4.68602 -4.54528
internal_weight=0 29.3905 620.94 69.1101 54.8089 551.83 33.6461 24.3887 518.184 192.42 28.9491 163.471 30.4202 22.119 26.0069
internal_count=61890 2797 59093 6577 5216 52516 3202 2321 49314 18312 2755 15557 2895 2105 2475
is_linear=0
shrinkage=1


Tree=13
num_leaves=16
num_cat=0
split_feature=90 52 126 147 30 274 106 57 54 256 211 18 146 199 281
split_gain=796.766 785.231 286.022 234.973 327.894 110.716 55.4189 55.1905 55.9832 32.1669 23.9925 17.0511 15.9496 7.04297 3.10903
threshold=2.5000000000000004 0.033359621099681255 0.14475920140071452 0.03456231862754116 38.20000000000001 -0.0030474738264303597 32.20000000000001 0.033372206269758113 0.066700325519921125 0.17355212355212354 0.38706092178870005 38.500000000000007 0.51771860480677756 0.039190347458014009 -0.056693119294028392
decision_type=8 2 8 10 2 10 10 2 2 8 8 2 10 10 10
left_child=1 -1 3 4 5 -2 -3 8 9 -4 11 -10 -6 14 -13
right_child=2 6 7 -5 12 -7 -8 -9 10 -11 -12 13 -14 -15 -16
leaf_value=4.1838550606483604 -1.5111191096002332 -2.5407603834442276 -2.3499588826585809 -5.4460520776855432 -3.6324001508378738 2.6774123654507136 -4.9671925118801221 -5.4917175999918237 -4.0798809537413483 -4.5600042272775561 -3.6941155048859895 -4.9224249620444702 -5.1308830351810224 -4.6284768370358753 -5.3256796711090235
leaf_weight=19.323934393934906 12.147073496133091 20.637415524572134 13.145319155417381 30.315144495107234 17.253888132050637 13.134811306372283 17.306427377276123 281.45273667294532 15.015716285444794 13.197858400642874 12.966685721650718 22.486796956509352 12.073518552817402 19.63916986528784 127.65985804889351
leaf_count=1839 1156 1964 1251 2885 1642 1250 1647 26785 1429 1256 1234 2140 1149 1869 12149
internal_value=-4.53428 -1.00494 -4.91164 -3.21353 -1.97419 0.664967 -3.64747 -5.19689 -4.82662 -3.45719 -5.00903 -5.10129 -4.2493 -5.19163 -5.26529
internal_weight=0 57.2678 590.489 84.9244 54.6093 25.2819 37.9438 505.564 224.111 26.3432 197.768 184.802 29.3274 169.786 150.147
internal_count=61645 5450 56195 8082 5197 2406 3611 48113 21328 2507 18821 17587 2791 16158 14289
is_linear=0
shrinkage=1


Tree=14
num_leaves=16
num_cat=0
split_feature=30 127 30 50 150 165 57 45 297 143 48 205 276 124 129
split_gain=2092.78 559.854 315.064 179.229 70.6027 27.5482 40.6523 25.7522 15.2922 13.9992 7.69784 5.66382 8.55985 4.46415 5.34593
threshold=12.500000000000002 -0.37458051481448745 38.20000000000001 0.17244112602988854 0.10789667682656802 1.0000000180025095e-35 0.033372206269758113 0.00087725329836257861 -0.0014241017133636046 0.14361637738154753 0.6207747329570561 -0.19785887046901249 0.005078876041540341 0.71428576545110811 0.29262634080995659
decision_type=2 8 2 2 8 10 2 2 8 8 2 8 10 8 10
left_child=1 -1 3 4 -2 6 7 8 -4 -9 -5 12 -11 14 -13
right_child=2 -3 5 10 -6 -7 -8 9 -10 11 -12 13 -14 -15 -16
leaf_value=9.2408137707057527 -0.056602726746048937 0.25251460620011557 -3.1984300725136938 -4.9593697179810317 -2.9637532178089834 -3.9734481271738291 -5.4908426159392842 -4.1182215915924294 -4.6061456986745961 -5.1865682421781907 -3.9680952888806496 -4.7477022389471157 -4.0389083869040858 -5.4017280234436615 -5.3163145172465258
leaf_weight=11.159335685893891 19.313426544889808 18.283657338470224 11.50609470438212 20.490305637940764 14.721496512182055 17.180333188734949 313.82741958089173 14.017470626160501 23.432503370568156 16.739003528840843 12.682973797433077 31.355421550571918 10.623435384593902 76.770345123484731 34.980629471130669
leaf_count=1062 1838 1740 1095 1950 1401 1635 29866 1334 2230 1593 1207 2984 1011 7306 3329
internal_value=-4.53428 3.65921 -4.97024 -2.92628 -1.31406 -5.21981 -5.25997 -4.92977 -4.14255 -5.07885 -4.58038 -5.15784 -4.74099 -5.23755 -5.04755
internal_weight=0 29.443 617.641 67.2082 34.0349 550.433 533.252 219.425 34.9386 184.486 33.1733 170.469 27.3624 143.106 66.3361
internal_count=61581 2802 58779 6396 3239 52383 50748 20882 3325 17557 3157 16223 2604 13619 6313
is_linear=0
shrinkage=1


Tree=15
num_leaves=16
num_cat=0
split_feature=126 106 205 18 57 74 123 52 13 53 165 90 67 63 48
split_gain=1187.09 1306.5 327.798 272.8 74.7666 90.5375 76.3801 68.3031 43.5943 22.5336 17.7376 14.375 10.9657 6.82017 6.64125
threshold=0.073010634727330756 23.500000000000004 -0.0079397131674875682 22.500000000000004 1.0000000180025095e-35 0.13796694376798052 0.33442073958583302 0.26669296526670555 1.0000000180025095e-35 0.36004853557999655 1.0000000180025095e-35 4.5000000000000009 0.35720239209375054 0.58624820630036112 0.68972852927048212
decision_type=8 10 10 2 2 2 8 2 2 2 10 8 8 8 2
left_child=1 2 -1 7 5 6 -5 -2 12 -8 11 13 -3 -7 -13
right_child=3 8 -4 4 -6 10 9 -9 -10 -11 -12 14 -14 -15 -16
leaf_value=8.1371375128987609 -0.35153563993813197 -4.1889033548951033 1.4199265222739834 -1.2076446097637592 -5.4749243729752761 -4.8801735112912663 -3.1357225248030698 -3.6578491092521248 -2.7724865247052257 -4.9963241161771901 -3.9296324738626707 -4.9468544099197418 -5.42560604823188 -3.7422486690944492 -5.3573887278831105
leaf_weight=13.155827004462482 14.248643305152656 12.53586391080171 16.224118925631046 11.758283081464468 313.89046667516232 10.528864743188025 10.791560969315471 11.127812138758598 14.427276738919316 16.402752359397709 14.238135456107555 66.871951323002577 16.749511377885938 10.53937259223312 95.936661781743169
leaf_count=1252 1356 1193 1544 1119 29872 1002 1027 1059 1373 1561 1355 6364 1594 1003 9130
internal_value=-4.53428 -0.729203 4.42778 -5.00713 -5.15478 -4.7309 -3.3372 -1.80138 -4.19529 -4.25798 -5.00492 -5.08819 -4.89622 -4.31093 -5.18877
internal_weight=0 73.0926 29.3799 576.335 550.958 237.068 38.9526 25.3765 43.7127 27.1943 198.115 183.877 29.2854 21.0682 162.809
internal_count=61804 6956 2796 54848 52433 22561 3707 2415 4160 2588 18854 17499 2787 2005 15494
is_linear=0
shrinkage=1


Tree=16
num_leaves=16
num_cat=0
split_feature=18 53 94 128 67 165 71 77 52 182 124 69 53 297 43
split_gain=2342.36 705.105 262.551 146.488 97.0529 67.3201 43.6414 46.8825 24.3409 21.6905 11.7933 7.76472 7.38596 7.06848 4.76993
threshold=12.500000000000002 -0.20008235376508246 39.500000000000007 0.104587907410828 0.17861019727104152 1.0000000180025095e-35 0.033372206269758113 0.23340475905177452 0.26669296526670555 -3.8999999999999995 0.42799269713707755 0.42865668777451604 0.16006007499317101 -0.012169711069057199 0.030892482898956655
decision_type=2 2 8 10 10 10 2 2 2 8 8 8 2 10 2
left_child=1 -1 3 4 -2 6 7 9 -5 -4 12 -11 -9 -10 -12
right_child=2 -3 5 8 -6 -7 -8 10 13 11 14 -13 -14 -15 -16
leaf_value=10.451712053997648 0.30541502379947083 0.38289543341468857 -3.2814758489734395 -3.3794668074090874 -3.4012677611387403 -3.219504225617472 -5.4938285676136749 -4.0003730355450742 -4.3710780423857045 -4.1569297467704907 -4.8680118221845783 -5.1365706503653552 -4.9884806172873359 -5.4012557867207391 -5.3912694549760101
leaf_weight=11.064765044488015 15.383491002023222 18.724986998364329 20.322180053219199 17.085762547329068 13.061256363056598 16.770527075976133 312.59800124261528 11.653204591013489 12.777544438838961 18.010453263297677 20.679446920752525 14.689972965046762 21.562106240540743 13.912392135709522 110.57409550156444
leaf_count=1053 1464 1782 1934 1626 1243 1596 29749 1109 1216 1714 1968 1398 2052 1324 10523
internal_value=-4.53428 4.12274 -4.95543 -3.16342 -1.39662 -5.19209 -5.2545 -4.9105 -4.31145 -4.0928 -5.17412 -4.59701 -4.64181 -4.90807 -5.30883
internal_weight=0 29.7898 619.08 72.2204 28.4447 546.86 530.089 217.491 43.7757 53.0226 164.469 32.7004 33.2153 26.6899 131.254
internal_count=61751 2835 58916 6873 2707 52043 50447 20698 4166 5046 15652 3112 3161 2540 12491
is_linear=0
shrinkage=1


Tree=17
num_leaves=16
num_cat=0
split_feature=74 52 277 57 128 106 60 12 70 126 291 77 165 50 199
split_gain=906.613 1467.09 256.186 197.058 125.439 99.1149 79.0311 41.6277 39.2307 29.3545 22.6544 17.82 12.3197 9.72578 6.45781
threshold=0.034502538766042257 0.033359621099681255 0.0021243878784989651 1.0000000180025095e-35 0.069850927828928364 40.400000000000006 0.20002938929350253 1.0000000180025095e-35 0.10348473979697952 0.35884037603374358 0.0008437413404948301 0.50008243487934012 1.0000000180025095e-35 0.10347115722588851 0.024434564802103254
decision_type=2 2 10 2 10 8 2 2 8 8 8 2 10 2 10
left_child=1 2 -1 6 5 -2 10 8 9 -6 -3 -7 13 -10 -15
right_child=4 3 -4 -5 7 11 -8 -9 12 -11 -12 -13 -14 14 -16
leaf_value=1.5315046244040778 -1.757811364522758 -0.041585423388529108 7.916870684054965 -5.2507034004785531 -2.4478631042993428 -3.6294135897839297 -3.9544784548878371 -5.4806380256138949 -4.2305518162875595 -4.663837009827323 -2.0552431185377742 -5.0689793954367728 -4.0834039973671254 -5.2817898602498783 -4.7329417935131577
leaf_weight=12.29418338276446 18.483306470327079 11.810822326689959 12.851099382154642 47.569032627157867 10.654958931729196 13.0507485140115 15.089271228760479 279.6138630900532 11.411524062976239 13.618172362446787 10.602419686503708 25.208329859189689 12.315199080854653 125.36914695706218 25.859816499985754
leaf_count=1170 1759 1124 1223 4527 1014 1242 1436 26610 1086 1296 1009 2399 1172 11931 2461
internal_value=-4.53428 -1.9158 4.7949 -3.89934 -5.06516 -3.6593 -2.18524 -5.23176 -4.88246 -3.69111 -0.994131 -4.57792 -5.04774 -5.12076 -5.18794
internal_weight=0 110.217 25.1453 85.0715 535.585 56.7424 37.5025 478.843 199.229 24.2731 22.4132 38.2591 174.956 162.64 151.229
internal_count=61459 10489 2393 8096 50970 5400 3569 45570 18960 2310 2133 3641 16650 15478 14392
is_linear=0
shrinkage=1


Tree=18
num_leaves=16
num_cat=0
split_feature=126 106 106 30 12 67 53 93 199 23 12 106 48 50 233
split_gain=1077.31 1202.07 236.596 230.984 81.2434 134.278 117.092 26.3808 24.3536 16.0073 11.7585 10.3158 10.2491 8.97949 3.56045
threshold=0.073010634727330756 13.100000000000001 23.500000000000004 38.20000000000001 1.0000000180025095e-35 0.10717667955265302 0.16006007499317101 1.5000000000000002 0.039190347458014009 inf 1.0000000180025095e-35 70.40000000000002 0.6207747329570561 0.24141111630761303 -0.107142857142857
decision_type=8 10 8 2 2 10 2 10 8 8 2 10 2 2 10
left_child=1 -1 7 -3 5 6 -4 -2 11 -10 -5 13 -8 -7 -13
right_child=2 3 4 10 -6 8 12 -9 9 -11 -12 14 -14 -15 -16
leaf_value=5.6924138628361742 -1.0020632406037553 -0.61984457928978198 -0.17044253589581437 -4.3028042608287498 -5.4755959512808206 -4.2116751477482914 -3.5124612343014405 -3.0490940775806044 -4.9359440060686639 -3.3983894787076832 -5.493459452602786 -4.8886886906592331 -4.7823209825792343 -5.106921010701015 -5.3846876491815658
leaf_weight=19.93338963855058 12.767036589793863 18.882604734040797 10.791560969315467 14.490323833189903 316.92723504919559 17.999945414252579 13.775790098123254 12.420277571305631 13.134811306372287 13.975439229980109 19.39748933725059 16.760019226931036 11.800314477644859 29.674165703356266 106.03470471408218
leaf_count=1897 1215 1797 1027 1379 30161 1713 1311 1182 1250 1330 1846 1595 1123 2824 10091
internal_value=-4.53428 -0.923521 -5.00861 -3.42261 -5.14565 -4.69867 -2.9328 -2.01149 -5.0237 -4.14333 -4.98434 -5.16371 -4.09835 -4.76891 -5.31699
internal_weight=0 72.7038 576.061 52.7704 550.874 233.947 36.3677 25.1873 197.579 27.1103 33.8878 170.469 25.5761 47.6741 122.795
internal_count=61741 6919 54822 5022 52425 22264 3461 2397 18803 2580 3225 16223 2434 4537 11686
is_linear=0
shrinkage=1


Tree=19
num_leaves=16
num_cat=0
split_feature=94 51 30 276 12 8 71 77 67 129 47 46 98 52 279
split_gain=2012.62 560.529 400.331 100.062 58.1901 76.3985 56.2531 41.6515 29.6372 16.4185 15.9277 27.9773 8.32267 6.61988 5.88636
threshold=12.500000000000002 -0.16001611679295147 38.20000000000001 0.055228425901538251 1.0000000180025095e-35 1.0000000180025095e-35 0.033372206269758113 0.10004430337449552 0.17861019727104152 0.33423431666124853 0.32004620579578108 0.26094651324124102 574.50000000000011 0.43335960352616604 -0.0049470509146440095
decision_type=8 2 2 10 2 2 2 2 10 8 2 2 8 2 10
left_child=1 -1 3 4 5 -2 7 9 -7 -4 11 13 -12 14 -9
right_child=2 -3 6 -5 -6 8 -8 10 -10 -11 12 -13 -14 -15 -16
leaf_value=8.1221994134301312 -0.63170667634661237 -0.57266501785675805 -3.0663666785923356 0.084581984276931088 -5.0727199369118408 -2.3576025516373651 -5.4938440476705868 -5.1696004659125325 -4.329174535437236 -4.4424990865285876 -4.4264135914033256 -3.4775276551899879 -5.3137753149813776 -5.4439860246607106 -4.3482711506662008
leaf_weight=13.901884286664428 13.229381947778164 15.887867756187914 15.330951756797729 11.190859233029185 12.703989495523272 13.176842702552678 312.69257188402116 15.982438397593794 18.09451605565846 19.954405336640775 11.621681043878196 15.961422699503599 116.76321858912706 19.796787600964308 19.218855903483927
leaf_count=1323 1259 1512 1459 1065 1209 1254 29758 1521 1722 1899 1106 1519 11112 1884 1829
internal_value=-4.53428 3.48494 -4.9311 -2.65009 -3.18507 -2.64618 -5.21614 -4.84604 -3.49841 -3.84459 -5.0233 -4.64309 -5.23345 -4.98136 -4.72118
internal_weight=0 29.7898 615.718 68.3956 57.2047 44.5007 547.322 234.63 31.2714 35.2854 199.344 70.9595 128.385 54.9981 35.2013
internal_count=61431 2835 58596 6509 5444 4235 52087 22329 2976 3358 18971 6753 12218 5234 3350
is_linear=0
shrinkage=1


end of trees

feature_importances:
ctrx_quarter_normalizado=18
ctrx_quarter_normalizado_lag1=15
ctrx_quarter=12
mpasivos_margen_rank_lag1=12
mcuentas_saldo_rank=11
Visa_msaldototal_rank=11
mpasivos_margen_rank=10
vm_msaldototal_rank=10
mcaja_ahorro_rank=9
mpayroll_sobre_edad_rank=9
cpayroll_trx=8
mpayroll_rank=8
vm_mpagominimo_rank=8
ccomisiones_mantenimiento_tend6=8
ctrx_quarter_lag1=6
mcomisiones_rank_lag1=5
mcaja_ahorro_rank_lag1=5
ccomisiones_mantenimiento_delta1=5
mcomisiones_rank_tend6=5
Visa_msaldototal_rank_tend6=5
mrentabilidad_annual_rank=4
mcomisiones_rank=4
mcuenta_corriente_rank=4
mtarjeta_visa_consumo_rank=4
mrentabilidad_annual_rank_delta1=4
mcomisiones_mantenimiento_rank_delta1=4
mtransferencias_recibidas_rank=3
ccomisiones_otras_lag1=3
mcuentas_saldo_rank_lag1=3
mpayroll_rank_lag1=3
vm_msaldototal_rank_lag1=3
mcuentas_saldo_rank_delta1=3
mcomisiones_mantenimiento_rank_tend6=3
Visa_mconsumototal_rank_tend6=3
ctarjeta_visa_transacciones=2
mactivos_margen_rank=2
cpayroll_trx_lag1=2
mrentabilidad_annual_rank_lag1=2
mactivos_margen_rank_lag1=2
mtarjeta_visa_consumo_rank_lag1=2
Visa_msaldototal_rank_lag1=2
mpayroll_sobre_edad_rank_lag1=2
vm_mpagominimo_rank_lag1=2
ctrx_quarter_normalizado_delta1=2
mactivos_margen_rank_tend6=2
mcaja_ahorro_rank_tend6=2
mcuentas_saldo_rank_tend6=2
vm_msaldototal_rank_tend6=2
foto_mes=1
ccomisiones_mantenimiento=1
Master_Fvencimiento=1
Master_cconsumos=1
Visa_fultimo_cierre=1
vm_cconsumos=1
vmr_msaldototal=1
vmr_mpagominimo=1
mrentabilidad_rank=1
mcomisiones_mantenimiento_rank=1
Master_mlimitecompra_rank=1
Visa_mlimitecompra_rank=1
Visa_mconsumototal_rank=1
Visa_mpagominimo_rank=1
ccomisiones_mantenimiento_lag1=1
chomebanking_transacciones_lag1=1
Master_fechaalta_lag1=1
vmr_msaldototal_lag1=1
vmr_mpagominimo_lag1=1
mrentabilidad_rank_lag1=1
mcuenta_corriente_rank_lag1=1
mttarjeta_visa_debitos_automaticos_rank_lag1=1
mcomisiones_mantenimiento_rank_lag1=1
Visa_mpagominimo_rank_lag1=1
mcomisiones_rank_delta1=1
mpasivos_margen_rank_delta1=1
mcuenta_corriente_rank_delta1=1
Master_mfinanciacion_limite_rank_delta1=1
vm_mpagominimo_rank_delta1=1
internet_tend6=1
cproductos_tend6=1
ctarjeta_visa_transacciones_tend6=1
ccallcenter_transacciones_tend6=1
chomebanking_transacciones_tend6=1
Visa_status_tend6=1
Visa_Fvencimiento_tend6=1
Visa_cconsumos_tend6=1
vmr_msaldototal_tend6=1
vmr_mpagominimo_tend6=1
mrentabilidad_rank_tend6=1
mpasivos_margen_rank_tend6=1
mcuenta_corriente_rank_tend6=1
Master_mlimitecompra_rank_tend6=1
vm_mpagominimo_rank_tend6=1

parameters:
[boosting: rf]
[objective: binary]
[metric: binary_logloss]
[tree_learner: serial]
[device_type: cpu]
[data_sample_strategy: bagging]
[data: ]
[valid: ]
[num_iterations: 20]
[learning_rate: 0.1]
[num_leaves: 16]
[num_threads: 0]
[seed: 999721]
[deterministic: 0]
[force_col_wise: 0]
[force_row_wise: 1]
[histogram_pool_size: -1]
[max_depth: -1]
[min_data_in_leaf: 1000]
[min_sum_hessian_in_leaf: 0.001]
[bagging_fraction: 0.632121]
[pos_bagging_fraction: 1]
[neg_bagging_fraction: 1]
[bagging_freq: 1]
[bagging_seed: 1669]
[feature_fraction: 1]
[feature_fraction_bynode: 0.2]
[feature_fraction_seed: 8076]
[extra_trees: 0]
[extra_seed: 6945]
[early_stopping_round: 0]
[early_stopping_min_delta: 0]
[first_metric_only: 1]
[max_delta_step: 0]
[lambda_l1: 0]
[lambda_l2: 0]
[linear_lambda: 0]
[min_gain_to_split: 0]
[drop_rate: 0.1]
[max_drop: 50]
[skip_drop: 0.5]
[xgboost_dart_mode: 0]
[uniform_drop: 0]
[drop_seed: 26005]
[top_rate: 0.2]
[other_rate: 0.1]
[min_data_per_group: 100]
[max_cat_threshold: 32]
[cat_l2: 10]
[cat_smooth: 10]
[max_cat_to_onehot: 4]
[top_k: 20]
[monotone_constraints: ]
[monotone_constraints_method: basic]
[monotone_penalty: 0]
[feature_contri: ]
[forcedsplits_filename: ]
[refit_decay_rate: 0.9]
[cegb_tradeoff: 1]
[cegb_penalty_split: 0]
[cegb_penalty_feature_lazy: ]
[cegb_penalty_feature_coupled: ]
[path_smooth: 0]
[interaction_constraints: ]
[verbosity: -100]
[saved_feature_importance_type: 0]
[use_quantized_grad: 0]
[num_grad_quant_bins: 4]
[quant_train_renew_leaf: 0]
[stochastic_rounding: 1]
[linear_tree: 0]
[max_bin: 31]
[max_bin_by_feature: ]
[min_data_in_bin: 3]
[bin_construct_sample_cnt: 200000]
[data_random_seed: 20674]
[is_enable_sparse: 1]
[enable_bundle: 1]
[use_missing: 1]
[zero_as_missing: 0]
[feature_pre_filter: 0]
[pre_partition: 0]
[two_round: 0]
[header: 0]
[label_column: ]
[weight_column: ]
[group_column: ]
[ignore_column: ]
[categorical_feature: ]
[forcedbins_filename: ]
[precise_float_parser: 0]
[parser_config_file: ]
[objective_seed: 9122]
[num_class: 1]
[is_unbalance: 0]
[scale_pos_weight: 1]
[sigmoid: 1]
[boost_from_average: 1]
[reg_sqrt: 0]
[alpha: 0.9]
[fair_c: 1]
[poisson_max_delta_step: 0.7]
[tweedie_variance_power: 1.5]
[lambdarank_truncation_level: 30]
[lambdarank_norm: 1]
[label_gain: ]
[lambdarank_position_bias_regularization: 0]
[eval_at: ]
[multi_error_top_k: 1]
[auc_mu_weights: ]
[num_machines: 1]
[local_listen_port: 12400]
[time_out: 120]
[machine_list_filename: ]
[machines: ]
[gpu_platform_id: -1]
[gpu_device_id: -1]
[gpu_use_dp: 0]
[num_gpu: 1]

end of parameters
