tree
version=v4
num_class=1
num_tree_per_iteration=1
label_index=0
max_feature_idx=565
objective=binary sigmoid:1
feature_names=numero_de_cliente foto_mes PC1 PC2 PC3 PC4 PC5 PC6 PC7 PC8 PC9 PC10 PC11 PC12 PC13 PC14 PC15 PC16 PC17 PC18 PC19 PC20 PC21 PC22 PC23 PC24 PC25 PC26 PC27 PC28 PC29 PC30 PC31 PC32 PC33 PC34 PC35 PC36 PC37 PC38 PC39 PC40 PC41 PC42 PC43 PC44 PC45 PC46 PC47 PC48 PC49 PC50 PC51 PC52 PC53 PC54 PC55 PC56 PC57 PC58 PC59 PC60 PC61 PC62 PC63 PC64 PC65 PC66 PC67 internet ctarjeta_visa_transacciones ctarjeta_master_transacciones ccomisiones_otras ccallcenter_transacciones thomebanking chomebanking_transacciones Master_status Master_Fvencimiento Master_fultimo_cierre Master_fechaalta Master_cconsumos Visa_status Visa_Fvencimiento Visa_fultimo_cierre Visa_fechaalta Visa_cconsumos vm_status01 vm_status02 vm_Fvencimiento vm_fultimo_cierre vm_fechaalta vmr_Master_mlimitecompra vmr_Visa_mlimitecompra mrentabilidad_rank mrentabilidad_annual_rank mcomisiones_rank mactivos_margen_rank mpasivos_margen_rank mcuentas_saldo_rank mtarjeta_visa_consumo_rank mtarjeta_master_consumo_rank mttarjeta_visa_debitos_automaticos_rank Master_mfinanciacion_limite_rank Master_msaldototal_rank Master_mlimitecompra_rank Master_mconsumototal_rank Master_mpagominimo_rank Visa_mfinanciacion_limite_rank Visa_msaldototal_rank Visa_mlimitecompra_rank Visa_mconsumototal_rank Visa_mpagominimo_rank mpayroll_sobre_edad_rank internet_lag1 cliente_edad_lag1 cliente_antiguedad_lag1 cproductos_lag1 cdescubierto_preacordado_lag1 ctarjeta_visa_lag1 ctarjeta_visa_transacciones_lag1 ctarjeta_master_lag1 ctarjeta_master_transacciones_lag1 cprestamos_personales_lag1 cpayroll_trx_lag1 ccomisiones_mantenimiento_lag1 ccomisiones_otras_lag1 ccallcenter_transacciones_lag1 thomebanking_lag1 chomebanking_transacciones_lag1 ctrx_quarter_lag1 Master_status_lag1 Master_Fvencimiento_lag1 Master_fultimo_cierre_lag1 Master_fechaalta_lag1 Master_cconsumos_lag1 Visa_status_lag1 Visa_Fvencimiento_lag1 Visa_fultimo_cierre_lag1 Visa_fechaalta_lag1 Visa_cconsumos_lag1 kmes_lag1 ctrx_quarter_normalizado_lag1 vm_status01_lag1 vm_status02_lag1 vm_status03_lag1 vm_status04_lag1 vm_status05_lag1 vm_status06_lag1 vm_Fvencimiento_lag1 vm_fultimo_cierre_lag1 vm_fechaalta_lag1 vm_cconsumos_lag1 vmr_Master_mlimitecompra_lag1 vmr_Visa_mlimitecompra_lag1 vmr_msaldototal_lag1 vmr_mconsumototal_lag1 vmr_mpagominimo_lag1 mrentabilidad_rank_lag1 mrentabilidad_annual_rank_lag1 mcomisiones_rank_lag1 mactivos_margen_rank_lag1 mpasivos_margen_rank_lag1 mcuenta_corriente_rank_lag1 mcaja_ahorro_rank_lag1 mcuentas_saldo_rank_lag1 mtarjeta_visa_consumo_rank_lag1 mtarjeta_master_consumo_rank_lag1 mprestamos_personales_rank_lag1 mpayroll_rank_lag1 mttarjeta_visa_debitos_automaticos_rank_lag1 mcomisiones_mantenimiento_rank_lag1 mtransferencias_recibidas_rank_lag1 Master_mfinanciacion_limite_rank_lag1 Master_msaldototal_rank_lag1 Master_mlimitecompra_rank_lag1 Master_mconsumototal_rank_lag1 Master_mpagominimo_rank_lag1 Visa_mfinanciacion_limite_rank_lag1 Visa_msaldototal_rank_lag1 Visa_mlimitecompra_rank_lag1 Visa_mconsumototal_rank_lag1 Visa_mpagominimo_rank_lag1 mpayroll_sobre_edad_rank_lag1 mv_status07_rank_lag1 vm_mfinanciacion_limite_rank_lag1 vm_msaldototal_rank_lag1 vm_mlimitecompra_rank_lag1 vm_mconsumototal_rank_lag1 vm_mpagominimo_rank_lag1 internet_delta1 cliente_edad_delta1 cliente_antiguedad_delta1 cproductos_delta1 cdescubierto_preacordado_delta1 ctarjeta_visa_delta1 ctarjeta_visa_transacciones_delta1 ctarjeta_master_delta1 ctarjeta_master_transacciones_delta1 cprestamos_personales_delta1 cpayroll_trx_delta1 ccomisiones_mantenimiento_delta1 ccomisiones_otras_delta1 ccallcenter_transacciones_delta1 thomebanking_delta1 chomebanking_transacciones_delta1 ctrx_quarter_delta1 Master_status_delta1 Master_Fvencimiento_delta1 Master_fultimo_cierre_delta1 Master_fechaalta_delta1 Master_cconsumos_delta1 Visa_status_delta1 Visa_Fvencimiento_delta1 Visa_fultimo_cierre_delta1 Visa_fechaalta_delta1 Visa_cconsumos_delta1 kmes_delta1 ctrx_quarter_normalizado_delta1 vm_status01_delta1 vm_status02_delta1 vm_status03_delta1 vm_status04_delta1 vm_status05_delta1 vm_status06_delta1 vm_Fvencimiento_delta1 vm_fultimo_cierre_delta1 vm_fechaalta_delta1 vm_cconsumos_delta1 vmr_Master_mlimitecompra_delta1 vmr_Visa_mlimitecompra_delta1 vmr_msaldototal_delta1 vmr_mconsumototal_delta1 vmr_mpagominimo_delta1 mrentabilidad_rank_delta1 mrentabilidad_annual_rank_delta1 mcomisiones_rank_delta1 mactivos_margen_rank_delta1 mpasivos_margen_rank_delta1 mcuenta_corriente_rank_delta1 mcaja_ahorro_rank_delta1 mcuentas_saldo_rank_delta1 mtarjeta_visa_consumo_rank_delta1 mtarjeta_master_consumo_rank_delta1 mprestamos_personales_rank_delta1 mpayroll_rank_delta1 mttarjeta_visa_debitos_automaticos_rank_delta1 mcomisiones_mantenimiento_rank_delta1 mtransferencias_recibidas_rank_delta1 Master_mfinanciacion_limite_rank_delta1 Master_msaldototal_rank_delta1 Master_mlimitecompra_rank_delta1 Master_mconsumototal_rank_delta1 Master_mpagominimo_rank_delta1 Visa_mfinanciacion_limite_rank_delta1 Visa_msaldototal_rank_delta1 Visa_mlimitecompra_rank_delta1 Visa_mconsumototal_rank_delta1 Visa_mpagominimo_rank_delta1 mpayroll_sobre_edad_rank_delta1 mv_status07_rank_delta1 vm_mfinanciacion_limite_rank_delta1 vm_msaldototal_rank_delta1 vm_mlimitecompra_rank_delta1 vm_mconsumototal_rank_delta1 vm_mpagominimo_rank_delta1 internet_tend6 cliente_edad_tend6 cliente_antiguedad_tend6 cproductos_tend6 cdescubierto_preacordado_tend6 ctarjeta_visa_tend6 ctarjeta_visa_transacciones_tend6 ctarjeta_master_tend6 ctarjeta_master_transacciones_tend6 cprestamos_personales_tend6 cpayroll_trx_tend6 ccomisiones_mantenimiento_tend6 ccomisiones_otras_tend6 ccallcenter_transacciones_tend6 thomebanking_tend6 chomebanking_transacciones_tend6 ctrx_quarter_tend6 Master_status_tend6 Master_Fvencimiento_tend6 Master_fultimo_cierre_tend6 Master_fechaalta_tend6 Master_cconsumos_tend6 Visa_status_tend6 Visa_Fvencimiento_tend6 Visa_fultimo_cierre_tend6 Visa_fechaalta_tend6 Visa_cconsumos_tend6 kmes_tend6 ctrx_quarter_normalizado_tend6 vm_status01_tend6 vm_status02_tend6 vm_status03_tend6 vm_status04_tend6 vm_status05_tend6 vm_status06_tend6 vm_Fvencimiento_tend6 vm_fultimo_cierre_tend6 vm_fechaalta_tend6 vm_cconsumos_tend6 vmr_Master_mlimitecompra_tend6 vmr_Visa_mlimitecompra_tend6 vmr_msaldototal_tend6 vmr_mconsumototal_tend6 vmr_mpagominimo_tend6 mrentabilidad_rank_tend6 mrentabilidad_annual_rank_tend6 mcomisiones_rank_tend6 mactivos_margen_rank_tend6 mpasivos_margen_rank_tend6 mcuenta_corriente_rank_tend6 mcaja_ahorro_rank_tend6 mcuentas_saldo_rank_tend6 mtarjeta_visa_consumo_rank_tend6 mtarjeta_master_consumo_rank_tend6 mprestamos_personales_rank_tend6 mpayroll_rank_tend6 mttarjeta_visa_debitos_automaticos_rank_tend6 mcomisiones_mantenimiento_rank_tend6 mtransferencias_recibidas_rank_tend6 Master_mfinanciacion_limite_rank_tend6 Master_msaldototal_rank_tend6 Master_mlimitecompra_rank_tend6 Master_mconsumototal_rank_tend6 Master_mpagominimo_rank_tend6 Visa_mfinanciacion_limite_rank_tend6 Visa_msaldototal_rank_tend6 Visa_mlimitecompra_rank_tend6 Visa_mconsumototal_rank_tend6 Visa_mpagominimo_rank_tend6 mpayroll_sobre_edad_rank_tend6 mv_status07_rank_tend6 vm_mfinanciacion_limite_rank_tend6 vm_msaldototal_rank_tend6 vm_mlimitecompra_rank_tend6 vm_mconsumototal_rank_tend6 vm_mpagominimo_rank_tend6 rf_001_015 rf_001_008 rf_003_015 rf_004_012 rf_005_000 rf_006_013 rf_006_009 rf_007_003 rf_008_013 rf_008_007 rf_009_005 rf_009_002 rf_010_011 rf_010_008 rf_010_000 rf_011_009 rf_012_006 rf_013_012 rf_013_013 rf_014_011 rf_015_012 rf_015_004 rf_018_007 rf_019_007 rf_019_013 rf_020_013 rf_020_009 rf_020_012 rf_020_006 rf_001_012 rf_001_002 rf_001_003 rf_001_001 rf_001_007 rf_001_005 rf_001_004 rf_001_000 rf_001_014 rf_001_011 rf_001_006 rf_002_010 rf_002_013 rf_002_000 rf_002_004 rf_002_012 rf_002_007 rf_002_009 rf_002_015 rf_002_002 rf_002_014 rf_003_014 rf_003_010 rf_003_003 rf_003_000 rf_003_012 rf_003_001 rf_003_004 rf_003_006 rf_003_002 rf_004_015 rf_004_014 rf_004_005 rf_004_006 rf_004_003 rf_004_009 rf_004_002 rf_004_007 rf_004_010 rf_004_001 rf_004_013 rf_004_000 rf_004_008 rf_005_012 rf_005_011 rf_005_014 rf_005_008 rf_005_006 rf_005_015 rf_005_005 rf_005_013 rf_005_009 rf_005_003 rf_005_010 rf_005_001 rf_005_004 rf_006_014 rf_006_005 rf_006_003 rf_006_004 rf_006_015 rf_006_001 rf_006_007 rf_007_005 rf_007_015 rf_007_007 rf_007_002 rf_007_013 rf_007_001 rf_007_008 rf_007_006 rf_007_004 rf_008_014 rf_008_010 rf_008_002 rf_008_000 rf_008_015 rf_008_003 rf_008_004 rf_008_005 rf_008_011 rf_009_009 rf_009_011 rf_009_010 rf_009_006 rf_009_007 rf_009_004 rf_009_001 rf_009_015 rf_010_006 rf_010_015 rf_010_001 rf_010_005 rf_010_010 rf_010_014 rf_010_013 rf_011_012 rf_011_011 rf_011_007 rf_011_006 rf_011_002 rf_011_000 rf_011_010 rf_011_015 rf_011_014 rf_011_003 rf_011_004 rf_011_013 rf_012_012 rf_012_009 rf_012_002 rf_012_004 rf_012_000 rf_012_010 rf_012_003 rf_012_001 rf_013_001 rf_013_002 rf_013_010 rf_013_014 rf_013_006 rf_013_007 rf_013_015 rf_013_004 rf_014_014 rf_014_015 rf_014_009 rf_014_004 rf_014_005 rf_014_006 rf_014_000 rf_014_001 rf_014_003 rf_014_007 rf_014_013 rf_014_002 rf_014_012 rf_015_013 rf_015_011 rf_015_014 rf_015_003 rf_015_002 rf_015_006 rf_015_008 rf_015_000 rf_015_009 rf_015_010 rf_016_011 rf_016_014 rf_016_010 rf_016_002 rf_016_005 rf_016_009 rf_016_007 rf_016_012 rf_016_000 rf_017_009 rf_017_012 rf_017_008 rf_017_003 rf_017_010 rf_017_005 rf_017_006 rf_017_014 rf_018_008 rf_018_014 rf_018_015 rf_018_010 rf_018_001 rf_018_009 rf_018_003 rf_018_012 rf_018_005 rf_018_013 rf_019_015 rf_019_014 rf_019_006 rf_019_000 rf_019_002 rf_019_012 rf_019_011 rf_019_008 rf_019_001 rf_019_004 rf_020_004 rf_020_003 rf_020_000 rf_020_011 rf_020_015 rf_020_002 rf_012_011 rf_017_015 rf_017_013 rf_011_008 rf_009_013 rf_009_012
feature_infos=[29186441:187434871] [202011:202107] [-13.613154491781801:14.793693464900199] [-17.4130370829842:12.877364085996501] [-12.4646902249918:17.490053305128701] [-20.208292359774902:12.0059534987269] [-11.674285018229:12.5563199859661] [-18.7637004659531:13.266647522928] [-12.3222273787633:21.652533007570899] [-48.410455561441097:10.3827031551498] [-10.525888466499101:9.6482370736445802] [-30.329826485766599:8.1900156362424799] [-11.5059757457933:41.204522857454698] [-50.891488007622399:10.422027616034599] [-184.441933383666:31.460561424524698] [-11.7313446160399:50.950498486348899] [-73.360874904398798:274.112390877449] [-14.831078821776201:96.346643467024904] [-9.3805067082757692:9.8787717021679704] [-26.718345891561501:107.68580862376901] [-74.131985213946905:26.4795284530197] [-10.771393068853399:6.7947818077159203] [-48.404723184671603:12.509611296930499] [-15.974314073325599:8.5172515705728102] [-11.13033131313:11.3273124078334] [-12.606093759948401:18.209958956575001] [-7.6546298246915203:31.9297715988215] [-25.4643488872447:7.9872240022417396] [-83.011224249507606:5.26562304257933] [-80.969267064505303:5.8402034999116399] [-67.568312167553302:11.003299161056701] [-47.794046812420198:7.0746587874803604] [-13.730034628292399:8.7839892432902502] [-8.1514448477804606:21.3401345723817] [-39.8282802205322:5.82960765516553] [-5.0208484919848404:34.101716146313898] [-10.654602627533199:7.0179736353403896] [-16.102618434543:7.3061244995764696] [-7.7974354332989098:7.0017304155763096] [-7.58044767559345:18.520850663240299] [-8.8004875891158694:13.1279816968923] [-15.0111752026737:6.4285791004836401] [-6.3998164842605902:7.0021811224354904] [-6.8133135536148401:13.2898382109799] [-17.244257466855899:8.1118740296477991] [-5.7306307335348503:15.1384849252353] [-14.2327606670567:6.3559089761958996] [-6.02987979386499:6.7841587504021401] [-8.0268913270544804:13.6395424208372] [-4.9908226315264503:6.2939113798886401] [-28.973720458577201:5.7977685023815697] [-8.0300251766040702:10.4184068214714] [-5.1712088927870301:19.456476817629099] [-4.3297653165048198:32.048772989289503] [-10.2034526506138:5.7761392977527199] [-6.6609806547244803:11.411003297958899] [-8.4358220386604508:7.9805723553954602] [-5.4183002222061996:6.8332916587848898] [-13.633277820203:6.71538756733172] [-6.4930029974851804:28.369269162392602] [-15.262794136407701:9.70597262687739] [-9.7466579852972206:19.124524778999401] [-27.277634253495101:6.9518205695587598] [-13.7303997156416:14.1647282325007] [-7.1993470265729496:8.6939104389472206] [-10.117207746577201:11.437407920042199] [-11.2717038887622:6.5449075295657497] [-6.4787852125404699:15.946783280605] [-9.4446981131575996:7.3955113505091798] [0:4] [0:344] [0:244] [0:300] [0:199] [0:1] [0:3806] [0:9] [-2914299:4994] [-3:4856] [1:7724] [0:120] [0:9] [-2914299:5025] [-3:4667] [1:12646] [0:215] [0:9] [0:18] [-2914299:4872] [-3:4856] [1:12646] [0.010105176325015499:1] [0.0022572004694976998:1] [-1:1] [-1:1] [-1:1] [-1:1] [-1:1] [-1:1] [0:1] [0:1] [0:1] [0:1] [-1:1] [3.3642847530614999e-05:1] [-1:1] [0:1] [0:1] [-1:1] [3.1817747939800803e-05:1] [-1:1] [0:1] [0:1] [0:4] [19:101] [1:378] [3:17] [0:1] [0:3] [0:344] [0:3] [0:244] [0:236] [0:89] [0:48] [0:300] [0:199] [0:1] [0:3806] [0:2152] [0:9] [-2914329:4994] [-3:4856] [1:7693] [0:120] [0:9] [-2914329:4995] [-3:4667] [1:12615] [0:283] [1:12] [0:2152] [0:9] [0:18] [0:10] [0:20] [0:1010] [0:10] [-2914329:4842] [-3:4856] [1:12615] [0:323] [0.00053238686779059495:1] [0.0022572004694976998:1] [-101.555238161133:48.711546770818302] [-0.65590165293170399:131.04159294659499] [0:56.695712216075201] [-1:1] [-1:1] [-1:1] [-1:1] [-1:1] [-1:1] [-1:1] [-1:1] [0:1] [0:1] [0:1] [0:1] [0:1] [-1:1] [0:1] [0:1] [-1:1] [3.3800912624640899e-05:1] [-1:1] [0:1] [0:1] [-1:1] [3.19081046585833e-05:1] [-1:1] [0:1] [0:1] [0:1] [0:1] [-1:1] [0:1] [-1:1] [0:1] [-3:4] [-3:14] [-196:12] [-6:4] [-1:1] [-2:1] [-274:237] [-1:1] [-234:219] [-62:27] [-62:76] [-45:47] [-184:50] [-154:127] [-1:1] [-2572:1406] [-405:475] [-9:9] [-2922:365] [-607:31] [-4751:365] [-94:77] [-9:9] [-2894:2913996] [-28:31] [-4751:4727] [-184:113] [-11:9] [-405:373] [-9:9] [-18:18] [-10:10] [-20:20] [-1010:1010] [-10:10] [-2163:2913784] [-4659:31] [-6834:5404] [-204:131] [-0.71428571428571397:0.83333333333333304] [-0.75:0.73684210526315796] [-51.033527394213799:83.869443291282707] [-90.864397900583796:58.711626849591298] [-49.460991786183797:98.395135258783796] [-1.99898563723046:1.99908417284156] [-1.8593606746015401:1.8876584241162699] [-1.9977877198537299:1.9946804995704801] [-1.9995829067031301:1.9997515836541999] [-1.96684941402096:1.9950392921328799] [-1.97519323760595:1.94142836208937] [-1.2653814736154201:1.19305722744575] [-1.97017457696378:1.96348186455316] [-0.99989039894783005:0.99989039894783005] [-1:0.99983047974232897] [-0.99230240549828197:0.99986220201185105] [-1:1] [-0.99995147515527905:0.99994682265354995] [-1.9691687285753401:1.9487018852036] [-0.99986944033423297:0.99971853638922403] [-0.95033214103219199:0.79314652552887899] [-1.9961207880124701:1.9878585481511399] [-0.56194567354224401:0.78757000890645601] [-1.8943245751955899:1.84706921431059] [-0.99981313650378401:1] [-0.77553232414918905:0.80184971399203497] [-1.99283904034499:1.9770504319943201] [-0.79692028461306796:0.78877652918090502] [-1.99017047123652:1.97450188961133] [-0.99988859593746504:0.99985358711566596] [-1:0.99994035548133098] [-0.99717114568599696:0.97678812959890204] [-0.99305757370273495:0.964868093900352] [-1.99343024881185:1.98274332097506] [-0.99354192902579996:0.96034744421841201] [-1.9842157970655001:1.9676775121844601] [-1:0.99996402618893399] [-2:1] [-0.77142857142857102:7.4285714285714297] [-49.657142857142901:8.5999999999999996] [-3:3] [-1:0.25714285714285701] [-1:1] [-55.028571428571396:54] [-1:1] [-45.100000000000001:45.899999999999999] [-16.399999999999999:20.600000000000001] [-14.171428571428599:25] [-18:6.8571428571428603] [-53.700000000000003:17] [-25:32.9428571428571] [-1:1] [-492.60000000000002:543] [-200.28571428571399:475] [-9:9] [-2163:1241.3428571428601] [-244.07142857142901:1106.5999999999999] [-1062.4857142857099:656.5] [-47:48] [-9:9] [-582415.69999999995:749335.45714285702] [-343.68604651162798:1397.5] [-1295.3333333333301:1132.6571428571399] [-88:55] [-11:3.7999999999999998] [-200.28571428571399:373] [-9:9] [-9:18] [-10:10] [-20:10] [-1010:1000] [-10:4.5] [-582415.69999999995:749265.25714285695] [-1125.8571428571399:3055] [-4005:3929] [-54.742857142857098:66] [-0.58823529411764697:0.83333333333333304] [-0.71428571428571397:0.66666666666666696] [-19.1140227930929:28.749991315975599] [-22.163987139171699:16.971735830566899] [-6.8144291721413204:20.340607166760901] [-1.7157914274772199:1.6003151382013601] [-0.97745051024947305:0.75731205297190196] [-1.8756404367017601:1.64463846207422] [-1.7037104254029001:1.49488511385686] [-1.40980680488961:1.67533178913402] [-1.4104759256892401:1.11391835335508] [-0.89077880372994001:1.19305722744575] [-1.8400791627053701:1.61162292156107] [-0.90583467396844597:0.99220631996599096] [-0.96806695376614904:0.99269680196802002] [-0.40521846322421601:0.99986220201185105] [-0.99835177772545303:0.98938327567696505] [-0.80065069506063302:0.98030280758488897] [-1.6597795800219699:0.89080222807243303] [-0.98420329670329698:0.98550016291951803] [-0.86358389352889298:0.393084366527783] [-1.9892243621761101:1.1284573579019599] [-0.18836779192810199:0.42844642048437598] [-1.2831129591392101:1.8116656616920399] [-0.99979360165118702:0.99836556796513198] [-0.58894939141575897:0.54821419574026997] [-1.9925701650973899:1.03114689871534] [-0.22154657234627501:0.52859484594144002] [-1.5589485820623801:1.62494759907] [-0.99991423670669:0.99837187789084203] [-0.99852837296915498:0.97906477394727398] [-0.99717114568599696:0.24815813980252999] [-0.30441289859176202:0.75900522730872799] [-1.2598632665171099:0.98843304445065705] [-0.30413338726824501:0.75468473031147099] [-1.0173199008251901:1.3835278849477] [-0.82209057207239999:0.99709771041599504] [0:1] [0:1] [0:1] [0:1] [0:1] [0:1] [0:1] [0:1] [0:1] [0:1] [0:1] [0:1] [0:1] [0:1] [0:1] [0:1] [0:1] [0:1] [0:1] [0:1] [0:1] [0:1] [0:1] [0:1] [0:1] [0:1] [0:1] [0:1] [0:1] [0:1] [0:1] [0:1] [0:1] [0:1] [0:1] [0:1] [0:1] [0:1] [0:1] [0:1] [0:1] [0:1] [0:1] [0:1] [0:1] [0:1] [0:1] [0:1] [0:1] [0:1] [0:1] [0:1] [0:1] [0:1] [0:1] [0:1] [0:1] [0:1] [0:1] [0:1] [0:1] [0:1] [0:1] [0:1] [0:1] [0:1] [0:1] [0:1] [0:1] [0:1] [0:1] [0:1] [0:1] [0:1] [0:1] [0:1] [0:1] [0:1] [0:1] [0:1] [0:1] [0:1] [0:1] [0:1] [0:1] [0:1] [0:1] [0:1] [0:1] [0:1] [0:1] [0:1] [0:1] [0:1] [0:1] [0:1] [0:1] [0:1] [0:1] [0:1] [0:1] [0:1] [0:1] [0:1] [0:1] [0:1] [0:1] [0:1] [0:1] [0:1] [0:1] [0:1] [0:1] [0:1] [0:1] [0:1] [0:1] [0:1] [0:1] [0:1] [0:1] [0:1] [0:1] [0:1] [0:1] [0:1] [0:1] [0:1] [0:1] [0:1] [0:1] [0:1] [0:1] [0:1] [0:1] [0:1] [0:1] [0:1] [0:1] [0:1] [0:1] [0:1] [0:1] [0:1] [0:1] [0:1] [0:1] [0:1] [0:1] [0:1] [0:1] [0:1] [0:1] [0:1] [0:1] [0:1] [0:1] [0:1] [0:1] [0:1] [0:1] [0:1] [0:1] [0:1] [0:1] [0:1] [0:1] [0:1] [0:1] [0:1] [0:1] [0:1] [0:1] [0:1] [0:1] [0:1] [0:1] [0:1] [0:1] [0:1] [0:1] [0:1] [0:1] [0:1] [0:1] [0:1] [0:1] [0:1] [0:1] [0:1] [0:1] [0:1] [0:1] [0:1] [0:1] [0:1] [0:1] [0:1] [0:1] [0:1] [0:1] [0:1] [0:1] [0:1] [0:1] [0:1] [0:1] [0:1] [0:1] [0:1] [0:1] [0:1] [0:1] [0:1] [0:1] [0:1] [0:1] [0:1] [0:1] [0:1] [0:1] [0:1] [0:1] [0:1] [0:1]
tree_sizes=12670 19568 20891 21574 21293 22442 21085 21772 23071 22692 22310 21512 23309 24395 22118 25234 23235

Tree=0
num_leaves=116
num_cat=0
split_feature=345 141 14 17 7 84 276 276 9 3 436 7 108 313 157 205 98 13 161 112 3 268 22 13 47 63 3 271 5 136 7 94 96 339 234 9 236 17 54 94 107 38 323 513 205 513 281 280 9 35 107 94 23 161 244 36 65 312 65 63 522 4 65 7 338 108 34 57 536 333 17 327 281 116 53 18 94 170 247 324 65 0 37 318 245 3 157 241 329 14 133 14 47 157 57 333 479 61 233 257 244 75 244 131 240 152 7 0 3 7 3 5 8 17 0
split_gain=12146.8 2781.13 1543.65 806.287 766.132 575.923 522.891 445.931 423.517 322.86 288.222 258.098 238.614 177.61 200.573 164.798 132.636 118.265 102.456 96.5202 134.518 98.4648 84.9329 83.2521 65.8328 52.9608 47.884 38.67 28.0584 27.9168 27.0577 24.3327 27.5168 27.3851 23.9868 22.37 22.2741 20.415 17.4768 13.4497 10.4985 9.82098 9.44851 8.32106 7.95054 7.49212 10.3687 12.1173 7.21024 5.50142 5.38421 4.68659 6.7545 4.42123 4.00887 3.9679 7.06901 3.33624 3.14147 5.3201 3.32269 2.5583 2.52557 2.50489 2.44779 1.84141 3.25691 4.35738 1.82102 3.01144 1.55583 3.36349 1.49035 2.39248 1.39643 1.29069 2.8242 0.98526 0.862972 0.808065 0.780435 0.617458 1.14329 3.66585 1.55969 0.580995 0.642335 0.505955 0.469174 0.42433 0.414893 0.352743 0.346511 0.344202 0.334758 0.667682 0.236598 0.228837 0.636699 0.166493 0.168659 0.135733 0.111765 0.164399 0.0747853 0.22101 0.0716839 1.13687e-13 2.84217e-14 1.42109e-14 7.10543e-15 7.10543e-15 7.10543e-15 7.10543e-15 3.55271e-15
threshold=1.0000000180025095e-35 23.500000000000004 -2.0921089145345695 -1.6685840646359598 -2.8172326182375396 473.50000000000006 0.12857142857142853 0.12857142857142853 0.70392808191367962 -0.95834814889170483 1.0000000180025095e-35 1.0912388330325102 0.17826768659840553 -1.0000000180025095e-35 0.091445001436433151 -2.4999999999999996 0.20136968783197354 0.06589383192648901 0.4313509650163096 0.033325621207960753 -1.5004502595166997 -0.107142857142857 -0.99285038169939843 -1.1319232151362297 0.47552227805037356 -0.15717290128762448 1.7890617727580502 -0.12857142857142848 -0.35328553595021195 -515.99999999999989 -0.44508844046639146 0.36032444641805855 -0.40879210960645096 -0.0112651123956757 0.021501496235178556 -0.11269173837870249 1.0000000180025095e-35 -0.81926437661507545 0.47360748873195707 0.36032444641805855 0.7577158297500276 1.8940123476393051 -0.0045240899357277941 1.0000000180025095e-35 1.0000000180025095e-35 1.0000000180025095e-35 1.6428571428571452 -2.2714285714285745 1.0000000180025095e-35 -0.76217731562381141 0.86170466419369707 0.59973320004245767 0.90518475503979456 0.53729266152990462 -0.016628546098881498 0.82415696766102209 0.13609717366850901 1.0000000180025095e-35 0.73551603889014061 -0.15717290128762448 1.0000000180025095e-35 -0.27456770113458245 -0.45900442825297699 -0.54488524696327234 -0.0038527623386643149 0.071413248465241511 1.0000000180025095e-35 -0.10083060740447698 1.0000000180025095e-35 0.0063188522009558108 -0.81926437661507545 -0.0069461878151383339 -10.642857142857148 7.5000000000000009 -0.053111892442668694 0.85126539962470404 0.27981385796806907 1.0000000180025095e-35 0.017454031206321805 -0.00076093565531186295 -0.79625485717263988 105983475.50000001 0.16623152071311451 -1.0000000180025095e-35 0.010487386040644803 2.0781305281579407 0.95498821026667302 0.29992266951351859 -0.0017576878995093947 -0.6043608750624524 3835.5000000000005 -1.1151756476451897 0.10385847744823101 0.40893072351178156 -0.21919321446988396 0.016394861494998355 1.0000000180025095e-35 -0.29868481653650841 -0.075330547917662929 0.40591152513879708 -0.37019104464470193 45.500000000000007 -0.14657059294204647 -1370.4999999999998 0.35781431330199059 0.46153846157987555 0.64961967365678963 102234480.50000001 -0.17533553944750449 -0.17467186396278297 1.0000000180025095e-35 -1.5091471961631748 1.0000000180025095e-35 -0.19732968363906397 81898550.500000015
decision_type=2 8 2 2 2 10 10 10 2 2 2 2 8 10 10 8 2 2 10 2 2 10 2 2 2 2 2 10 2 8 2 2 2 8 10 2 10 2 2 2 10 2 10 2 10 2 10 10 2 2 10 2 2 10 8 2 2 10 2 2 2 2 2 2 10 8 2 2 2 10 2 8 8 10 2 2 2 10 10 8 2 2 2 8 10 2 10 8 10 2 8 2 2 8 2 10 2 2 8 10 8 2 10 8 10 8 2 2 2 2 2 2 2 2 2
left_child=1 3 -2 -1 8 -4 11 10 17 23 19 12 13 14 -5 -10 24 49 22 20 21 -6 -11 -9 -12 -15 31 -18 -24 44 35 32 43 -34 -30 -23 -14 -20 -35 -29 51 55 -43 57 -13 54 47 -47 -32 -3 -42 52 62 -39 -28 65 80 -22 60 -60 68 -55 -33 -53 -48 66 75 -68 70 90 71 -56 73 -67 -41 101 -77 81 111 -65 -57 96 87 -84 110 -72 91 94 -66 -63 -70 -87 -88 -69 95 -83 99 98 -93 100 -74 -21 103 -96 107 -106 108 -102 109 -104 -85 -73 -107 -109 -90
right_child=2 4 5 6 7 -7 -8 9 15 18 16 29 36 25 -16 -17 27 -19 37 41 26 30 28 -25 -26 -27 45 39 34 -31 48 40 33 38 -36 -37 -38 53 -40 74 50 42 -44 -45 -46 46 64 -49 -50 -51 -52 63 -54 61 58 56 -58 -59 59 -61 -62 89 -64 79 88 72 67 93 69 -71 85 78 77 -75 -76 76 -78 -79 -80 -81 -82 82 83 84 -86 86 92 -89 114 -91 -92 97 -94 -95 102 -97 -98 -99 -100 -101 104 -103 106 -105 105 112 -108 113 -110 -111 -112 -113 -114 -115 -116
leaf_value=-1.9755790437215937 2.104466003965034 -4.8228738805379594 -2.4354374106767347 -2.2386833384771707 -3.6108568656103417 -0.15088765646828506 -2.508806618763844 -3.8696985560452886 -2.1924279509296771 -3.6761231045416354 -4.1491395022681248 -4.8228738805379594 -4.0955580844233426 -4.2544282306347538 -3.573671747950816 -3.581806791370663 -4.0956279346798725 -3.842621659017269 -4.4045405537325175 -4.8228738805379594 -4.8228738805379594 -4.4944449133207041 -4.6313654530304627 -2.8604777108301938 -3.2439647038808839 -3.5160723057156154 -4.6360151905627021 -4.4074216167947586 -4.4261942737062761 -4.1604157560576214 -4.7870194846513723 -4.8228738805379594 -3.9940950681707843 -4.2902280368394372 -3.9173494068462009 -3.9935990808506419 -4.5388330961619205 -4.5706341000106372 -4.7210389099725036 -4.8013275769065826 -4.3826472451918459 -4.8012089111902814 -4.456586718804556 -4.4752410933106583 -4.5445968368137599 -4.3910641235636625 -4.6634748875370953 -4.716040995801202 -4.5206281585407968 -4.5667234057388955 -4.645649899582855 -4.6540697362259325 -4.5090713045732942 -4.666684566636091 -4.644067542610042 -4.7348988772124025 -4.5475121201289657 -4.6354254391431375 -4.8000506927709479 -4.6068540408077849 -4.675549981486455 -4.7579300691207438 -4.6667594939127124 -4.7530736877853634 -4.7564148876797958 -4.6638201561139923 -4.6069038723740432 -4.7565216491141058 -4.8228738805379594 -4.6555654691502166 -4.7565216491141058 -4.8228738805379594 -4.796061635123257 -4.8228738805379594 -4.6681762623306602 -4.6496903834253853 -4.8228738805379594 -4.7500268539747337 -4.7451319944823434 -4.8228738805379594 -4.8228738805379594 -4.8228738805379594 -4.6435500134119865 -4.8228738805379594 -4.7123755818184598 -4.7771833229479714 -4.7341905438522938 -4.7593777021192833 -4.8228738805379594 -4.8228738805379594 -4.7563613780237102 -4.7552589608549658 -4.8008976825803389 -4.8228738805379594 -4.7786035010509833 -4.7409819071821255 -4.7834520107585758 -4.8228738805379594 -4.8228738805379594 -4.7950032570147822 -4.8228738805379594 -4.797999286101736 -4.8228738805379594 -4.8228738805379594 -4.7790613490488596 -4.8228738805379594 -4.8008625487706542 -4.8228738805379594 -4.8228738805379594 -4.8228738805379594 -4.8228738805379594 -4.8228738805379594 -4.8228738805379594 -4.8228738805379594 -4.8228738805379594
leaf_weight=23.599662605673075 16.796536948531866 14.799967462196948 18.032508535310626 16.997250283136964 13.68019833229482 19.363554859533906 23.758120501413941 13.733017630875112 13.933730965480207 20.546707147732377 13.384410260245206 14.377413073554633 19.997386442497373 17.398676952347159 21.655912417918444 15.000680796802046 17.599390286952257 26.113861218094826 23.641918044537306 89.951265482231975 16.659206772223115 16.828228527680043 21.265049608424306 13.933730965480207 13.817528508603571 15.58169308118522 17.124016599729657 17.504315549507737 17.599390286952261 13.173133065924047 16.226088523864746 13.743581490591167 14.039369562640784 18.021944675594568 14.134444300085304 13.68019833229482 18.433935204520822 13.838656228035687 14.282338336110113 13.500612717121841 13.215388504788281 13.426665699109437 13.500612717121838 15.898608872666953 21.951700489968061 17.514879409223795 14.599254127591847 21.782678734511137 18.286041168496013 13.627379033714531 13.130877627059816 13.785836929455398 18.539573801681399 18.624084679409862 16.268343962728977 13.225952364504332 13.733017630875109 15.518309922888873 25.490593494847417 22.891884004697204 21.71929557621479 13.437229558825491 24.222930328920484 25.004655947908759 13.130877627059816 14.63094570674002 18.856489593163133 13.152005346491931 20.081897320225835 20.86362293921411 17.53600712865591 20.525579428300261 21.698167856782675 17.662773445248604 13.162569206207989 13.437229558825491 19.574832053855062 19.965694863349199 18.708595557138324 31.98736722022295 24.043344713747505 20.694601183757186 14.599254127591847 46.164066959172487 13.162569206207989 19.099458366632462 13.120313767343761 13.743581490591167 15.064063955098392 23.229927515611053 13.120313767343758 17.208527477458119 13.236516224220393 13.310463242232801 13.141441486775873 14.208391318097709 14.757712023332713 194.49122123233974 37.385499535128474 20.874186798930168 647.50121743604541 23.388385411351919 50.114950492978096 15.433799045160415 13.278771663084624 22.437638036906719 13.215388504788278 20.071333460509777 114.87141055241227 72.711046425625682 14.282338336110113 13.5851235948503 14.145008159801362 18.264913449063897 13.426665699109433
leaf_count=2234 1590 1401 1707 1609 1295 1833 2249 1300 1319 1945 1267 1361 1893 1647 2050 1420 1666 2472 2238 8515 1577 1593 2013 1319 1308 1475 1621 1657 1666 1247 1536 1301 1329 1706 1338 1295 1745 1310 1352 1278 1251 1271 1278 1505 2078 1658 1382 2062 1731 1290 1243 1305 1755 1763 1540 1252 1300 1469 2413 2167 2056 1272 2293 2367 1243 1385 1785 1245 1901 1975 1660 1943 2054 1672 1246 1272 1853 1890 1771 3028 2276 1959 1382 4370 1246 1808 1242 1301 1426 2199 1242 1629 1253 1260 1244 1345 1397 18411 3539 1976 61294 2214 4744 1461 1257 2124 1251 1900 10874 6883 1352 1286 1339 1729 1271
internal_value=-4.52885 -4.60556 -0.212041 -3.57596 -4.68052 -1.25251 -3.78198 -4.70679 -3.81231 -4.28154 -4.73895 -3.97154 -3.72344 -3.40972 -2.98663 -2.91273 -4.22455 -4.28954 -4.4346 -4.75743 -4.68432 -4.3202 -4.17817 -3.36143 -3.68935 -3.90559 -4.7174 -4.46025 -4.37281 -4.52318 -4.46944 -4.60944 -4.49323 -4.33329 -4.19955 -4.26986 -4.30818 -4.63788 -4.4807 -4.60554 -4.68087 -4.80255 -4.62842 -4.64741 -4.65473 -4.76074 -4.68583 -4.5712 -4.64587 -4.70008 -4.51373 -4.71546 -4.65299 -4.71768 -4.77443 -4.80566 -4.72592 -4.73247 -4.77913 -4.70864 -4.78659 -4.75448 -4.72327 -4.76534 -4.76596 -4.80846 -4.7819 -4.71376 -4.79213 -4.74217 -4.79922 -4.75972 -4.8125 -4.75081 -4.7356 -4.803 -4.75238 -4.81412 -4.79534 -4.79225 -4.79165 -4.81518 -4.80611 -4.77671 -4.80311 -4.80796 -4.81102 -4.81401 -4.80191 -4.79907 -4.79659 -4.81528 -4.76769 -4.7899 -4.8164 -4.78954 -4.81994 -4.8182 -4.80156 -4.82063 -4.82134 -4.81774 -4.81975 -4.80251 -4.82208 -4.81121 -4.82171 -4.82287 -4.82287 -4.82287 -4.82287 -4.82287 -4.82287 -4.82287 -4.82287
internal_weight=0 3049.31 54.1926 206.925 2842.39 37.3961 183.325 2758.91 83.4756 193.984 2564.93 159.567 110.065 71.6335 38.6532 28.9344 88.9688 54.5412 166.317 2475.96 944.726 78.7008 73.5456 27.6667 27.2019 32.9804 866.025 61.7669 52.9989 49.5022 65.0206 248.05 94.4198 46.3437 31.7338 30.5084 38.4313 92.7718 32.3043 44.1675 153.63 1531.23 26.9273 48.0761 36.3291 617.975 95.5184 39.2976 34.5121 28.4273 26.3463 127.284 56.5061 69.1299 522.457 1504.3 51.0023 32.1775 505.333 48.3825 456.95 55.2912 37.9665 70.7779 56.2209 1453.3 191.671 45.319 435.231 54.0658 381.165 69.0876 1261.63 32.2937 26.6632 146.352 33.0121 1229.34 52.8193 56.992 37.2693 1209.37 416.343 88.2082 73.609 312.078 294.542 328.135 41.6216 36.6672 33.2022 268.185 26.3568 26.4625 314.391 34.903 793.029 249.085 54.594 778.271 757.397 113.34 279.488 28.5752 735.699 49.8614 250.913 685.837 237.697 122.826 60.4464 34.1107 36.5826 38.3362 28.4907
internal_count=293785 288655 5130 19588 269067 3540 17354 261165 7902 18363 242802 15105 10419 6781 3659 2739 8422 5163 15744 234380 89430 7450 6962 2619 2575 3122 81980 5847 5017 4686 6155 23481 8938 4387 3004 2888 3638 8782 3058 4181 14543 144950 2549 4551 3439 58499 9042 3720 3267 2691 2494 12049 5349 6544 49457 142401 4828 3046 47836 4580 43256 5234 3594 6700 5322 137573 18144 4290 41200 5118 36082 6540 119429 3057 2524 13854 3125 116372 5000 5395 3528 114482 39412 8350 6968 29542 27882 31062 3940 3471 3143 25387 2495 2505 29761 3304 75070 23579 5168 73673 71697 10729 26457 2705 69643 4720 23752 64923 22501 11627 5722 3229 3463 3629 2697
is_linear=0
shrinkage=1


Tree=1
num_leaves=174
num_cat=0
split_feature=348 30 2 20 342 17 192 158 234 29 1 98 245 265 330 281 136 311 98 315 513 455 535 5 159 1 167 319 237 13 47 449 51 114 32 337 277 235 39 158 13 16 104 36 35 36 43 15 283 174 13 333 98 24 107 310 2 140 4 336 39 244 311 170 313 164 32 185 51 6 9 314 67 36 114 44 372 281 59 20 277 309 181 67 13 138 62 285 61 44 179 227 111 53 0 80 72 161 88 314 0 240 72 112 33 100 104 318 5 48 2 5 2 56 6 535 535 108 34 188 29 158 0 32 53 94 27 286 2 61 57 244 264 285 153 256 5 52 34 244 330 34 0 42 17 233 25 0 5 158 29 320 49 32 16 181 261 52 114 16 32 264 181 112 159 94 281 1 233 264 336 205 313
split_gain=1155.78 1183.86 385.466 274.995 276.682 224.245 192.897 91.5015 67.1075 47.2501 42.0987 38.6261 33.7631 33.6498 46.3089 32.465 30.1721 24.3035 31.6749 21.9219 21.7253 19.2653 20.1467 20.0162 18.8165 19.5773 18.4551 25.351 17.2285 16.7913 22.2095 16.3649 16.3528 14.1796 19.2264 12.8798 11.2619 10.5821 10.1032 9.72614 9.71183 12.1739 9.47109 9.00879 9.99182 8.88582 10.4894 8.04294 7.93748 6.3786 10.4455 6.3527 5.15116 4.48176 4.30985 4.15675 3.71427 3.41473 3.94375 5.61483 3.0599 3.0126 4.5666 2.70635 2.49661 2.22599 2.14974 2.04094 5.35789 1.69975 4.31616 1.55796 3.21531 1.5702 1.55522 1.40519 1.48149 1.17433 1.80268 1.21003 3.1638 1.16778 1.0844 0.876237 2.06658 3.59224 0.665234 1.63854 0.565197 0.53575 0.424485 0.311677 0.279018 0.278146 0.266646 0.531329 0.257331 1.35957 1.81739 0.239382 0.197352 0.147027 0.702018 0.0913791 0.0888152 0.0833391 0.0824292 0.0531642 0.000195024 0.000155982 8.26283e-05 1.94716e-05 1.34988e-05 8.60744e-06 8.1672e-06 5.9742e-06 4.11483e-06 3.12106e-06 2.67992e-06 2.59359e-06 2.15985e-06 1.73245e-06 1.55925e-06 1.7556e-06 1.39443e-06 1.10802e-06 1.00104e-06 9.52056e-07 6.91878e-07 5.3914e-07 4.75389e-07 4.65753e-07 3.44458e-07 2.99153e-07 2.97337e-07 2.74574e-07 2.7452e-07 2.18883e-07 1.99874e-07 1.75002e-07 1.5827e-07 1.0286e-07 9.75101e-08 8.84694e-08 8.72472e-08 7.97296e-08 7.21558e-08 5.64426e-08 5.63541e-08 3.79004e-08 2.95603e-08 2.63308e-08 1.94738e-08 7.62617e-09 7.77e-09 5.0623e-09 3.37437e-09 2.48006e-09 1.88419e-09 4.61625e-10 7.78321e-10 4.45254e-10 3.39611e-10 1.54358e-10 1.88145e-10 7.98366e-11 7.1168e-11 2.69154e-11 4.72653e-11 1.44667e-11 4.26326e-12 9.89786e-12 5.68434e-14
threshold=1.0000000180025095e-35 0.66492283827389909 -2.5462623892717495 1.5419413546634253 1.0000000180025095e-35 -2.6503722479010192 -1.0000000180025095e-35 0.41768559561762059 0.033315911324400156 -0.92985235948596634 202105.50000000003 0.20136968783197354 -0.025664325621590496 -0.092857142857142846 -0.0014033287939839798 -10.642857142857148 -1763.4999999999998 0.050757324098336457 1.0000000180025095e-35 0.0016892674470488152 1.0000000180025095e-35 1.0000000180025095e-35 1.0000000180025095e-35 -0.82301308294525388 0.28498250133861958 202105.50000000003 0.31076545926947607 -0.016916056515244797 0.0040730784811229808 -1.3086303750461699 0.25351785374093905 1.0000000180025095e-35 -0.15469580052800047 38.500000000000007 0.14349245136351155 1.0000000180025095e-35 0.18571428571428553 1.0000000180025095e-35 -0.20014668073633199 0.042012555496828155 -1.3086303750461699 0.17563263042325503 0.75797698860178009 0.64649316277813462 -0.045649503684819896 0.64649316277813462 0.72875793533435818 0.72559469714149361 30.350000000000005 0.068647456058509512 -1.1319232151362297 -0.0081556524815843221 0.16119612196081853 -0.49983472461112194 0.58527781648716515 0.0012305817794608003 3.9547050559058152 7.5000000000000009 -0.30847785851146542 -0.00064134277281550889 -0.07884074247412759 -0.10674612438588248 0.0020797047707890055 0.60669992454008359 -0.073775889254792074 0.33535289434131305 -0.17394672283951398 0.50062248866918113 -0.053126252814751793 0.95705230582845402 0.20539410130362204 0.010857772867183651 -0.26850717450378142 0.43453145827345502 65.500000000000014 -0.66136711651994839 1.0000000180025095e-35 -10.642857142857148 -0.046438238344109338 -0.87859966047397342 -0.2142857142857145 0.037255371314483511 0.20740935731759752 0.078955576675295722 -1.1319232151362297 3998.5000000000005 0.96187941363829055 30.185714285714301 0.25153425690563508 -0.66136711651994839 0.41349272783977703 -5.4999999999999991 0.8280157462780281 -0.34947462781760946 168519610.50000003 15.500000000000002 4.5000000000000009 0.7865182738346822 -1490.4999999999998 0.12641163380126855 75245580.500000015 0.35781431330199059 6.5000000000000009 0.066445331536887656 0.86866359647936908 0.86679926526783813 0.10349330405486802 -0.075201869946750932 -0.22579660100255097 -0.33125119241003992 1.0000000180025095e-35 -0.82301308294525388 3.3569586538412954 0.20576889575269453 0.23232705216759503 1.0000000180025095e-35 1.0000000180025095e-35 0.071413248465241511 1.0000000180025095e-35 0.069308729104489972 -0.7561261323714924 0.54244689988636063 105983475.50000001 0.26873508906293803 0.47292013244385606 0.27981385796806907 -0.081649490656994547 0.14119601328903653 3.3569586538412954 -0.24830199054951799 -0.21919321446988396 -0.37019104464470193 0.36190916512273558 30.089368770764153 0.53333706683597359 0.28929977657570205 -1.0247455560806349 0.29703240611547255 -0.54571865217732995 -0.14657059294204647 -0.05389393563010849 0.28981349951179652 105983475.50000001 0.13082652523130703 -0.3651739885237249 0.013682679829737502 0.54357942881325905 98470195.500000015 -0.49516762494108996 0.75030865647385803 0.047010171194456503 0.086121851252995762 0.061975666552054005 0.48784349021974011 -0.063001485774638988 0.069363972021881271 0.072729423840137822 0.12364274005131802 63.500000000000007 0.63303717945130211 0.11161367096824802 0.14948915803125304 0.27665382662965704 0.20033187625306151 0.39207183299836307 0.92034045901891404 1.2142857142857151 202106.50000000003 0.032760332696735707 0.083291966375631007 0.0024419680766542451 -2.4999999999999996 0.068417315084377608
decision_type=2 2 2 2 2 2 8 8 10 2 2 2 8 10 8 8 10 10 2 10 2 8 2 2 10 2 10 10 10 2 2 2 2 10 2 10 10 10 2 10 2 2 10 2 2 2 2 2 8 8 2 8 2 2 8 8 2 8 2 10 2 10 8 10 10 10 2 10 2 2 2 10 2 2 10 2 2 8 2 2 8 10 8 2 2 10 2 10 2 2 10 10 8 2 2 8 2 10 8 10 2 10 2 2 2 2 8 8 2 2 2 2 2 2 2 2 2 10 2 10 2 10 2 2 2 2 2 8 2 2 2 8 10 10 10 8 2 2 2 10 8 2 2 2 2 10 2 2 2 10 2 10 2 2 2 8 10 2 10 2 2 10 10 2 10 2 10 2 8 10 10 10 8
left_child=2 16 3 4 6 -5 -1 8 12 -7 40 13 32 -10 -15 -9 -2 24 -19 26 43 65 23 -23 25 33 27 -17 29 -29 48 45 -8 34 -14 -20 -13 39 -26 -35 -11 -42 47 49 -45 56 60 63 -31 50 -6 -30 -24 -40 -53 -46 61 58 59 -51 81 62 -4 69 -60 100 -54 68 -66 70 -21 73 -73 74 89 -58 77 78 -77 80 -79 92 -59 91 85 -85 94 -88 111 -63 -74 -69 112 -86 96 -96 97 120 -99 101 -22 103 -103 -98 107 108 -91 -105 114 -108 -111 -70 -47 119 116 -93 -84 118 125 -112 -81 -95 131 130 133 -109 -82 -125 -121 -118 -124 -119 138 -117 147 137 141 139 -133 -132 -140 149 150 -144 -127 -135 151 -104 -141 -131 -122 153 156 155 -155 -142 157 162 159 161 -161 163 -150 164 -157 167 -164 169 -169 170 172 -172 -165
right_child=1 -3 31 5 20 9 7 15 11 10 -12 36 17 14 -16 19 -18 18 35 42 21 22 52 -25 38 -27 -28 28 51 30 -32 -33 -34 37 -36 -37 -38 -39 53 -41 41 -43 -44 44 55 46 -48 -49 -50 57 -52 54 66 -55 -56 -57 75 82 64 -61 -62 71 -64 -65 67 -67 -68 83 88 -71 -72 72 90 -75 -76 76 -78 79 -80 86 126 -83 105 84 93 -87 87 -89 -90 106 -92 115 -94 121 95 -97 99 98 -100 -101 -102 102 134 104 -106 -107 109 117 -110 110 113 -113 -114 -115 -116 124 129 122 -120 128 142 -123 123 127 -126 144 -128 -129 -130 136 135 132 -134 145 -136 -137 -138 -139 140 148 146 -143 143 -145 -146 -147 -148 -149 152 -151 -152 -153 -154 154 -156 158 -158 -159 -160 160 -162 -163 166 165 -166 -167 -168 168 -170 -171 171 -173 -174
leaf_value=0.57134021780839861 -0.17164554523231726 -1.129808376620316 -0.017929645011296763 -0.57469924106012982 -0.29352954066152465 -0.26647147184886749 0.44476381274892957 0.24485252784651804 0.096321437773809526 -0.21657271983206164 0.23343507474410352 0.18247106335879493 0.22991734142370526 0.64278537485581766 0.25022767739530521 0.26151962116931399 -0.33768248564404874 0.32209203174240481 0.11867070281168017 -0.29645095106166358 -0.24600440843236879 -0.048625746331575757 0.0044837266869866598 0.39913164837630449 -0.015229163740147203 0.19362938062580962 -0.20956743648317494 -0.13205677368377003 -0.023230450001616738 0.077961422510215012 0.22905316530016959 0.066892024697346592 0.1020593029100936 -0.086633153450954306 -0.062954250943629594 -0.1343548511447821 -0.062957075343071184 -0.15402891161354076 -0.30449982102957507 0.085342675638375123 0.10766008269459479 -0.15645784776879876 -0.0336736323178684 0.060140246467243752 -0.29386361366896924 -0.29380825460744514 0.04009406921605236 -0.052430669546731534 -0.13315441278684834 -0.037252196455664917 0.094244496011333417 -0.11171278757620072 -0.27395260743960875 -0.13792550866628958 -0.27998847639890817 -0.10187068476469627 -0.18619699194147116 -0.21375791495701388 -0.11102942896988581 -0.27319779335331884 -0.11946233340012299 -0.22788996219135674 -0.25543496747354533 -0.14524545826851701 -0.087371528273746599 -0.13700081472139972 -0.10999758225483164 -0.2399999937483209 -0.29335719943165933 -0.29775147611729574 -0.10123169670904433 -0.070387102307203991 -0.29468845462408444 -0.17205849362750725 -0.17394537454115347 -0.12944052874941195 -0.1988953910174599 -0.11842116071678135 -0.29339614919217305 -0.29339310257889106 -0.2934090921730847 -0.17911650182994346 -0.29346315666645567 -0.27136662805462375 -0.23836965160731449 -0.043048992883464435 -0.29324921428905221 -0.14688100981306401 -0.21409628194547475 -0.2671012910133847 -0.21640689249533915 -0.29353879474072775 -0.23931418599031978 -0.29350859935733242 -0.20585884836617543 -0.2932683678483749 -0.26451791973235955 -0.11939755912101271 -0.29328215956774711 -0.25301353488567119 -0.2940345242084218 -0.20734802168116315 -0.29324042878203882 -0.27731820645375399 -0.26607574469182116 -0.26666227644465068 -0.2944650511747936 -0.29336142779687391 -0.29468492440119287 -0.29418637539122444 -0.29347383138610045 -0.2938778991572869 -0.29341950261605126 -0.29363875976423992 -0.2935704659638913 -0.29332822908910439 -0.29334997136889751 -0.29329425562472677 -0.29343906583530405 -0.29336803842601822 -0.29325677650082421 -0.29336238906861845 -0.29331524317448987 -0.29339030533126786 -0.29340956386447359 -0.29327088158161679 -0.2932933521514734 -0.2932889736604527 -0.29328006106084298 -0.29324311264274922 -0.29327523999714311 -0.29327325540642901 -0.2932861229452674 -0.29328731252494133 -0.29330628114098922 -0.29329444176566621 -0.29331715580198042 -0.29327456284891518 -0.29326264406024438 -0.29325652964310522 -0.29323432753722989 -0.29328923640027271 -0.2932548847662847 -0.29328956909429754 -0.29323663229857405 -0.2932540020699696 -0.29325243094806952 -0.2932677946927234 -0.29323053444659625 -0.29326704756734351 -0.29323756035221044 -0.29324411584450477 -0.29324319618356032 -0.29322934775796222 -0.29324037713152823 -0.29322822687945171 -0.29323550319831615 -0.2932341273788594 -0.29323213627989131 -0.29322846397024765 -0.29323160074684518 -0.29322988450611137 -0.29322915611054562 -0.29322810191391119 -0.29322989530649657 -0.29322893410323547 -0.2932282629524382 -0.29322891750301233 -0.29322810191391119 -0.29322842721781606 -0.29322841890880458 -0.29322810191391124 -0.29322810191391202
leaf_weight=58.895434801466763 161.14422342460603 208.72166779171675 12.644146734848617 142.60644826106727 10.908339332789184 104.40953954402357 24.17805103957653 27.039502592757344 42.877809559926391 42.802294300869107 42.538255509920418 28.186194063164294 41.064352731220424 41.304754766635597 66.15240088943392 26.875540472567081 217.7433262206614 46.907564836554229 40.840502004139125 23.187074921093881 12.123297813348474 16.609616650268435 17.536820101551712 17.191931515932083 42.698366097174585 47.785988997668028 44.063155226409435 44.231981921009719 22.903316718526185 27.875539492815733 47.73412456177175 12.709724103100596 22.978871379978955 57.123001706786454 35.246652688831091 29.189375120215118 36.059801533818245 60.44674264639616 22.168589456938207 54.25672128982842 27.368702057749033 32.070649371482432 35.501249170862138 19.715633600950241 18.499539827927947 12.502717494033279 15.634288338012992 24.505732861347497 32.801661764271557 21.491032775491476 12.746143858879803 22.773343064822257 14.550238264724614 35.640284624882042 29.641416592523456 19.706243585795164 13.576689286157487 18.103019876405597 12.747888496145604 14.155512374825774 18.347354332916439 12.812325703911482 14.94890175573528 21.710612240247428 22.540395057760179 14.834814526140688 12.650037363171576 10.90528834518045 12.608790894970296 46.665693574585021 16.333700604736805 11.682450213469563 12.217261105775835 14.302370114251969 11.989586547948418 10.643873104825618 18.484496062621474 13.302884520962833 12.153630486689506 11.694620895199476 14.051324863918126 12.658205119892953 15.305340521968899 13.176187877543272 10.560497927479444 10.459759270772336 18.559581534005705 9.9365182947367412 10.975998241454361 10.954324669204651 11.266518816351889 13.251903012394903 10.745146872475742 10.914008006453516 9.983308966271581 14.331742890179155 10.121305466629563 10.037825585342942 10.309944470413031 14.455609519034622 17.966749808751047 10.155675857327877 16.224511529318992 18.233143521472812 10.69397764187306 10.89179336465895 22.088509205728769 10.690961590968071 10.764360421337186 14.908346536569296 11.586799921467898 11.730326618067922 19.110057908110321 11.486987422220407 14.355401261709629 12.428335153497754 11.094275820069006 11.193630071356893 12.342861616052685 12.162050599232314 10.404212784953417 18.449069455265999 10.089871145784853 13.055554517544804 10.933312674984334 10.484884998761116 11.496973024681211 19.66001249756664 20.005757329054177 12.522418451495456 10.71326166577637 10.01118705049157 10.483268844895063 14.079909201711418 12.012973547913132 10.62114541698247 11.364224354736526 18.575442698784173 13.414411309175192 9.9041183954104763 13.974985417909918 9.9981073215603811 15.692997222766282 10.311490738764403 15.744186587631704 10.701170498505233 12.236784955486653 10.507518809288738 10.514349417760966 10.123656965792177 19.412198088131845 10.417723045684395 13.691812926903365 11.459814714267852 10.228856132365761 12.032576258294286 12.043049037456511 10.377247049473224 12.692771752364932 18.098048893734816 10.621697466820477 15.985569213517008 12.670465603470804 127.52324497327211 10.899758546613155 12.780259430408476 18.674505103379488 11.061874624341725 13.171860933303835 14.54319939855486 12.88059291988611 23.596945578232408 10.520074026659101
leaf_count=2403 1856 1964 1398 1176 1288 2070 1412 1316 1376 2031 1673 1570 1425 1419 2052 1278 1200 1489 1473 1853 1253 1754 1745 1537 2343 1779 2477 2342 1386 1435 2102 721 1208 1570 1266 1515 1624 2446 1282 1763 1356 1884 2317 2093 2045 1368 1588 1527 1429 2350 1418 1453 1481 2101 1419 2188 1655 1974 1473 1615 2044 1258 1620 1244 2462 1560 1289 1322 1524 1938 1394 1284 1335 1585 1248 1255 2260 1608 1443 1393 1668 1429 1782 1562 1248 1268 2326 1243 1245 1259 1263 1523 1264 1258 1241 1783 1264 1248 1278 1805 1827 1259 2040 2267 1328 1318 2339 1286 1053 1574 1365 1285 2263 1307 1630 1516 1341 1376 1444 1476 1300 2217 1232 1554 1297 1305 1418 2427 2480 1573 1328 1247 1293 1739 1471 1307 1392 2306 1671 1238 1761 1236 1962 1273 1982 1339 1533 1308 1327 1260 2443 1308 1720 1447 1286 1520 1517 1308 1601 2286 1340 2018 1600 16110 1376 1614 2359 1397 1664 1837 1627 2981 1329
internal_value=0 -0.573516 -0.13321 -0.0619032 -0.016136 -0.283793 0.0567082 0.0328227 0.0951721 -0.117313 -0.00974636 0.233507 0.0422143 0.314187 0.40112 -0.0650371 -0.267066 0.0205768 0.137111 -0.0829873 -0.185334 -0.0772888 0.00961654 0.17911 -0.0137979 0.0231356 -0.0357412 -0.00568541 -0.0371876 0.0189858 0.0806113 -0.261533 0.277769 -0.00969784 0.0946453 0.0132063 0.0447179 -0.0560384 -0.122541 -0.00285808 -0.110923 -0.0348454 -0.167094 -0.215096 -0.108045 -0.264844 -0.176234 -0.202868 -0.0361663 -0.230984 -0.0845787 -0.151031 -0.118446 -0.201804 -0.206875 -0.194835 -0.271576 -0.240429 -0.220296 -0.130948 -0.222335 -0.236017 -0.146601 -0.237036 -0.235723 -0.229219 -0.197702 -0.243929 -0.198174 -0.260158 -0.215768 -0.24992 -0.195094 -0.263469 -0.273684 -0.27912 -0.280444 -0.282057 -0.216847 -0.283688 -0.233458 -0.256642 -0.279574 -0.263413 -0.238497 -0.170328 -0.285924 -0.242211 -0.268896 -0.283992 -0.257132 -0.285316 -0.279809 -0.278856 -0.2874 -0.25738 -0.28829 -0.273415 -0.207503 -0.290075 -0.274683 -0.290822 -0.275424 -0.291948 -0.292369 -0.29077 -0.290958 -0.292803 -0.293519 -0.293791 -0.293579 -0.293608 -0.293573 -0.293415 -0.29337 -0.293366 -0.29333 -0.293251 -0.293322 -0.293356 -0.293279 -0.293417 -0.293245 -0.293269 -0.293318 -0.293282 -0.293357 -0.293329 -0.293313 -0.293293 -0.293254 -0.293236 -0.293234 -0.293291 -0.293268 -0.29325 -0.293278 -0.293246 -0.293233 -0.29324 -0.293232 -0.293265 -0.293256 -0.293269 -0.29325 -0.293273 -0.29323 -0.293251 -0.293236 -0.293254 -0.293244 -0.29323 -0.293233 -0.293229 -0.293235 -0.293229 -0.293231 -0.29323 -0.293229 -0.293229 -0.29323 -0.293228 -0.293229 -0.293228 -0.293229 -0.293228 -0.293229 -0.293228 -0.293228 -0.293228 -0.293228 -0.293228 -0.293228
internal_weight=0 587.609 3564.55 2291.31 1899.52 391.796 1327.85 1268.95 775.106 249.189 144.78 214.581 560.525 150.335 107.457 493.844 378.888 513.368 116.937 466.804 571.671 123.464 78.5386 33.8015 396.431 295.923 298.9 254.837 227.961 152.643 108.411 1273.24 47.1569 248.137 76.311 70.0299 64.246 171.826 100.507 111.38 102.242 59.4394 167.904 448.208 57.9214 1260.53 88.9978 132.403 60.6772 390.286 23.6545 75.3181 44.7371 57.8089 52.4148 38.2058 1171.53 366.632 242.109 35.6465 73.3635 205.056 27.593 107.897 206.463 44.9249 27.2003 193.715 57.8555 86.1865 39.5208 177.463 35.1662 142.297 127.995 966.472 952.895 934.411 22.7975 911.613 38.8512 55.0161 124.523 135.859 63.5595 23.6359 872.762 28.4961 35.3151 116.005 23.4838 72.2999 42.3579 39.9236 844.266 24.3151 819.951 87.8633 20.3478 732.088 30.09 717.632 48.9007 668.731 658.61 106.42 103.193 647.916 95.5278 92.2385 70.1499 24.3391 31.6128 55.2416 84.7634 61.3946 70.408 629.683 49.2629 43.7546 67.5155 29.3631 580.42 170.591 48.1427 36.92 25.5483 32.7156 32.1678 55.1027 137.875 409.829 398.636 37.2094 38.745 127.785 44.0084 117.164 388.152 98.5888 378.141 32.6442 55.8209 26.0045 26.2291 24.7811 364.727 26.732 87.8755 22.6461 29.8164 352.49 77.9714 342.072 21.6887 320.383 64.2796 52.2366 306.408 293.716 28.7197 264.996 41.8593 249.01 22.9323 226.078 31.345 213.298 24.2337 189.064 174.521 36.4775 138.043
internal_count=293785 5020 288765 134896 124706 10190 60426 58023 31113 9014 6944 8041 23072 4847 3471 26910 3056 20452 4477 25594 64280 12446 7806 3291 15975 10249 15321 12844 11566 7308 4966 153869 2620 8470 2691 2988 3194 5779 5726 3333 5271 3240 10273 51834 6326 153148 9956 7956 2864 45508 2706 4258 4515 3383 2872 4233 143192 42802 28243 3965 8368 22791 3018 6429 24278 4640 2770 22805 6516 5185 3247 19773 3882 15891 14306 120401 118746 116486 2698 113788 4694 6324 14559 16289 7553 2830 109094 3569 4054 13058 2598 8736 4895 4723 105525 3024 102501 10897 2526 91604 3080 89799 6078 83721 82457 12585 11800 81129 11267 10541 8202 2809 3631 6628 10214 7414 8584 78862 6017 5321 8371 3475 72845 21223 5891 4573 3086 3981 3956 6802 17242 51622 50246 4594 4819 16010 5461 14703 48953 12397 47706 4069 6978 3235 3287 3078 46035 3348 11069 2833 3743 44502 9831 43194 2733 40461 8111 6594 38700 37099 3626 33473 5286 31455 2896 28559 3959 26945 3061 23884 22047 4608 17439
is_linear=0
shrinkage=0.290888


Tree=2
num_leaves=185
num_cat=0
split_feature=345 2 16 3 73 98 32 167 167 319 321 316 200 32 203 321 75 330 111 66 96 54 29 2 3 316 322 157 281 4 309 24 217 565 107 187 88 129 50 307 160 322 115 11 20 20 281 209 98 365 29 101 333 111 314 323 366 150 98 50 314 286 79 281 332 393 26 28 85 28 327 133 233 5 313 125 334 188 29 174 324 157 170 280 333 20 227 248 334 161 39 52 78 280 217 286 42 16 52 281 20 321 61 321 243 255 141 124 17 349 48 322 2 349 402 535 9 2 507 281 534 341 507 535 534 54 11 36 62 36 36 36 140 158 20 17 20 28 11 281 565 45 108 103 244 281 115 161 72 134 314 37 37 72 115 37 62 163 150 286 133 257 167 115 318 26 90 33 112 244 43 257 156 152 181 163 163 50 7 108 52 33 5 3
split_gain=767.407 463.36 452.769 206.885 109.414 76.8139 73.0114 67.4047 55.2176 54.19 52.7509 41.2395 39.5216 35.9121 28.001 25.1229 22.9814 33.337 22.7715 21.4694 19.4201 20.7594 15.6855 15.5247 15.3749 18.1051 16.0356 14.9747 18.2548 13.3948 12.9238 14.1223 12.5955 11.5632 13.8622 11.3937 11.1183 11.1155 10.8405 9.46325 9.07069 11.5391 8.33671 8.05198 7.97723 7.84219 11.3251 7.73689 6.16834 7.56206 5.39222 4.44107 4.44571 8.77804 4.18694 4.65167 3.81575 3.77938 4.55575 7.1573 3.77375 3.70089 3.30439 4.24056 3.2402 2.66189 6.26901 2.59364 2.49727 2.16982 1.96794 1.96445 1.7415 1.67287 1.61912 1.56052 2.98886 3.47008 1.34347 1.27341 1.22139 0.967078 0.910863 0.863842 0.795193 1.41362 1.4522 2.48259 0.835355 0.7693 0.744011 0.693098 0.607783 0.549655 0.278063 0.260698 0.237709 0.198645 0.733899 1.06985 0.121734 0.118252 0.110258 0.10981 0.0972585 0.0948909 0.028163 0.00103142 0.000458159 0.000184402 0.00010304 0.000102176 3.33422e-05 2.62984e-05 2.15715e-05 1.45914e-05 1.24068e-05 1.17893e-05 6.11305e-06 6.04313e-06 5.46752e-06 4.80619e-06 3.69491e-06 3.18008e-06 2.50931e-06 1.68688e-06 1.66965e-06 1.41197e-06 1.18797e-06 1.18165e-06 1.13105e-06 9.65152e-07 7.84841e-07 6.87039e-07 5.76663e-07 5.19491e-07 4.41553e-07 4.18884e-07 3.83914e-07 3.35933e-07 2.92998e-07 2.8822e-07 2.43905e-07 1.84841e-07 1.65191e-07 1.4819e-07 1.34366e-07 1.3414e-07 1.2393e-07 9.98646e-08 9.3448e-08 9.22353e-08 6.48171e-08 5.55231e-08 5.352e-08 2.06429e-07 5.2625e-08 4.42014e-08 3.85634e-08 3.76729e-08 2.69911e-08 2.15445e-08 1.70043e-08 1.52115e-08 1.09348e-08 1.04498e-08 9.73552e-09 6.69122e-09 5.88719e-09 5.55018e-09 4.65901e-09 4.55016e-09 4.23383e-09 3.73112e-09 3.51865e-09 3.11873e-09 2.86328e-09 1.63356e-09 1.49102e-09 4.5938e-10 2.73275e-11 4.39115e-12 8.52651e-14 7.10543e-15
threshold=1.0000000180025095e-35 -2.5462623892717495 1.0000000180025095e-35 1.7890617727580502 1.0000000180025095e-35 0.32115342735096358 0.71956285910726214 0.31076545926947607 0.13828537750255701 -0.031619661581921497 -0.021303344780944897 1.0000000180025095e-35 1.0000000180025095e-35 -0.10735666235464898 1.0000000180025095e-35 -0.029464987000833595 13.500000000000002 1.0000000180025095e-35 0.27638747598065655 0.6577766440551206 0.12584093796184001 0.35226113651933055 0.22319257697239153 3.9547050559058152 3.1671400450282206 -0.036513092976603191 0.057890405184243411 0.45470137845085906 -3.7857142857142843 3.5852338523599054 -0.011928748915289798 1.1221910038640353 -4.9000000000000039 1.0000000180025095e-35 0.34428636524169703 0.39332389970526654 -469.99999999999994 31.500000000000004 0.087818857187896324 1.0000000180025095e-35 0.62839052867991363 0.0022358152602772454 62.500000000000007 0.44001792325732308 -0.76479553606027839 -0.67384353291116394 -2.0428571428571445 30.500000000000004 0.76047438396536415 1.0000000180025095e-35 0.13622514146507303 0.4339451957624581 0.0037592375719207251 0.69007312503115414 0.020436860703467303 -0.056172968937103641 1.0000000180025095e-35 4052.5000000000005 0.52111761674080304 -0.44643124456764144 -0.045054318413683341 -0.027799227799227794 1222.5000000000002 1.0000000180025095e-35 -0.0033256824015413344 1.0000000180025095e-35 -0.76724215727242639 -0.44030033468170693 6.5000000000000009 0.72159506806128604 0.027980913061571504 3191.5000000000005 0.18146914094981853 -0.22579660100255097 -0.0043847691533150891 4.5000000000000009 0.014176122816604053 0.069308729104489972 -0.61597371560970293 0.79274038069930008 -0.0076995168884616541 0.90973607848289406 1.0000000180025095e-35 3.8928571428571455 0.026063835680114753 -0.76479553606027839 4.5000000000000009 -0.00092071463436746448 -0.032379578968844594 0.82162072059375457 -0.64682539411589246 -0.14638697895786898 2.5000000000000004 3.8928571428571455 -25.499999999999996 0.14119601328903653 -0.41259704759092847 -0.53720760499840337 0.29703240611547255 3.6928571428571453 -0.59759632671268148 -0.021303344780944897 1.0757358365740901 -1.0000000180025095e-35 -0.015523626884363999 0.012578121164941001 39.300000000000004 1.0000000180025095e-35 -0.9479021463206484 1.0000000180025095e-35 -0.25760023135593246 0.023712068563370405 3.3569586538412954 1.0000000180025095e-35 1.0000000180025095e-35 1.0000000180025095e-35 0.30508576570214707 1.0000000180025095e-35 1.0000000180025095e-35 -10.642857142857148 1.0000000180025095e-35 1.0000000180025095e-35 1.0000000180025095e-35 1.0000000180025095e-35 1.0000000180025095e-35 -0.20100101347234398 -1.0000000180025095e-35 0.29647979471772706 0.96187941363829055 0.43453145827345502 0.52506891266204359 0.52506891266204359 5.5000000000000009 0.29279246425227806 -0.67384353291116394 -0.55476295606351589 -0.59759632671268148 -0.03602127550990674 0.25774372132844009 -5.0714285714285738 1.0000000180025095e-35 0.46644688977884058 0.071413248465241511 1.0000000180025095e-35 -0.37019104464470193 -2.0428571428571445 127.50000000000001 0.60859297400730861 6.5000000000000009 12.500000000000002 0.089697742520271115 0.13008607900360702 0.16623152071311451 4.5000000000000009 127.50000000000001 0.16623152071311451 0.60408874723353756 0.46599817236945501 657.50000000000011 1.0317275747508303 755.50000000000011 0.15754442541024652 0.034385739216482004 127.50000000000001 -0.044828558325090841 -0.20371591114608947 990.50000000000011 -0.53665708854648841 0.16723744651855652 -0.080495647127700784 0.57076426870339059 0.0097272445208040365 0.0020544668616469903 0.46153846157987555 0.41402746075888103 0.64402999924303961 0.82208876475107062 -0.047951046311171544 -0.35301939508935493 0.53534772079008508 0.34638418074067406 0.35009649741979754 0.62975972971096905 1.5247737874802254
decision_type=2 2 2 2 2 2 2 10 8 8 8 10 10 2 10 8 2 8 8 2 2 2 2 2 2 8 10 8 10 2 10 2 10 8 8 8 8 10 2 10 10 10 10 2 2 2 8 10 2 2 2 2 10 10 10 10 2 10 2 2 10 8 10 10 8 2 2 2 10 2 10 8 10 2 10 8 10 10 2 8 8 10 10 10 10 2 10 10 10 10 2 2 10 10 8 8 2 2 2 10 2 8 2 10 10 10 10 10 2 2 2 8 2 2 2 2 2 2 2 8 2 2 2 2 2 2 2 2 2 2 2 2 10 8 2 2 2 2 2 10 8 2 10 8 10 8 10 8 2 8 10 2 2 2 10 2 2 10 10 8 10 10 10 10 10 2 10 2 2 10 2 10 10 8 10 10 10 2 2 10 2 2 2 2
left_child=1 3 -2 4 5 7 -4 9 11 -1 13 -6 14 -11 16 -7 20 18 19 -18 22 -22 37 39 25 26 32 28 -17 42 -24 44 -5 34 -9 50 48 47 -39 40 41 54 -30 -36 -32 46 -27 -12 49 62 -19 93 73 -54 55 -3 -48 80 59 -59 -57 -61 -29 -64 -34 75 -67 -44 121 91 81 -69 89 95 -35 76 83 -78 -62 106 -26 113 84 103 94 -86 88 -88 -87 104 -82 -63 -79 111 -77 -53 -92 98 101 -100 -90 -96 119 -25 -41 108 -50 110 -80 -98 -106 115 114 -60 -110 -47 -93 -112 -111 -99 127 -68 -117 -120 137 -115 -119 133 131 139 134 136 -127 -121 -103 -125 149 -105 -135 -102 -137 142 -138 147 -144 -136 151 -126 153 -122 154 158 160 -146 155 166 162 -155 -141 -123 -147 164 174 -159 -156 -160 -150 -166 -169 -168 173 -162 -171 175 -148 -170 -165 -174 -176 -179 181 182 183 -175
right_child=2 23 6 24 8 15 -8 33 -10 10 12 -13 -14 -15 -16 27 17 35 -20 -21 21 -23 30 65 57 45 -28 36 29 -31 31 -33 64 74 43 -37 -38 38 -40 72 -42 -43 67 -45 -46 51 56 -49 79 -51 -52 52 53 -55 -56 60 -58 58 70 61 78 69 63 -65 -66 66 68 71 -70 -71 -72 -73 -74 -75 -76 82 77 92 105 -81 90 -83 -84 -85 85 86 87 -89 100 -91 96 116 -94 -95 97 -97 109 102 99 -101 129 130 -104 124 107 -107 -108 -109 112 118 117 -113 -114 125 -116 122 -118 126 123 120 128 159 -124 135 143 132 -128 -129 -130 -131 -132 -133 -134 138 145 140 141 -139 -140 146 -142 -143 144 -145 148 152 156 -149 150 -151 -152 -153 -154 157 161 -157 -158 163 165 -161 171 -163 -164 176 167 -167 169 168 170 172 -172 -173 177 180 178 -177 -178 179 -180 -181 -182 -183 -184 -185
leaf_value=0.3925470283186186 -0.69086709903849486 -0.027595506353935605 -0.37952853731026687 0.13270004402895197 0.56274027731670118 0.20228564449819325 -0.15151073418605709 -0.22292656687221302 -0.069073317087816624 0.47623775793795314 -0.095438058695546626 0.16839874265059337 0.24778169621184434 0.096014991380748038 0.1957250264233609 0.182123068710875 0.1547362962798739 -0.2001562414575257 -0.03288581869482958 0.44422474498386794 0.16777019224486447 -0.084259380829710587 -0.10589760463767887 -0.25546035271115797 -0.1855887504874669 0.15896753431173835 0.25289598196727558 -0.26193550542537108 -0.027738451645833165 0.11210902625120454 0.030273417449170358 -0.070746032081330637 -0.070954413563085586 -0.19771238733444876 -0.08940362613472945 0.10998534930998755 0.01957174377702444 0.10857749821157697 -0.14797722542258682 -0.26141569773247775 0.07088706133048156 0.13455871276579121 -0.11476722863029383 0.13894203311141112 0.20473117593854101 -0.29357636969527146 -0.081869810384404856 -0.23246672476942104 -0.31076957248681641 0.010194182945628752 -0.022662347798275785 -0.23296984639232676 0.045319892486460865 -0.2936736324871011 -0.060312802457838696 -0.080075665560455353 -0.27382338646304516 0.067546933073232562 -0.29337762823716601 -0.070550243978768704 -0.19510266756860781 -0.19928686584067568 -0.2324329870311945 -0.061151552452291667 -0.27656195181578075 0.025374779669645232 -0.29292860460656389 -0.29434944841599253 -0.13094069567643413 -0.10841396846231968 -0.12156246489626127 -0.17479200863033006 -0.1736531743978687 -0.13524656816010278 -0.30308463078301812 -0.24405124853099339 -0.015973031642004695 -0.17927190728960332 -0.29550789703790842 -0.21574620917638701 -0.20114208935975253 -0.20166442984834226 -0.18335695782701705 -0.18582515428883728 -0.14151253583862522 -0.19861110711416305 -0.070996322322951305 -0.29268999904521487 -0.25436268059871886 -0.19949349789236276 -0.2522044983253377 -0.29335750114228037 -0.29271340305774662 -0.22317448073151158 -0.25444061974815024 -0.29357604159332495 -0.29400665752053201 -0.29292223160014108 -0.14259505152796687 -0.29273002763092432 -0.29272709700352217 -0.29275197828699118 -0.25978678878548328 -0.29280237705929296 -0.29402711837382239 -0.26097527511234281 -0.29534836966769001 -0.29643976098079633 -0.29370004596396687 -0.29303483475946002 -0.29325599172901057 -0.29437147037003825 -0.29277985459449907 -0.29274509745820748 -0.29314032163244386 -0.29327943880062513 -0.29291966864096924 -0.29280433830163022 -0.2929422569214718 -0.29281528570318477 -0.29272404144074304 -0.2927171099158572 -0.29302678605483823 -0.29283587977578168 -0.29267685325142972 -0.29293050232362072 -0.29296492896869297 -0.29288017024991975 -0.29275465318182159 -0.29278639022853364 -0.29278371536070985 -0.29275848358941725 -0.29281168028492327 -0.29268867016515482 -0.2927069623887944 -0.29277747511435248 -0.29268741571332013 -0.29289425990080065 -0.29276984741210527 -0.29268474721509058 -0.29270986287713646 -0.29270624887100644 -0.29268859772515138 -0.29274623068953337 -0.29268008095535381 -0.2926707460711927 -0.29264848286422301 -0.29272471151772661 -0.29265176488663425 -0.29267848992311529 -0.29267160941079085 -0.29270372898731034 -0.29268152459266988 -0.2926701833630963 -0.29264778202269282 -0.29269296789815974 -0.29267343822122743 -0.29265673039706641 -0.29266939052257807 -0.29268828930932217 -0.29264612977259141 -0.29265178014547616 -0.29265913247732828 -0.29264683577956224 -0.29264364084014494 -0.29265576323777581 -0.2926477632199333 -0.29264359640191423 -0.29264122568827589 -0.29264523683852744 -0.2926418331147731 -0.29265520518583216 -0.29264086945879997 -0.29263344135514163 -0.29263868840654178 -0.29263478319226011 -0.29263970233725523 -0.29263514716026473 -0.2926439687080678 -0.29263793261024723 -0.29263407023793853 -0.29263366526068102 -0.29263347436594705 -0.29263343961406657
leaf_weight=44.956150409998372 297.97916342876852 9.8579613473266345 192.10349173285067 15.010382765904067 57.690444347914308 21.976243345765397 311.5023445058614 32.571931043174118 26.0432870821096 42.015529745491222 78.034738545306027 36.724785367725417 74.407220412511379 42.061468202155083 74.864308924647048 23.980568504193798 63.708776966668665 33.11536245374009 31.121616572141647 32.857672301121056 78.011400330578908 42.841183055425063 64.292137149721384 7.8087723371572784 13.516064796596764 12.839108272455631 16.951110401656479 34.743261197581887 37.804694498889148 22.002692220266908 42.370148426387459 50.735826600342989 10.453676469624041 24.439018904464319 27.59730560076423 25.584423079621047 22.208599073346704 31.744052078574896 24.842177983839065 9.168528155423699 15.928747865371404 10.080545561388133 21.613731218036264 24.81737126596272 46.537522407714278 10.575903634075077 21.905445151496679 63.024529504589736 18.592824886320159 18.944578783586621 25.740130018442869 9.6165408040396887 18.024792021606121 10.076999723445622 17.403477492276579 10.881901335436849 14.605194780044256 11.278743876609949 9.0351331802085024 16.987261716276407 17.675179634243243 9.2925434955395705 23.860734716523439 25.0935312891379 17.085523142479364 8.2262248103506845 16.577843039762229 24.114136348944157 10.788331155665217 9.4485250543802959 8.4861824689432961 22.460464818403125 16.890661576762795 11.01335357967764 24.921628174139187 11.954804531298578 9.4562247814610618 7.6913009672425714 9.7616908438503653 22.230028903577477 9.4831940769217891 12.75236079841852 7.9693421381525686 8.1623636065050942 7.6895588357001534 9.2761210892349464 7.8723916118033257 9.351267666090278 7.583699377719312 9.3181415558792633 14.241608535405247 8.6425674785859936 8.3184198685921711 12.241780676878987 7.6016243449412286 15.993891607038675 15.309545077383516 8.3243644018657506 7.7494648490101126 8.3366884156130237 7.6381041826680294 9.0003862911835295 8.8300421643070859 8.2294634375721234 10.151456860825411 9.0596018489450199 21.734439820982516 10.456236375030128 11.881458108313396 15.889529479667543 8.7163956034928614 10.061604423448442 9.5331348259933275 14.766457292716941 11.431961106602103 9.7398372762836516 14.9488995722495 15.528426211327307 13.83357784943655 8.5620650411583501 7.6941755772568312 7.6864793957211113 9.8523587831296027 8.7801518975756938 13.640340413898228 10.298275001347074 8.4642757461406362 8.464099661447106 10.673804904334245 7.9063061815686515 11.770717705599962 7.5823163697496048 8.6584144937805814 13.736754879821094 8.2681323988363129 14.939139508642269 13.499212599359451 8.5708370008505863 7.6890034754760554 8.4857228207401949 8.5142365200445038 7.7168706147931507 7.967615562491118 7.9275641497224596 8.4961250508204085 7.4882014994509545 8.3777859057299811 7.7833212739788022 7.6856006183661512 8.651824811473487 9.1206398215144855 8.0021382276900095 12.286677066236733 11.340552099980412 7.8626124896109095 7.7604049616493276 7.8626831728033713 13.637853359337894 8.0186450392939168 7.6644975910894555 10.627880282700064 9.3051519868895394 7.6381080648861817 12.775198038667442 10.363021711818858 11.721957263071088 7.5753181572072199 7.8089313902892306 11.543007693253459 7.6902149575762442 8.4680723282508534 8.3452313123270851 9.0466832993552071 32.74036844773218 9.2441861238330549 14.154473301954566 7.5899214991368344 13.214002274442469 8.8638031044974976 8.0693900217302126 7.4894994525238863 9.1421179394237679 7.4160688775591543 9.3662499501369876
leaf_count=1548 1715 1401 1160 1831 2461 1583 2255 1777 1378 1457 2182 1907 1786 1494 2440 1470 2461 1607 1753 1322 2382 1346 2109 1269 1917 1429 1310 2199 2160 1706 1282 1018 1319 1241 1606 1726 1200 1529 1458 1326 1986 782 1358 1122 1445 1290 2434 1730 829 1582 1385 1237 2274 1196 2131 1425 1871 1409 1186 2349 2273 1284 1478 1742 2121 1244 2436 1314 1744 1323 1265 1424 2162 1316 1396 1941 1458 1239 1110 1385 1285 1917 1199 1312 1183 1524 1287 1534 1226 1321 2022 1165 1351 1521 1238 2073 1847 1224 1242 1343 1233 1435 1427 1281 1341 1303 2203 989 1554 2268 1181 1073 1506 2370 1653 1274 2238 2425 2027 1324 1242 1245 1407 1348 2253 1520 1258 1276 1695 1245 1849 1210 1346 2256 1347 2358 2215 1281 1215 1394 1385 1258 1304 1267 1401 1239 1402 1256 1284 1427 1507 1304 2024 1877 1316 1271 1300 2273 1328 1258 1781 1554 1272 2140 1739 1955 1268 1310 1939 1289 1422 1392 1520 5523 1555 2386 1276 2227 1487 1358 1263 1542 1251 1580
internal_value=0 -0.0872549 -0.406655 -0.0101297 0.0391309 0.0178283 -0.23849 0.0546675 0.305917 0.0803471 0.0658465 0.409353 0.0449016 0.286023 0.0262517 -0.0991256 0.0089795 0.0897247 0.1835 0.253238 -0.0238061 0.0784279 -0.0545727 -0.251727 -0.179018 -0.124088 0.0136436 -0.118643 -0.0507906 -0.094428 0.00202333 0.0517103 -0.0816709 -0.138935 -0.0738972 -0.0520804 -0.173667 -0.11297 -0.00405376 -0.184044 -0.135112 -0.163022 -0.137302 0.0187138 0.121591 -0.173295 -0.0760214 -0.156662 -0.199645 -0.155764 -0.12253 -0.214255 -0.16327 -0.0762395 -0.19093 -0.216165 -0.158656 -0.228863 -0.195815 -0.144862 -0.239336 -0.185248 -0.193327 -0.144636 -0.198515 -0.271397 -0.207157 -0.198046 -0.251937 -0.231274 -0.252025 -0.236693 -0.257694 -0.23005 -0.250914 -0.275983 -0.239617 -0.15569 -0.264328 -0.271645 -0.267709 -0.271969 -0.281072 -0.274021 -0.282332 -0.262644 -0.26993 -0.191361 -0.282164 -0.277463 -0.2787 -0.266575 -0.238214 -0.277146 -0.287862 -0.270819 -0.286738 -0.288975 -0.276808 -0.220403 -0.289812 -0.288844 -0.291911 -0.287362 -0.28909 -0.28801 -0.302458 -0.293849 -0.293758 -0.293103 -0.293218 -0.293569 -0.293238 -0.292937 -0.293426 -0.293301 -0.29308 -0.292966 -0.292879 -0.292677 -0.292672 -0.29282 -0.293152 -0.292826 -0.29276 -0.292819 -0.292861 -0.292775 -0.292659 -0.292679 -0.292702 -0.292656 -0.292876 -0.292746 -0.292685 -0.292776 -0.292653 -0.292849 -0.292718 -0.292669 -0.292753 -0.292651 -0.292649 -0.292708 -0.292647 -0.292672 -0.292663 -0.292694 -0.292646 -0.2927 -0.292643 -0.292676 -0.292664 -0.292659 -0.292641 -0.292649 -0.292652 -0.292654 -0.292668 -0.292703 -0.292656 -0.292638 -0.292647 -0.292649 -0.292637 -0.292661 -0.292642 -0.292637 -0.292636 -0.292641 -0.292635 -0.29265 -0.292639 -0.292635 -0.292644 -0.292638 -0.292644 -0.292638 -0.292641 -0.292636 -0.292634 -0.292633 -0.292633 -0.292633
internal_weight=0 3090.89 801.585 2104.18 1629.03 1508.57 503.606 1147.21 120.459 1012.87 967.91 94.4152 883.833 84.077 809.426 361.361 734.562 212.128 127.688 96.5664 522.434 120.853 401.581 986.707 475.15 226.048 59.5007 339.384 151.976 127.996 203.936 139.643 42.5496 134.347 84.9866 84.4399 187.408 197.645 56.5862 222.19 133.496 117.567 105.993 52.4147 88.9077 166.547 49.3497 141.059 165.199 102.642 58.8555 117.197 64.7256 28.1018 107.486 90.0829 36.5106 249.102 134.595 70.5985 80.2249 59.3198 83.6975 48.9543 27.5392 764.517 50.9434 68.1883 42.7172 42.3325 63.9968 46.5746 88.6941 36.6238 49.3606 713.574 87.5886 25.4659 69.343 62.5573 114.507 55.5106 625.985 62.1227 618.016 135.532 127.843 17.2237 110.619 71.8035 100.991 32.884 16.0097 52.4715 482.483 25.6104 91.5078 470.529 91.475 16.0862 101.343 75.3889 379.054 53.9603 62.4853 51.6678 40.3273 53.3168 42.6082 77.2662 42.8606 40.2297 32.8466 42.7583 23.3134 30.1681 23.5915 32.7091 61.9566 370.224 361.899 31.9288 19.5922 46.0671 46.1515 33.7231 23.9927 38.4519 323.447 93.7594 67.7872 312.773 18.9567 29.9878 56.0165 32.2335 305.191 16.8003 21.4258 85.8531 23.4534 288.845 281.128 29.3512 267.629 47.0161 78.215 21.4237 259.661 16.346 205.822 36.2285 38.748 53.8397 196.701 61.0416 41.9866 45.3435 28.2263 15.351 26.4613 135.66 34.1239 34.003 126.354 19.7406 53.2812 118.492 108.129 45.5956 100.32 18.9731 38.0203 91.8518 26.4858 25.6975 20.3651 30.3301 18.108 21.2834 66.1543 58.6648 49.5227 42.1066
internal_count=293785 288655 5130 134786 71981 66235 3415 42602 5746 35460 33912 4368 30961 2951 29175 23633 26735 10254 5536 3783 16481 3728 12753 153869 62805 26976 6581 22050 9432 7962 5854 3745 5271 7142 4505 4718 12618 6899 2987 29127 17124 15138 6256 2728 2727 20395 5734 3912 11418 7001 2992 14661 8096 3470 14356 12225 4305 35829 19372 9768 10824 8359 5419 3220 3440 124742 7927 4096 6683 6010 9604 2738 12003 4626 2637 116815 13967 4048 9399 4417 16457 8339 102848 9919 101649 22229 21046 2821 18225 9841 14540 4687 2590 6565 79420 3310 13255 77479 14890 2585 16701 12305 62589 8607 8520 7126 3032 7194 5823 11233 6205 5044 4713 6422 3207 3971 3403 4864 9386 61162 59938 4939 2681 7118 7338 5236 3683 6071 53867 15475 11067 52172 2866 4795 9218 5091 50962 2562 3471 14230 3743 48293 47035 4776 44820 7783 12997 3509 43516 2669 34549 5981 6436 8967 33042 10217 7016 7566 4677 2503 4412 22825 5716 5689 21271 3283 8946 19955 18216 7662 16906 3173 6394 15484 4444 4325 3416 5105 3042 3585 11159 9896 8354 7103
is_linear=0
shrinkage=0.290888


Tree=3
num_leaves=191
num_cat=0
split_feature=345 2 14 81 343 96 167 243 311 138 321 94 150 63 1 303 234 334 91 203 94 180 10 63 313 2 59 261 316 156 154 94 64 35 61 179 59 37 307 10 309 262 26 150 179 277 35 29 564 185 91 125 338 98 64 253 243 304 316 65 311 0 154 18 306 42 11 280 280 255 44 98 111 261 311 204 125 32 262 25 235 162 306 283 61 56 65 1 23 0 51 316 14 111 280 303 131 325 94 46 250 228 327 204 291 325 36 129 321 119 0 325 215 174 366 276 3 124 44 276 3 349 41 513 3 162 3 11 125 334 36 19 340 125 2 0 57 37 62 234 157 46 138 334 57 340 26 26 215 340 26 215 306 340 334 280 340 94 16 340 2 306 16 56 52 240 205 138 125 37 25 1 115 150 33 2 16 306 340 26 33 244 52 119 181 59 321 340 62 26
split_gain=310.277 340.892 335.71 136.691 115.998 52.9969 53.206 44.6401 45.9613 44.3593 35.0997 32.5764 31.3899 36.7008 30.7696 23.6811 20.9622 23.6135 22.3137 21.6328 20.3841 24.9984 19.5682 21.9705 18.0561 17.2142 14.0421 21.1948 11.979 11.9822 10.5138 10.2328 10.0321 10.0236 9.78225 9.52903 9.20069 9.06402 9.0212 8.14659 11.2527 8.11911 15.2658 7.94844 7.77785 7.63865 7.16074 10.2061 7.12147 7.02607 6.76495 6.36092 6.17886 6.1622 8.82561 5.60175 5.36063 5.03143 4.92366 4.83409 6.45316 4.67331 4.23037 6.8188 9.45804 4.12446 4.01413 3.37402 3.0145 4.29453 2.99733 2.9863 2.36313 5.65234 2.81277 3.31416 2.2536 2.21623 2.20607 2.02645 2.00034 1.87281 1.59404 1.94292 1.39531 1.21876 1.06915 0.943297 0.898255 0.891418 0.806493 1.29429 0.770576 1.46411 3.28979 1.19551 2.37388 0.765836 0.700079 0.744754 0.590747 0.513606 0.380582 0.48687 0.372857 1.08358 0.366178 0.348964 0.26705 0.148489 0.138944 0.517838 0.135727 0.103877 0.00786153 0.00148102 0.000364578 0.000218656 0.000147608 0.000144556 0.000118517 9.26723e-05 3.36491e-05 2.1522e-05 1.21791e-05 7.11372e-06 4.88412e-06 4.35518e-06 3.69453e-06 3.03024e-06 2.26254e-06 1.80447e-06 1.76838e-06 1.08783e-06 1.01068e-06 9.65117e-07 8.2992e-07 7.86988e-07 7.02522e-07 6.56704e-07 6.69046e-07 6.25744e-07 5.6993e-07 4.92376e-07 4.25697e-07 4.23434e-07 3.48345e-07 3.19085e-07 2.97232e-07 4.40547e-07 2.82749e-07 2.75656e-07 2.12608e-07 1.90135e-07 1.62491e-07 1.51618e-07 1.22348e-07 1.16579e-07 1.13772e-07 1.12576e-07 9.33752e-08 9.25977e-08 8.50035e-08 7.57501e-08 7.42775e-08 6.65951e-08 5.20424e-08 5.09291e-08 4.87018e-08 3.93363e-08 3.87486e-08 3.67757e-08 3.53337e-08 2.67436e-08 2.31729e-08 2.0822e-08 1.86762e-08 1.37922e-08 1.41082e-08 1.17281e-08 7.33546e-09 7.15952e-09 5.30815e-09 5.17942e-09 3.5024e-09 2.62888e-09 2.33508e-09 1.91314e-09 1.08983e-09 4.5738e-10
threshold=1.0000000180025095e-35 -2.5462623892717495 -2.0921089145345695 8.0000000000000018 1.0000000180025095e-35 -0.22682098759261946 0.20757701466331402 -0.024143013142679446 0.063798935182077424 624.50000000000011 -0.065158001837530788 0.59973320004245767 657.50000000000011 -0.15717290128762448 202101.50000000003 -0.95714285714285685 0.041457236355706452 -0.0081419556683236093 0.46681549538291106 1.0000000180025095e-35 0.31993487246330005 0.21546961167650303 0.44972634559001706 0.24775470705161504 -1.0000000180025095e-35 3.9547050559058152 0.082245227586050004 -0.012154895394202997 -0.016457656943350846 0.00055563246481851508 0.0095834591384863117 0.039932819584573863 0.50345193094141361 -0.045649503684819896 0.58837218083777854 0.44816390481518004 1.0000000180025095e-35 -0.065918842598585131 1.0000000180025095e-35 0.21918902733064152 0.037255371314483511 -1.0000000180025095e-35 1.0000000180025095e-35 3350.5000000000005 0.89627381745566204 -0.38571428571428545 -0.19745874013733097 0.31318004290202756 1.0000000180025095e-35 0.32189961712361409 0.41176763934726651 7.5000000000000009 -1.0000000180025095e-35 0.52111761674080304 -0.70884387357426692 -0.00077629678651547341 -0.026198616058338498 -2.9884148610614396e-06 -0.059162423363866838 0.20632629373496603 1.0000000180025095e-35 35078750.500000007 0.037015718653590456 0.57268916154829608 0.0040974249973012109 1.0000000180025095e-35 1.0075333744832702 -1.0000000180025095e-35 3.8928571428571455 0.0072326379185209113 -0.66136711651994839 0.20136968783197354 0.06909273158410946 -0.17260880744153548 -0.031126212463715698 -1.0000000180025095e-35 9.5000000000000018 -0.050170956901856446 -0.015341171544985498 0.9113544169316441 0.36912718525988703 -0.041695848798591097 0.00056177202839921862 30.350000000000005 0.69946789219902306 -0.42389580921385644 -0.39489544760374595 202103.50000000003 1.0446779655785352 129662046.00000001 -0.5488374137758808 0.0036683819984800504 -0.6043608750624524 0.27638747598065655 -0.44285714285714295 -1.3571428571428548 -759.49999999999989 0.045550063078414811 -0.79929478383645536 0.34276404390536058 0.0014349417352752453 -0.011945393517601498 0.036010134311219154 35.500000000000007 -0.73907563025210088 -0.013325424800236048 -0.25413536073366444 31.500000000000004 -0.00070317898476139238 14.500000000000002 142969766.00000003 0.0019766464424796006 -3.4999999999999996 0.86181673497856359 1.0000000180025095e-35 0.12857142857142853 1.7890617727580502 1.0000000180025095e-35 -0.4292616422263919 0.12857142857142853 2.0781305281579407 1.0000000180025095e-35 -0.45827625304280295 1.0000000180025095e-35 3.1671400450282206 -0.041695848798591097 -2.2961252044695049 0.37375311204502154 4.5000000000000009 0.0025226861019801406 0.64649316277813462 -0.46778857484767344 0.0015657913831412652 4.5000000000000009 3.3569586538412954 105983475.50000001 -0.15453584440636245 0.16623152071311451 0.96187941363829055 0.017062359880630502 0.90973607848289406 -0.76405920210359335 3998.5000000000005 0.014176122816604053 0.081355767895733774 0.024322869977578102 -0.41886762872874345 -0.76724215727242639 4.5000000000000009 0.015447154267782351 -0.57939074313206385 4.5000000000000009 -0.0034371007219312845 0.0060546728668542408 -0.032379578968844594 1.1857142857142853 0.0015657913831412652 0.27981385796806907 -0.53720760499840337 -0.040210881223857096 5.1797421296292105 -0.0022378419053915243 -0.53720760499840337 -0.035540602467485145 0.20697650354371003 0.35781431330199059 -17.499999999999996 460.50000000000006 6.5000000000000009 0.16623152071311451 0.54357942881325905 202102.50000000003 142.50000000000003 2611.5000000000005 -0.10773602743106898 4.7202983897111261 0.37417835312930708 1.0000000180025095e-35 0.024322869977578102 -0.34574605847167345 -0.053905068603299792 -0.14657059294204647 0.20697650354371003 3.5000000000000004 0.34468059870235757 -0.093356457374806787 -1.0000000180025095e-35 -0.016465891308989396 -0.58946026920878836 0.13050808616316353
decision_type=2 2 2 10 2 2 10 8 10 10 8 2 8 2 2 8 10 8 8 10 2 8 2 2 8 2 2 10 8 10 8 2 2 2 2 8 2 2 10 2 10 8 2 8 8 8 2 2 8 10 10 8 10 2 2 8 10 8 8 2 10 2 10 2 10 2 2 10 10 10 2 2 10 8 8 10 10 2 8 2 10 10 10 8 2 2 2 2 2 2 2 10 2 10 8 8 10 10 2 2 8 8 10 10 8 8 2 10 8 8 2 10 10 10 2 10 2 8 2 10 2 2 2 2 2 10 2 2 10 10 2 2 8 10 2 2 2 2 2 8 8 2 8 10 2 8 2 2 8 10 2 8 10 10 10 8 10 2 2 10 2 10 2 2 2 10 10 10 10 2 2 2 10 10 2 2 2 10 10 2 2 10 2 10 10 2 10 10 2 2
left_child=1 3 -2 4 5 14 7 -7 10 -4 -9 16 -10 -14 44 -16 17 -12 36 26 21 31 23 24 -23 38 27 -20 29 -13 37 81 -15 -18 -29 56 43 -6 39 40 45 42 -28 -19 62 -3 -37 -48 -43 52 51 -22 79 54 -32 -24 -8 -56 -52 76 -61 -59 85 64 -64 -31 78 -38 89 77 -27 -47 73 -72 75 -75 118 -70 -63 -30 82 -17 83 -40 108 -1 -65 -58 97 102 91 -76 93 94 -74 96 -95 113 -97 106 -73 -94 103 116 105 -103 -100 -87 -60 126 133 150 -107 115 -110 120 -55 122 -41 124 -80 -79 -84 131 132 -120 -92 134 129 -128 135 -122 -118 143 -124 148 -130 145 141 140 144 -135 -133 155 171 170 -114 160 162 -150 -112 152 159 -153 156 -106 -154 -138 -156 -149 -143 -148 164 174 -108 166 -160 -152 -164 175 -137 -126 -171 -161 -159 180 -174 -170 182 184 -168 -181 -179 -183 -177 186 -185 -187 -189 -190
right_child=2 25 9 -5 30 6 35 8 12 -11 11 28 13 32 15 20 33 18 19 -21 50 22 55 -25 -26 70 41 34 49 65 53 -33 -34 -35 -36 46 67 -39 80 59 -42 48 -44 -45 -46 71 47 -49 -50 -51 58 -53 -54 68 57 -57 87 61 84 60 -62 66 63 86 -66 -67 -68 -69 69 -71 72 100 92 74 90 -77 -78 121 88 -81 -82 -83 117 -85 -86 107 -88 -89 -90 -91 109 -93 101 95 -96 98 -98 -99 99 -101 -102 104 -104 -105 110 112 130 -109 114 -111 111 -113 146 -115 -116 -117 119 -119 125 -121 123 -123 127 -125 139 -127 128 -129 136 -131 -132 142 -134 138 -136 137 157 -139 -140 -141 -142 147 -144 -145 -146 -147 161 151 149 -151 167 153 154 -155 158 -157 -158 163 165 173 -162 -163 168 -165 -166 -167 169 -169 177 172 -172 -173 176 -175 -176 179 -178 178 -180 181 -182 183 -184 185 -186 187 -188 188 189 -191
leaf_value=-0.20006368206988173 -0.48773262178087767 0.10733531615698008 0.0015810181044342586 0.71678817878239476 0.21954677218736735 0.37967248676875154 -0.087181486744528136 0.30834900524256365 -0.028971899721526174 -0.18433410516748655 0.23098575426484383 0.087083160723813863 0.089293724311918649 0.24254755626294608 0.20872079730804385 -0.24662679132662044 0.27992246462663956 -0.1249867089708733 0.25312941555831314 0.24687092474644229 0.097850024578696945 0.38133611679116897 0.031636065442989809 -0.079169059959558641 0.076351915403254672 -0.11889858910604391 -0.09689641552933928 0.078362014085857107 -0.29741660650159524 -0.038371062822617812 0.015002654533946634 0.017164319595949679 0.42739680845680728 0.066639856850223014 -0.091664015442786587 -0.1581522504312444 -0.11553493851025433 -0.17661610877278569 -0.092642118565440371 -0.29415309432667996 0.17563456540768138 -0.035093370711908982 0.17486274835853158 0.069455682987488068 -0.0041295851974434486 -0.072892024092299404 0.14743255735294425 -0.12017503273331483 -0.19649572802255974 -0.01164925476960146 -0.064892754775918993 -0.17708600662500587 -0.095609944453776213 -0.2941449323587001 -0.025901416642097372 -0.20965485250672078 -0.30071548891126099 -0.030229018263797588 -0.24648208748800152 0.074734212248671661 -0.24082437941633442 -0.13554758299131917 0.074765592116324303 -0.29983860675635626 -0.20607503443417458 -0.23735701020379227 -0.049113638730341691 -0.25348281015230328 -0.10550534262350399 0.0012342729718629976 -0.0098533906673868472 -0.19354096982832877 -0.012259891931453911 0.023571537771137591 -0.29244404661024198 -0.25629859029822988 -0.12280099061898905 -0.29378702586893957 -0.29387543786319503 -0.19015945142979462 -0.10813007264031209 -0.13995935372507215 -0.29319795376020819 -0.29314622115383326 -0.17324480344341894 -0.3113433206305426 -0.19350433923202182 -0.21851865631690925 -0.18742722301233267 -0.1756856359158539 -0.29259824719592042 -0.11563835973013914 -0.20457390715005688 -0.29234562115525781 -0.29227774057885625 -0.19940372937762241 -0.048278945684629572 -0.19913214902193166 -0.23434238382537775 -0.20521113023329091 -0.29409714812251259 -0.14425003733673558 -0.21946346871115965 -0.21530851934203149 -0.29225100213982735 -0.24220432997725272 -0.29223187324711331 -0.25958254996735652 -0.30374075037396575 -0.24422457165266062 -0.29233529893859184 -0.1944583418906603 -0.29233414899901178 -0.25931947251857884 -0.29377817739318846 -0.29671214080455938 -0.29256179327769016 -0.29427924616541712 -0.29299520264647222 -0.29377440365726026 -0.29267510681929026 -0.29241849731073044 -0.29247160890891133 -0.29309144092748485 -0.2922522130790618 -0.29262657902597883 -0.29232090831234647 -0.29267376885847901 -0.2923689610767865 -0.29259617727128429 -0.29241843199886003 -0.29244369380546525 -0.29274952803443105 -0.29229820417356728 -0.29234992692808393 -0.29223458145890036 -0.29227859517106708 -0.29237275916487138 -0.29231230506540479 -0.29243350697925469 -0.2924045338862698 -0.29229433598097171 -0.29255522655921323 -0.29236624361803881 -0.29235221448992732 -0.29232187194777021 -0.29227848202136242 -0.29227550918778888 -0.29223468334054181 -0.29233762235127297 -0.2922816055336323 -0.29222943990266059 -0.29221650724609438 -0.29230183084502709 -0.29224933047634155 -0.29230884357012193 -0.29227569831639172 -0.2922107135878218 -0.29223315729178073 -0.29224690463587638 -0.29224583820160488 -0.29223299845537926 -0.29223855049980502 -0.29226271188527103 -0.29227218710346242 -0.29223438627773241 -0.29220567168452188 -0.2922454952744209 -0.29222728770829481 -0.29223683669144113 -0.29226362834320413 -0.29228448222844094 -0.29220295352946218 -0.29222273930843223 -0.29223635933913678 -0.29221394457086153 -0.29222365999960703 -0.29220366403412862 -0.29222345528031818 -0.29220931701772612 -0.2922188091547902 -0.29220679308082176 -0.29221472367295032 -0.29220540992388572 -0.29220522754568312 -0.29220094026882842 -0.29219823315023963 -0.2921986514957417 -0.2921956365408292 -0.29219283012457725
leaf_weight=20.173689489020035 359.91931217908859 10.161587067414073 177.48915746435523 21.428722263080999 9.6202789610251802 35.589878343045712 22.976381912594661 33.232033895794302 61.111117384163663 279.76601691171527 40.135700211627409 44.903530988609418 105.79237410309725 49.419180403929204 33.074099135585129 28.484131102915853 40.05981519096531 37.631312273675576 41.276494279270992 37.019357080571353 13.835670336149635 35.682041236199439 14.13344293925911 25.002717633731663 30.436514449771494 11.729366080369799 38.201898244675249 72.785672987811267 33.224951968644746 17.346895115450025 20.637027205433697 29.597138898447156 49.957245792727917 34.879197968635708 47.200323355617002 34.395454451441765 28.747721047606319 9.9319489831104857 8.6976055991835874 10.827853206545116 15.435514101758598 55.151331548346207 32.261070120614022 33.737282625865191 18.546428600559011 13.152179431170223 24.470830950071104 23.775705410167575 39.841753340791911 22.359181457199156 14.771587181370704 14.670715239830313 34.986292116111144 17.070501139387488 14.098641499876974 19.202652173116803 22.975202865200117 11.052543490193782 11.730567110236732 11.024711593054237 10.910232087131588 12.88211029442027 18.664635400753468 19.28181216865778 22.234634415246546 17.918491876218468 9.512230964843182 31.378208522917703 7.7617518510669496 8.8937755743972939 9.2649107663892192 8.6484902775846475 6.2323800683952868 6.4439413677901021 7.4934442183002812 8.0563452262431365 8.5002442300319654 7.3881369922310123 9.5240970035083574 27.032159205060452 7.8136734934523693 27.254336675163358 6.5936061227694109 7.7184251789003637 13.096117107663302 22.840964748524129 13.675754562485961 24.318248342256993 10.905936586670576 7.4194611199200144 6.3145125373266557 6.5795492078177631 6.6361283077858388 7.7646226994693279 8.2491907104849798 9.395941333845256 5.9606995540671033 9.2494382015429419 10.038830400444565 10.020875153131781 11.539664624258871 5.8944926261901855 7.9203506084159008 7.4917606194503596 10.737975447904319 5.808739130850884 10.482479746919113 21.298041542991996 14.305976835545152 6.0507919783703974 6.4947519814595625 5.9457234819419673 5.808992457110441 8.6074076225049776 12.60967148351483 11.491524581797419 9.0502864876762015 8.0232866527512652 8.054009214043619 8.0076732141897065 7.2467998759820942 9.6630681566894054 11.703647079877562 8.7790796533226985 5.7964417641051238 9.8441933495923859 7.0566444769501739 6.9786755722016087 6.0768539193086246 6.5016043088398874 7.9886358818039289 7.7789186802692827 7.9971948447637287 10.288913758937268 11.403544761706144 10.948689534794541 8.1547655533067971 8.8042508503422123 8.7750468612648529 6.6115904003381685 7.8271461864933327 6.1045923954807204 7.7282944377511749 6.4572856035083523 9.1441155420616251 9.391512901522221 6.2441989383660284 6.8077003131620613 8.8535977494902891 5.8373367772437623 5.8946930565871298 6.5366252209059876 5.7433511996641737 5.7889211401343346 6.3782281833700827 5.9646909306757196 6.0860496829263866 6.1446970487013388 6.4655973748303799 5.9779375703074065 7.46962118614465 9.6261905380524606 11.03735418757425 6.2374061029404482 6.1280075614340594 8.5177267226390523 5.9603887945413598 7.522310309112072 6.9216282330453422 5.8203504942357567 6.0242740311659864 6.1687274761497974 10.283396649174394 11.016421338077633 5.790881016291678 6.4727317569777254 5.7448580586351445 10.095024999231102 6.8845903035253277 6.1412893733940868 9.0670969202183294 6.1491507054306842 5.7714903810992828 5.9394037132151452 9.8129615602083486 6.0105455461889354 10.832986566238086 5.8762436611577753 9.2080344185233631 10.536841291468589
leaf_count=1411 1590 1498 2075 366 1204 1047 1534 958 1372 1465 1419 1680 2198 1675 2478 1359 1528 1325 1596 967 1016 2040 1406 1772 1599 2184 1509 2171 2008 1179 2193 1449 897 1297 1508 2132 1370 1406 1446 1610 1925 1851 1218 1351 1501 1802 1555 1559 1394 2365 1288 1552 1731 2005 1831 1698 1728 1642 1344 1517 1566 1814 1726 1709 2265 1484 1227 1343 1329 1445 1829 1261 1313 1278 1458 1604 1267 978 1120 1514 1130 1322 1162 1313 907 852 1303 1592 1516 1151 1139 1260 1448 1593 1760 2002 1266 1361 2120 2120 1652 1243 1351 1288 2327 1237 2299 1835 1032 1275 1339 1243 1202 1369 1749 936 1666 1115 1265 964 1255 1911 2257 1267 1256 1761 1464 1252 1233 1150 1566 1519 1333 2172 2328 2396 1735 1769 1826 1285 1537 1293 1414 1303 1868 1944 1330 1450 1939 1198 1252 1436 1272 1217 1387 1242 1293 1366 1416 1298 1627 2110 2410 1342 1309 1862 1330 1635 1523 1273 1295 1311 2299 2430 1266 1436 1267 2255 1518 1366 2006 1371 1280 1326 2190 1345 2429 1317 2068 2371
internal_value=0 -0.0745585 -0.277584 -0.0141606 -0.0216409 0.00653403 0.0374477 0.0590029 0.0486989 -0.112169 0.0153621 0.00331313 0.154026 0.208534 -0.0744743 -0.0250627 0.0365606 0.016391 -0.00100066 0.0361244 -0.0504297 0.000195709 0.0833417 0.153107 0.240942 -0.239927 0.0122454 0.0733299 -0.099286 -0.0125779 -0.18801 -0.121068 0.335473 0.180653 0.0114768 -0.123701 -0.103695 0.0183078 -0.163098 -0.11429 -0.0377451 -0.0472908 0.027527 -0.0330701 -0.181008 -0.113457 -0.0567407 0.0155566 -0.102788 -0.158394 -0.162204 -0.0436449 -0.192844 -0.202228 -0.161608 -0.107355 -0.20245 -0.189893 -0.213016 -0.190545 -0.0822216 -0.21004 -0.204751 -0.157254 -0.0779117 -0.139477 -0.229204 -0.187526 -0.247474 -0.172195 -0.264466 -0.180751 -0.267441 -0.225837 -0.248864 -0.131924 -0.254372 -0.234358 -0.24739 -0.2493 -0.246718 -0.19447 -0.264436 -0.186914 -0.255303 -0.259296 -0.255715 -0.25845 -0.26511 -0.272721 -0.272285 -0.209782 -0.275816 -0.2603 -0.171767 -0.268396 -0.186351 -0.277143 -0.276183 -0.281518 -0.251019 -0.284613 -0.280455 -0.286127 -0.286395 -0.257424 -0.287625 -0.286368 -0.28311 -0.287365 -0.290046 -0.269791 -0.281693 -0.288941 -0.299073 -0.293793 -0.292957 -0.292904 -0.293305 -0.292623 -0.292976 -0.293011 -0.292603 -0.292705 -0.292448 -0.292792 -0.292358 -0.292472 -0.292325 -0.292453 -0.292269 -0.292555 -0.29265 -0.292238 -0.292412 -0.292258 -0.292272 -0.292297 -0.292232 -0.292351 -0.292332 -0.292228 -0.292499 -0.292298 -0.292305 -0.292272 -0.292273 -0.292225 -0.292239 -0.292276 -0.292285 -0.292221 -0.292218 -0.292263 -0.292214 -0.292272 -0.292247 -0.29225 -0.292211 -0.292244 -0.292268 -0.292251 -0.292229 -0.292237 -0.292247 -0.29221 -0.292208 -0.292261 -0.292222 -0.292206 -0.292245 -0.292269 -0.292217 -0.292231 -0.292223 -0.292204 -0.29221 -0.292216 -0.292212 -0.292202 -0.292214 -0.2922 -0.292208 -0.292199 -0.292209 -0.292198 -0.292201 -0.292196 -0.292195 -0.292194
internal_weight=0 2887.99 817.174 2115.38 2093.95 1790.7 1296.09 1143.18 1107.59 457.255 841.311 808.079 266.28 205.169 494.603 337.887 610.307 535.368 495.232 363.738 304.813 209.793 124.457 91.1213 66.1186 772.607 326.719 161.262 197.772 80.1689 303.258 85.3356 99.3764 74.939 119.986 152.912 131.495 19.5522 187.031 118.099 58.9374 165.456 70.463 71.3686 156.716 43.5019 82.642 48.2465 94.9931 117.603 95.0203 28.5064 95.2434 283.706 149.494 33.3361 70.2698 128.857 66.5139 59.1612 21.9349 114.758 138.17 73.8568 40.8993 35.2654 103.706 60.1259 134.212 33.7067 585.576 33.3403 573.847 96.1663 86.9014 14.5003 37.2263 24.813 94.1936 60.2571 68.9325 55.7385 61.1188 16.416 51.7423 64.3127 32.9576 47.2935 81.3115 100.505 72.4012 14.073 477.681 172.831 14.4816 158.35 13.7253 70.4056 144.625 135.229 20.1882 304.849 93.0858 85.1654 298.213 33.3826 125.208 44.139 38.6462 58.3282 264.83 25.8575 27.4881 61.1561 26.9156 52.5487 77.6737 44.7028 28.7261 60.6032 41.0572 17.0512 36.6795 31.5331 52.5955 17.8982 52.2774 30.0859 45.9629 13.5582 115.169 22.754 17.0475 238.973 23.1072 107.18 32.4046 35.1687 215.813 35.548 28.9364 207.038 15.5072 23.16 21.1093 26.3645 21.6794 196.749 72.0115 14.6909 19.9118 183.175 170.849 12.3255 147.047 16.7027 11.8294 26.3277 135.218 23.8021 13.5742 15.8704 57.3206 18.173 16.6105 128.84 120.322 13.417 40.7101 113.856 16.973 11.9652 21.8486 16.9944 11.9356 92.0077 16.0283 29.6727 22.7511 76.9802 15.0275 60.6945 15.8665 54.5532 16.2857 48.4041 16.7724 31.6317 25.6211 19.7449
internal_count=293785 288655 5130 134786 134420 88668 52055 41955 40908 3540 34766 33808 6142 4770 36613 24011 21847 19022 17603 12214 21533 12645 8515 5411 3639 153869 11247 5275 11961 4343 45752 4130 2572 2825 3679 10100 5389 2610 29127 17124 8138 5972 2727 2676 12602 6213 5246 3114 3245 7618 8888 2568 5253 43142 20464 3104 4854 18271 6320 8986 3083 16440 11101 7003 3991 2663 14798 2713 22678 5663 124742 4715 122558 19399 17570 2882 5903 4218 13571 3522 12003 2681 10873 2759 5032 4098 3012 3320 11757 17015 14688 2718 103159 36875 3073 33802 2859 10241 30943 28941 2913 66284 15864 14513 64836 7122 26821 2687 4125 11970 57714 5469 5879 8880 2781 7511 13225 8114 4636 11220 6575 2889 6999 5455 10256 3026 10695 5837 9556 2614 24701 4188 2999 52245 4585 23135 6942 7404 47373 7257 5972 45547 2933 4872 4435 5635 4642 43375 15731 3137 4226 40455 37802 2653 32624 3569 2565 5709 30059 5178 2920 3440 12594 3974 3608 28672 26810 2887 8986 25394 3691 2567 4839 3728 2632 20555 3566 6576 5053 17219 3336 13593 3535 12227 3626 10856 3755 7101 5756 4439
is_linear=0
shrinkage=0.290888


Tree=4
num_leaves=189
num_cat=0
split_feature=534 514 14 494 76 528 148 167 73 156 123 322 25 310 309 133 46 67 6 314 33 152 96 54 68 154 33 337 329 77 205 243 90 213 107 334 310 306 565 68 33 246 43 271 154 8 104 25 122 52 62 95 5 15 236 75 174 309 108 390 153 324 156 137 412 5 28 40 278 23 303 322 31 107 67 340 252 326 156 79 204 320 116 283 247 248 36 271 76 0 27 322 340 28 326 236 308 494 334 315 255 265 310 315 0 61 210 34 0 303 31 62 163 204 2 327 103 2 129 2 3 170 3 14 8 2 2 342 2 343 3 2 48 170 170 337 303 164 111 140 36 14 111 14 254 23 46 125 25 111 164 25 228 42 0 204 44 14 291 158 36 334 42 340 8 334 340 23 22 0 195 116 72 65 337 205 90 25 0 23 103 52 119 314 340 171 137 123
split_gain=161.336 108.341 99.1241 63.3671 56.8158 45.8821 42.3604 36.4591 29.6509 27.8942 23.5808 23.2575 25.1503 23.2519 21.1792 20.1638 20.06 17.3564 16.4 16.3303 15.5707 14.7635 14.277 16.0481 22.2195 14.8942 14.0823 13.8708 12.6643 12.2003 13.3404 11.6381 13.1056 11.3775 11.3455 10.8916 9.8191 9.7873 11.5925 9.4198 9.10041 9.06888 8.65945 8.50781 8.13187 9.18599 9.09062 8.06571 10.2129 8.73486 7.99272 10.2444 7.97434 7.75843 7.67579 8.17537 12.2062 7.2994 7.05294 7.04851 6.85197 6.97847 6.73082 6.50916 5.92627 5.42387 5.13847 4.59575 4.49751 5.51613 8.48348 12.4571 4.22375 3.80773 3.41921 3.34397 3.00837 5.55779 2.99774 2.93095 2.39348 2.32886 2.31795 4.40458 1.97172 4.80414 1.9635 1.78932 1.93347 1.78731 1.51339 1.48672 1.40257 1.31721 1.2408 1.69061 3.03263 0.924727 0.874006 0.863517 0.802486 0.728922 0.482547 0.432396 0.393341 0.376542 0.374483 0.365062 1.2655 0.361906 0.255762 0.439471 0.187911 0.143219 0.140421 0.110141 0.100022 0.0584716 0.0435031 0.00269875 0.00131249 0.000832912 0.000480278 0.000395544 0.000200875 0.000112325 8.38124e-05 6.15914e-05 4.28422e-05 4.02945e-05 1.87877e-05 1.36195e-05 1.18898e-05 1.06236e-05 5.14976e-06 2.85962e-06 1.7017e-06 1.63735e-06 1.5008e-06 1.4429e-06 1.11277e-06 7.30027e-07 7.55583e-07 6.89725e-07 6.15339e-07 3.49419e-07 2.86643e-07 2.85881e-07 2.7004e-07 2.22577e-07 2.15543e-07 2.04722e-07 1.74157e-07 1.51679e-07 1.45673e-07 1.44068e-07 1.36603e-07 1.22308e-07 1.21805e-07 1.07989e-07 7.94912e-08 5.91638e-08 5.77688e-08 5.49129e-08 5.22976e-08 4.58884e-08 4.31803e-08 4.16049e-08 3.59693e-08 3.47105e-08 1.91055e-08 1.44995e-08 1.04965e-08 9.82351e-09 8.84776e-09 6.67703e-09 6.29928e-09 4.69311e-09 4.22246e-09 3.12012e-09 1.69682e-09 1.12812e-09 9.24814e-10 8.29502e-10 5.21606e-10 4.13735e-10 1.1269e-10 5.62093e-11
